<?xml version="1.0"?>
<MethodSetup Method="BDT::BDT">
  <GeneralInfo>
    <Info name="TMVA Release" value="4.2.1 [262657]"/>
    <Info name="ROOT Release" value="6.16/00 [397312]"/>
    <Info name="Creator" value="mo"/>
    <Info name="Date" value="Tue Apr  9 22:12:19 2019"/>
    <Info name="Host" value="Linux moXPS 4.19.16-1-MANJARO #1 SMP PREEMPT Fri Jan 18 17:03:05 UTC 2019 x86_64 GNU/Linux"/>
    <Info name="Dir" value="/home/mo/Analysis/AnalysisTools/train_110140"/>
    <Info name="Training events" value="740266"/>
    <Info name="TrainingTime" value="1.18575478e+02"/>
    <Info name="AnalysisType" value="Classification"/>
  </GeneralInfo>
  <Options>
    <Option name="V" modified="Yes">False</Option>
    <Option name="VerbosityLevel" modified="No">Default</Option>
    <Option name="VarTransform" modified="No">None</Option>
    <Option name="H" modified="Yes">False</Option>
    <Option name="CreateMVAPdfs" modified="No">False</Option>
    <Option name="IgnoreNegWeightsInTraining" modified="No">False</Option>
    <Option name="NTrees" modified="Yes">500</Option>
    <Option name="MaxDepth" modified="Yes">5</Option>
    <Option name="MinNodeSize" modified="No">5%</Option>
    <Option name="nCuts" modified="Yes">20</Option>
    <Option name="BoostType" modified="Yes">Grad</Option>
    <Option name="AdaBoostR2Loss" modified="No">quadratic</Option>
    <Option name="UseBaggedBoost" modified="Yes">True</Option>
    <Option name="Shrinkage" modified="Yes">1.000000e-01</Option>
    <Option name="AdaBoostBeta" modified="No">5.000000e-01</Option>
    <Option name="UseRandomisedTrees" modified="No">False</Option>
    <Option name="UseNvars" modified="No">4</Option>
    <Option name="UsePoissonNvars" modified="No">True</Option>
    <Option name="BaggedSampleFraction" modified="Yes">5.000000e-01</Option>
    <Option name="UseYesNoLeaf" modified="No">True</Option>
    <Option name="NegWeightTreatment" modified="Yes">pray</Option>
    <Option name="Css" modified="No">1.000000e+00</Option>
    <Option name="Cts_sb" modified="No">1.000000e+00</Option>
    <Option name="Ctb_ss" modified="No">1.000000e+00</Option>
    <Option name="Cbb" modified="No">1.000000e+00</Option>
    <Option name="NodePurityLimit" modified="No">5.000000e-01</Option>
    <Option name="SeparationType" modified="No">giniindex</Option>
    <Option name="RegressionLossFunctionBDTG" modified="No">huber</Option>
    <Option name="HuberQuantile" modified="No">7.000000e-01</Option>
    <Option name="DoBoostMonitor" modified="No">False</Option>
    <Option name="UseFisherCuts" modified="No">False</Option>
    <Option name="MinLinCorrForFisher" modified="No">8.000000e-01</Option>
    <Option name="UseExclusiveVars" modified="No">False</Option>
    <Option name="DoPreselection" modified="No">False</Option>
    <Option name="SigToBkgFraction" modified="No">1.000000e+00</Option>
    <Option name="PruneMethod" modified="No">nopruning</Option>
    <Option name="PruneStrength" modified="No">0.000000e+00</Option>
    <Option name="PruningValFraction" modified="No">5.000000e-01</Option>
    <Option name="SkipNormalization" modified="No">False</Option>
    <Option name="nEventsMin" modified="No">0</Option>
    <Option name="UseBaggedGrad" modified="No">False</Option>
    <Option name="GradBaggingFraction" modified="No">5.000000e-01</Option>
    <Option name="UseNTrainEvents" modified="No">0</Option>
    <Option name="NNodesMax" modified="No">0</Option>
  </Options>
  <Variables NVar="14">
    <Variable VarIndex="0" Expression="h_pt" Label="h_pt" Title="h_pt" Unit="" Internal="h_pt" Type="F" Min="2.70346887e-02" Max="1.56424121e+03"/>
    <Variable VarIndex="1" Expression="h_eta" Label="h_eta" Title="h_eta" Unit="" Internal="h_eta" Type="F" Min="-9.09525681e+00" Max="8.87917519e+00"/>
    <Variable VarIndex="2" Expression="h_deta" Label="h_deta" Title="h_deta" Unit="" Internal="h_deta" Type="F" Min="1.31130219e-06" Max="3.38992214e+00"/>
    <Variable VarIndex="3" Expression="h_dphi" Label="h_dphi" Title="h_dphi" Unit="" Internal="h_dphi" Type="F" Min="3.14712524e-05" Max="6.27356339e+00"/>
    <Variable VarIndex="4" Expression="jeteta_1" Label="jeteta_1" Title="jeteta_1" Unit="" Internal="jeteta_1" Type="F" Min="-5.00000000e+00" Max="4.69788742e+00"/>
    <Variable VarIndex="5" Expression="jeteta_2" Label="jeteta_2" Title="jeteta_2" Unit="" Internal="jeteta_2" Type="F" Min="-5.00000000e+00" Max="4.69987106e+00"/>
    <Variable VarIndex="6" Expression="ncentJets" Label="ncentJets" Title="ncentJets" Unit="" Internal="ncentJets" Type="F" Min="0.00000000e+00" Max="9.00000000e+00"/>
    <Variable VarIndex="7" Expression="njets" Label="njets" Title="njets" Unit="" Internal="njets" Type="F" Min="0.00000000e+00" Max="9.00000000e+00"/>
    <Variable VarIndex="8" Expression="mjj_1" Label="mjj_1" Title="mjj_1" Unit="" Internal="mjj_1" Type="F" Min="0.00000000e+00" Max="7.19114160e+03"/>
    <Variable VarIndex="9" Expression="mjj_2" Label="mjj_2" Title="mjj_2" Unit="" Internal="mjj_2" Type="F" Min="0.00000000e+00" Max="2.55204077e+03"/>
    <Variable VarIndex="10" Expression="detajj_1" Label="detajj_1" Title="detajj_1" Unit="" Internal="detajj_1" Type="F" Min="-1.00000000e+00" Max="9.27472782e+00"/>
    <Variable VarIndex="11" Expression="detajj_2" Label="detajj_2" Title="detajj_2" Unit="" Internal="detajj_2" Type="F" Min="-1.00000000e+00" Max="8.23760033e+00"/>
    <Variable VarIndex="12" Expression="nbtagJets" Label="nbtagJets" Title="nbtagJets" Unit="" Internal="nbtagJets" Type="F" Min="0.00000000e+00" Max="5.00000000e+00"/>
    <Variable VarIndex="13" Expression="metpt" Label="metpt" Title="metpt" Unit="" Internal="metpt" Type="F" Min="1.61223933e-02" Max="4.85793115e+03"/>
  </Variables>
  <Spectators NSpec="0"/>
  <Classes NClass="2">
    <Class Name="Signal" Index="0"/>
    <Class Name="Background" Index="1"/>
  </Classes>
  <Transformations NTransformations="0"/>
  <MVAPdfs/>
  <Weights NTrees="500" AnalysisType="1">
    <BinaryTree type="DecisionTree" boostWeight="1.0000000000000000e+00" itree="0">
      <Node pos="s" depth="0" NCoef="0" IVar="0" Cut="6.3199802398681641e+01" cType="1" res="9.6749508520588279e-04" rms="4.9999907612800598e-01" purity="5.0096750259399414e-01" nType="0">
        <Node pos="l" depth="1" NCoef="0" IVar="0" Cut="1.2059826850891113e+01" cType="1" res="-4.7435685992240906e-02" rms="4.9774476885795593e-01" purity="4.5256426930427551e-01" nType="0">
          <Node pos="l" depth="2" NCoef="0" IVar="-1" Cut="0.0000000000000000e+00" cType="1" res="-4.1685502976179123e-02" rms="4.5448648929595947e-01" purity="2.9157248139381409e-01" nType="-99"/>
          <Node pos="r" depth="2" NCoef="0" IVar="0" Cut="2.1801124572753906e+01" cType="1" res="4.2143188416957855e-02" rms="4.9822077155113220e-01" purity="5.4214322566986084e-01" nType="0">
            <Node pos="l" depth="3" NCoef="0" IVar="-1" Cut="0.0000000000000000e+00" cType="1" res="-4.9306489527225494e-03" rms="4.9939185380935669e-01" purity="4.7534674406051636e-01" nType="-99"/>
            <Node pos="r" depth="3" NCoef="0" IVar="6" Cut="4.2857143282890320e-01" cType="1" res="7.6413363218307495e-02" rms="4.9412649869918823e-01" purity="5.7641333341598511e-01" nType="0">
              <Node pos="l" depth="4" NCoef="0" IVar="0" Cut="3.9541629791259766e+01" cType="1" res="1.2047585099935532e-01" rms="4.8526856303215027e-01" purity="6.2047582864761353e-01" nType="0">
                <Node pos="l" depth="5" NCoef="0" IVar="-1" Cut="0.0000000000000000e+00" cType="1" res="1.7461339011788368e-02" rms="4.9231854081153870e-01" purity="5.8730667829513550e-01" nType="-99"/>
                <Node pos="r" depth="5" NCoef="0" IVar="-1" Cut="0.0000000000000000e+00" cType="1" res="3.9107851684093475e-02" rms="4.6017867326736450e-01" purity="6.9553923606872559e-01" nType="-99"/>
              </Node>
              <Node pos="r" depth="4" NCoef="0" IVar="0" Cut="3.9543560028076172e+01" cType="1" res="7.0784534327685833e-03" rms="4.9994990229606628e-01" purity="5.0707840919494629e-01" nType="0">
                <Node pos="l" depth="5" NCoef="0" IVar="-1" Cut="0.0000000000000000e+00" cType="1" res="-7.8840600326657295e-03" rms="4.9844360351562500e-01" purity="4.6057972311973572e-01" nType="-99"/>
                <Node pos="r" depth="5" NCoef="0" IVar="-1" Cut="0.0000000000000000e+00" cType="1" res="7.4835317209362984e-03" rms="4.9859794974327087e-01" purity="5.3741765022277832e-01" nType="-99"/>
              </Node>
            </Node>
          </Node>
        </Node>
        <Node pos="r" depth="1" NCoef="0" IVar="0" Cut="1.2336547088623047e+02" cType="1" res="1.8927592039108276e-01" rms="4.6279004216194153e-01" purity="6.8927597999572754e-01" nType="0">
          <Node pos="l" depth="2" NCoef="0" IVar="13" Cut="2.8228851318359375e+01" cType="1" res="1.4056076109409332e-01" rms="4.7983607649803162e-01" purity="6.4056074619293213e-01" nType="0">
            <Node pos="l" depth="3" NCoef="0" IVar="-1" Cut="0.0000000000000000e+00" cType="1" res="3.8247272372245789e-02" rms="4.6198338270187378e-01" purity="6.9123631715774536e-01" nType="-99"/>
            <Node pos="r" depth="3" NCoef="0" IVar="-1" Cut="0.0000000000000000e+00" cType="1" res="2.1717512980103493e-02" rms="4.8806631565093994e-01" purity="6.0858756303787231e-01" nType="-99"/>
          </Node>
          <Node pos="r" depth="2" NCoef="0" IVar="-1" Cut="0.0000000000000000e+00" cType="1" res="6.0003936290740967e-02" rms="3.9998522400856018e-01" purity="8.0001968145370483e-01" nType="-99"/>
        </Node>
      </Node>
    </BinaryTree>
    <BinaryTree type="DecisionTree" boostWeight="1.0000000000000000e+00" itree="1">
      <Node pos="s" depth="0" NCoef="0" IVar="0" Cut="6.2473503112792969e+01" cType="1" res="-5.5734976194798946e-04" rms="4.9522879719734192e-01" purity="4.9944448471069336e-01" nType="0">
        <Node pos="l" depth="1" NCoef="0" IVar="0" Cut="1.1935348510742188e+01" cType="1" res="-4.4146958738565445e-02" rms="4.9408724904060364e-01" purity="4.5101958513259888e-01" nType="0">
          <Node pos="l" depth="2" NCoef="0" IVar="-1" Cut="0.0000000000000000e+00" cType="1" res="-3.8336753845214844e-02" rms="4.5274594426155090e-01" purity="2.8781822323799133e-01" nType="-99"/>
          <Node pos="r" depth="2" NCoef="0" IVar="0" Cut="2.8780914306640625e+01" cType="1" res="3.8294076919555664e-02" rms="4.9710369110107422e-01" purity="5.4241979122161865e-01" nType="0">
            <Node pos="l" depth="3" NCoef="0" IVar="0" Cut="2.0758975982666016e+01" cType="1" res="-4.6144956722855568e-03" rms="4.9957355856895447e-01" purity="4.9567544460296631e-01" nType="0">
              <Node pos="l" depth="4" NCoef="0" IVar="-1" Cut="0.0000000000000000e+00" cType="1" res="-5.5277338251471519e-03" rms="4.9904614686965942e-01" purity="4.6958777308464050e-01" nType="-99"/>
              <Node pos="r" depth="4" NCoef="0" IVar="-1" Cut="0.0000000000000000e+00" cType="1" res="6.0935607179999352e-03" rms="4.9833559989929199e-01" purity="5.3542047739028931e-01" nType="-99"/>
            </Node>
            <Node pos="r" depth="3" NCoef="0" IVar="6" Cut="4.2857143282890320e-01" cType="1" res="8.4439709782600403e-02" rms="4.9026039242744446e-01" purity="5.9269052743911743e-01" nType="0">
              <Node pos="l" depth="4" NCoef="0" IVar="0" Cut="3.8407974243164062e+01" cType="1" res="1.4054322242736816e-01" rms="4.7522446513175964e-01" purity="6.5440887212753296e-01" nType="0">
                <Node pos="l" depth="5" NCoef="0" IVar="-1" Cut="0.0000000000000000e+00" cType="1" res="2.3056147620081902e-02" rms="4.8438629508018494e-01" purity="6.2397539615631104e-01" nType="-99"/>
                <Node pos="r" depth="5" NCoef="0" IVar="-1" Cut="0.0000000000000000e+00" cType="1" res="3.2898958772420883e-02" rms="4.6522426605224609e-01" purity="6.8294000625610352e-01" nType="-99"/>
              </Node>
              <Node pos="r" depth="4" NCoef="0" IVar="13" Cut="3.0835304260253906e+01" cType="1" res="1.6041679307818413e-02" rms="4.9953758716583252e-01" purity="5.1744717359542847e-01" nType="0">
                <Node pos="l" depth="5" NCoef="0" IVar="-1" Cut="0.0000000000000000e+00" cType="1" res="1.4666178263723850e-02" rms="4.9413445591926575e-01" purity="5.7479304075241089e-01" nType="-99"/>
                <Node pos="r" depth="5" NCoef="0" IVar="-1" Cut="0.0000000000000000e+00" cType="1" res="-7.2890790179371834e-03" rms="4.9869391322135925e-01" purity="4.6490645408630371e-01" nType="-99"/>
              </Node>
            </Node>
          </Node>
        </Node>
        <Node pos="r" depth="1" NCoef="0" IVar="0" Cut="1.2193032836914062e+02" cType="1" res="1.6975931823253632e-01" rms="4.6177098155021667e-01" purity="6.8865418434143066e-01" nType="0">
          <Node pos="l" depth="2" NCoef="0" IVar="13" Cut="3.1447978973388672e+01" cType="1" res="1.3063557446002960e-01" rms="4.7822982072830200e-01" purity="6.4452522993087769e-01" nType="0">
            <Node pos="l" depth="3" NCoef="0" IVar="-1" Cut="0.0000000000000000e+00" cType="1" res="3.7315491586923599e-02" rms="4.5641541481018066e-01" purity="7.0408445596694946e-01" nType="-99"/>
            <Node pos="r" depth="3" NCoef="0" IVar="-1" Cut="0.0000000000000000e+00" cType="1" res="1.7170814797282219e-02" rms="4.9051558971405029e-01" purity="5.9659647941589355e-01" nType="-99"/>
          </Node>
          <Node pos="r" depth="2" NCoef="0" IVar="-1" Cut="0.0000000000000000e+00" cType="1" res="5.0853122025728226e-02" rms="4.1219866275787354e-01" purity="7.8296005725860596e-01" nType="-99"/>
        </Node>
      </Node>
    </BinaryTree>
    <BinaryTree type="DecisionTree" boostWeight="1.0000000000000000e+00" itree="2">
      <Node pos="s" depth="0" NCoef="0" IVar="0" Cut="6.2473503112792969e+01" cType="1" res="7.9059449490159750e-04" rms="4.9143007397651672e-01" purity="5.0091558694839478e-01" nType="0">
        <Node pos="l" depth="1" NCoef="0" IVar="0" Cut="8.9626426696777344e+00" cType="1" res="-3.8264967501163483e-02" rms="4.9146851897239685e-01" purity="4.5257163047790527e-01" nType="0">
          <Node pos="l" depth="2" NCoef="0" IVar="-1" Cut="0.0000000000000000e+00" cType="1" res="-4.0302731096744537e-02" rms="4.3854957818984985e-01" purity="2.5984534621238708e-01" nType="-99"/>
          <Node pos="r" depth="2" NCoef="0" IVar="0" Cut="2.1703153610229492e+01" cType="1" res="2.0601630210876465e-02" rms="4.9641659855842590e-01" purity="5.2261906862258911e-01" nType="0">
            <Node pos="l" depth="3" NCoef="0" IVar="2" Cut="7.9203379154205322e-01" cType="1" res="-3.9952848106622696e-02" rms="4.9611124396324158e-01" purity="4.4516840577125549e-01" nType="0">
              <Node pos="l" depth="4" NCoef="0" IVar="-1" Cut="0.0000000000000000e+00" cType="1" res="-2.9025012627243996e-03" rms="4.9832311272621155e-01" purity="4.7052267193794250e-01" nType="-99"/>
              <Node pos="r" depth="4" NCoef="0" IVar="-1" Cut="0.0000000000000000e+00" cType="1" res="-1.2324711307883263e-02" rms="4.9320504069328308e-01" purity="4.2370989918708801e-01" nType="-99"/>
            </Node>
            <Node pos="r" depth="3" NCoef="0" IVar="6" Cut="4.2857143282890320e-01" cType="1" res="6.5725550055503845e-02" rms="4.9181976914405823e-01" purity="5.8033365011215210e-01" nType="0">
              <Node pos="l" depth="4" NCoef="0" IVar="0" Cut="2.9470102310180664e+01" cType="1" res="1.0000645369291306e-01" rms="4.8394477367401123e-01" purity="6.2222534418106079e-01" nType="0">
                <Node pos="l" depth="5" NCoef="0" IVar="-1" Cut="0.0000000000000000e+00" cType="1" res="1.0882401838898659e-02" rms="4.9548316001892090e-01" purity="5.6662285327911377e-01" nType="-99"/>
                <Node pos="r" depth="5" NCoef="0" IVar="-1" Cut="0.0000000000000000e+00" cType="1" res="2.5674644857645035e-02" rms="4.7458663582801819e-01" purity="6.5625369548797607e-01" nType="-99"/>
              </Node>
              <Node pos="r" depth="4" NCoef="0" IVar="2" Cut="7.9796993732452393e-01" cType="1" res="1.0619716718792915e-02" rms="4.9931254982948303e-01" purity="5.1299363374710083e-01" nType="0">
                <Node pos="l" depth="5" NCoef="0" IVar="-1" Cut="0.0000000000000000e+00" cType="1" res="9.6675194799900055e-03" rms="4.9696370959281921e-01" purity="5.5084425210952759e-01" nType="-99"/>
                <Node pos="r" depth="5" NCoef="0" IVar="-1" Cut="0.0000000000000000e+00" cType="1" res="-4.1805072687566280e-03" rms="4.9908617138862610e-01" purity="4.8135676980018616e-01" nType="-99"/>
              </Node>
            </Node>
          </Node>
        </Node>
        <Node pos="r" depth="1" NCoef="0" IVar="0" Cut="1.2193096923828125e+02" cType="1" res="1.5132947266101837e-01" rms="4.6132043004035950e-01" purity="6.8725615739822388e-01" nType="0">
          <Node pos="l" depth="2" NCoef="0" IVar="5" Cut="-3.6143040657043457e+00" cType="1" res="1.1187982559204102e-01" rms="4.7948238253593445e-01" purity="6.3923072814941406e-01" nType="0">
            <Node pos="l" depth="3" NCoef="0" IVar="-1" Cut="0.0000000000000000e+00" cType="1" res="2.8060253709554672e-02" rms="4.7075217962265015e-01" purity="6.6781336069107056e-01" nType="-99"/>
            <Node pos="r" depth="3" NCoef="0" IVar="-1" Cut="0.0000000000000000e+00" cType="1" res="1.2575932778418064e-02" rms="4.9062839150428772e-01" purity="5.8890336751937866e-01" nType="-99"/>
          </Node>
          <Node pos="r" depth="2" NCoef="0" IVar="-1" Cut="0.0000000000000000e+00" cType="1" res="4.8238638788461685e-02" rms="4.0516719222068787e-01" purity="7.9311728477478027e-01" nType="-99"/>
        </Node>
      </Node>
    </BinaryTree>
    <BinaryTree type="DecisionTree" boostWeight="1.0000000000000000e+00" itree="3">
      <Node pos="s" depth="0" NCoef="0" IVar="0" Cut="5.9027996063232422e+01" cType="1" res="5.7889823801815510e-04" rms="4.8798874020576477e-01" purity="5.0048077106475830e-01" nType="0">
        <Node pos="l" depth="1" NCoef="0" IVar="0" Cut="8.4557113647460938e+00" cType="1" res="-3.6903794854879379e-02" rms="4.8855456709861755e-01" purity="4.4927757978439331e-01" nType="0">
          <Node pos="l" depth="2" NCoef="0" IVar="-1" Cut="0.0000000000000000e+00" cType="1" res="-3.8726534694433212e-02" rms="4.3259048461914062e-01" purity="2.4927009642124176e-01" nType="-99"/>
          <Node pos="r" depth="2" NCoef="0" IVar="0" Cut="1.5681439399719238e+01" cType="1" res="1.6720162704586983e-02" rms="4.9549019336700439e-01" purity="5.1894330978393555e-01" nType="0">
            <Node pos="l" depth="3" NCoef="0" IVar="-1" Cut="0.0000000000000000e+00" cType="1" res="-1.1010530404746532e-02" rms="4.9196410179138184e-01" purity="4.1603094339370728e-01" nType="-99"/>
            <Node pos="r" depth="3" NCoef="0" IVar="6" Cut="4.2857143282890320e-01" cType="1" res="4.4012542814016342e-02" rms="4.9410825967788696e-01" purity="5.5822223424911499e-01" nType="0">
              <Node pos="l" depth="4" NCoef="0" IVar="0" Cut="3.4258285522460938e+01" cType="1" res="6.4745821058750153e-02" rms="4.9052965641021729e-01" purity="5.8425468206405640e-01" nType="0">
                <Node pos="l" depth="5" NCoef="0" IVar="-1" Cut="0.0000000000000000e+00" cType="1" res="7.1890014223754406e-03" rms="4.9715480208396912e-01" purity="5.4525673389434814e-01" nType="-99"/>
                <Node pos="r" depth="5" NCoef="0" IVar="-1" Cut="0.0000000000000000e+00" cType="1" res="2.6915783062577248e-02" rms="4.6723201870918274e-01" purity="6.7721873521804810e-01" nType="-99"/>
              </Node>
              <Node pos="r" depth="4" NCoef="0" IVar="2" Cut="9.6817207336425781e-01" cType="1" res="-2.9386279638856649e-03" rms="4.9894335865974426e-01" purity="4.9927082657814026e-01" nType="0">
                <Node pos="l" depth="5" NCoef="0" IVar="-1" Cut="0.0000000000000000e+00" cType="1" res="7.8631713986396790e-03" rms="4.9700099229812622e-01" purity="5.4434818029403687e-01" nType="-99"/>
                <Node pos="r" depth="5" NCoef="0" IVar="-1" Cut="0.0000000000000000e+00" cType="1" res="-9.9567705765366554e-03" rms="4.9690765142440796e-01" purity="4.4929075241088867e-01" nType="-99"/>
              </Node>
            </Node>
          </Node>
        </Node>
        <Node pos="r" depth="1" NCoef="0" IVar="0" Cut="1.1521974945068359e+02" cType="1" res="1.3216668367385864e-01" rms="4.6254250407218933e-01" purity="6.8023598194122314e-01" nType="0">
          <Node pos="l" depth="2" NCoef="0" IVar="13" Cut="2.8204559326171875e+01" cType="1" res="9.3721196055412292e-02" rms="4.8132926225662231e-01" purity="6.2978249788284302e-01" nType="0">
            <Node pos="l" depth="3" NCoef="0" IVar="-1" Cut="0.0000000000000000e+00" cType="1" res="2.9808163642883301e-02" rms="4.6069917082786560e-01" purity="6.9405084848403931e-01" nType="-99"/>
            <Node pos="r" depth="3" NCoef="0" IVar="-1" Cut="0.0000000000000000e+00" cType="1" res="1.2081369757652283e-02" rms="4.9073562026023865e-01" purity="5.8983409404754639e-01" nType="-99"/>
          </Node>
          <Node pos="r" depth="2" NCoef="0" IVar="-1" Cut="0.0000000000000000e+00" cType="1" res="4.3939929455518723e-02" rms="4.0726724267005920e-01" purity="7.8860133886337280e-01" nType="-99"/>
        </Node>
      </Node>
    </BinaryTree>
    <BinaryTree type="DecisionTree" boostWeight="1.0000000000000000e+00" itree="4">
      <Node pos="s" depth="0" NCoef="0" IVar="0" Cut="6.2456985473632812e+01" cType="1" res="-8.3885836647823453e-04" rms="4.8485183715820312e-01" purity="4.9909082055091858e-01" nType="0">
        <Node pos="l" depth="1" NCoef="0" IVar="0" Cut="8.9455699920654297e+00" cType="1" res="-3.2930072396993637e-02" rms="4.8609551787376404e-01" purity="4.5059683918952942e-01" nType="0">
          <Node pos="l" depth="2" NCoef="0" IVar="-1" Cut="0.0000000000000000e+00" cType="1" res="-3.5044278949499130e-02" rms="4.3345084786415100e-01" purity="2.5097939372062683e-01" nType="-99"/>
          <Node pos="r" depth="2" NCoef="0" IVar="0" Cut="1.9139410018920898e+01" cType="1" res="1.7729610204696655e-02" rms="4.9446976184844971e-01" purity="5.2387017011642456e-01" nType="0">
            <Node pos="l" depth="3" NCoef="0" IVar="-1" Cut="0.0000000000000000e+00" cType="1" res="-8.0427154898643494e-03" rms="4.9472665786743164e-01" purity="4.3544054031372070e-01" nType="-99"/>
            <Node pos="r" depth="3" NCoef="0" IVar="6" Cut="4.2857143282890320e-01" cType="1" res="4.9395263195037842e-02" rms="4.9145543575286865e-01" purity="5.7232528924942017e-01" nType="0">
              <Node pos="l" depth="4" NCoef="0" IVar="0" Cut="3.7703907012939453e+01" cType="1" res="7.9222619533538818e-02" rms="4.8477989435195923e-01" purity="6.1310839653015137e-01" nType="0">
                <Node pos="l" depth="5" NCoef="0" IVar="-1" Cut="0.0000000000000000e+00" cType="1" res="1.1141761206090450e-02" rms="4.9296128749847412e-01" purity="5.7812839746475220e-01" nType="-99"/>
                <Node pos="r" depth="5" NCoef="0" IVar="-1" Cut="0.0000000000000000e+00" cType="1" res="2.7234885841608047e-02" rms="4.6056562662124634e-01" purity="6.9429934024810791e-01" nType="-99"/>
              </Node>
              <Node pos="r" depth="4" NCoef="0" IVar="2" Cut="1.1294838190078735e+00" cType="1" res="-3.1017237342894077e-03" rms="4.9867478013038635e-01" purity="5.0054574012756348e-01" nType="0">
                <Node pos="l" depth="5" NCoef="0" IVar="-1" Cut="0.0000000000000000e+00" cType="1" res="5.1820534281432629e-03" rms="4.9802324175834656e-01" purity="5.3484314680099487e-01" nType="-99"/>
                <Node pos="r" depth="5" NCoef="0" IVar="-1" Cut="0.0000000000000000e+00" cType="1" res="-9.5896767452359200e-03" rms="4.9635758996009827e-01" purity="4.4751673936843872e-01" nType="-99"/>
              </Node>
            </Node>
          </Node>
        </Node>
        <Node pos="r" depth="1" NCoef="0" IVar="0" Cut="1.2191534423828125e+02" cType="1" res="1.2436606734991074e-01" rms="4.5899438858032227e-01" purity="6.8829154968261719e-01" nType="0">
          <Node pos="l" depth="2" NCoef="0" IVar="2" Cut="1.0312705039978027e+00" cType="1" res="9.1581664979457855e-02" rms="4.7860991954803467e-01" purity="6.3980013132095337e-01" nType="0">
            <Node pos="l" depth="3" NCoef="0" IVar="-1" Cut="0.0000000000000000e+00" cType="1" res="2.5199268013238907e-02" rms="4.6801605820655823e-01" purity="6.7322969436645508e-01" nType="-99"/>
            <Node pos="r" depth="3" NCoef="0" IVar="-1" Cut="0.0000000000000000e+00" cType="1" res="9.1377524659037590e-03" rms="4.8929646611213684e-01" purity="5.9304130077362061e-01" nType="-99"/>
          </Node>
          <Node pos="r" depth="2" NCoef="0" IVar="-1" Cut="0.0000000000000000e+00" cType="1" res="4.1499897837638855e-02" rms="4.0077403187751770e-01" purity="7.9902166128158569e-01" nType="-99"/>
        </Node>
      </Node>
    </BinaryTree>
    <BinaryTree type="DecisionTree" boostWeight="1.0000000000000000e+00" itree="5">
      <Node pos="s" depth="0" NCoef="0" IVar="0" Cut="5.8809478759765625e+01" cType="1" res="1.1418940266594291e-04" rms="4.8227864503860474e-01" purity="4.9963551759719849e-01" nType="0">
        <Node pos="l" depth="1" NCoef="0" IVar="0" Cut="1.1266414642333984e+01" cType="1" res="-3.2669089734554291e-02" rms="4.8416122794151306e-01" purity="4.4613367319107056e-01" nType="0">
          <Node pos="l" depth="2" NCoef="0" IVar="-1" Cut="0.0000000000000000e+00" cType="1" res="-2.7831608429551125e-02" rms="4.4673645496368408e-01" purity="2.7876758575439453e-01" nType="-99"/>
          <Node pos="r" depth="2" NCoef="0" IVar="0" Cut="2.4849859237670898e+01" cType="1" res="2.2102983668446541e-02" rms="4.9446195363998413e-01" purity="5.3585672378540039e-01" nType="0">
            <Node pos="l" depth="3" NCoef="0" IVar="2" Cut="6.2279057502746582e-01" cType="1" res="-1.6221985220909119e-02" rms="4.9844685196876526e-01" purity="4.7570148110389709e-01" nType="0">
              <Node pos="l" depth="4" NCoef="0" IVar="-1" Cut="0.0000000000000000e+00" cType="1" res="2.9229365754872561e-03" rms="4.9909383058547974e-01" purity="5.0926631689071655e-01" nType="-99"/>
              <Node pos="r" depth="4" NCoef="0" IVar="-1" Cut="0.0000000000000000e+00" cType="1" res="-6.7836786620318890e-03" rms="4.9721807241439819e-01" purity="4.5649626851081848e-01" nType="-99"/>
            </Node>
            <Node pos="r" depth="3" NCoef="0" IVar="6" Cut="3.8095238804817200e-01" cType="1" res="5.4195344448089600e-02" rms="4.8879402875900269e-01" purity="5.8622914552688599e-01" nType="0">
              <Node pos="l" depth="4" NCoef="0" IVar="2" Cut="7.8458011150360107e-01" cType="1" res="8.6968936026096344e-02" rms="4.7897297143936157e-01" purity="6.3910955190658569e-01" nType="0">
                <Node pos="l" depth="5" NCoef="0" IVar="-1" Cut="0.0000000000000000e+00" cType="1" res="2.4699626490473747e-02" rms="4.6729692816734314e-01" purity="6.7443335056304932e-01" nType="-99"/>
                <Node pos="r" depth="5" NCoef="0" IVar="-1" Cut="0.0000000000000000e+00" cType="1" res="1.1459702625870705e-02" rms="4.8684915900230408e-01" purity="6.0844284296035767e-01" nType="-99"/>
              </Node>
              <Node pos="r" depth="4" NCoef="0" IVar="0" Cut="4.1020908355712891e+01" cType="1" res="6.7373760975897312e-03" rms="4.9887374043464661e-01" purity="5.0965541601181030e-01" nType="0">
                <Node pos="l" depth="5" NCoef="0" IVar="-1" Cut="0.0000000000000000e+00" cType="1" res="-2.8675219509750605e-03" rms="4.9920144677162170e-01" purity="4.8480293154716492e-01" nType="-99"/>
                <Node pos="r" depth="5" NCoef="0" IVar="-1" Cut="0.0000000000000000e+00" cType="1" res="4.8665418289601803e-03" rms="4.9791851639747620e-01" purity="5.3039187192916870e-01" nType="-99"/>
              </Node>
            </Node>
          </Node>
        </Node>
        <Node pos="r" depth="1" NCoef="0" IVar="0" Cut="1.1474234771728516e+02" cType="1" res="1.1653687059879303e-01" rms="4.5690324902534485e-01" purity="6.8963581323623657e-01" nType="0">
          <Node pos="l" depth="2" NCoef="0" IVar="5" Cut="-3.6154890060424805e+00" cType="1" res="8.3624333143234253e-02" rms="4.7825071215629578e-01" purity="6.3763999938964844e-01" nType="0">
            <Node pos="l" depth="3" NCoef="0" IVar="-1" Cut="0.0000000000000000e+00" cType="1" res="2.4113772436976433e-02" rms="4.6662691235542297e-01" purity="6.7625504732131958e-01" nType="-99"/>
            <Node pos="r" depth="3" NCoef="0" IVar="-1" Cut="0.0000000000000000e+00" cType="1" res="3.2858101185411215e-03" rms="4.9278438091278076e-01" purity="5.6373369693756104e-01" nType="-99"/>
          </Node>
          <Node pos="r" depth="2" NCoef="0" IVar="-1" Cut="0.0000000000000000e+00" cType="1" res="3.9286535233259201e-02" rms="3.9930799603462219e-01" purity="7.9951548576354980e-01" nType="-99"/>
        </Node>
      </Node>
    </BinaryTree>
    <BinaryTree type="DecisionTree" boostWeight="1.0000000000000000e+00" itree="6">
      <Node pos="s" depth="0" NCoef="0" IVar="0" Cut="7.4552062988281250e+01" cType="1" res="1.7143315635621548e-03" rms="4.8083281517028809e-01" purity="5.0232928991317749e-01" nType="0">
        <Node pos="l" depth="1" NCoef="0" IVar="0" Cut="7.1611504554748535e+00" cType="1" res="-2.0577047020196915e-02" rms="4.8385995626449585e-01" purity="4.6203723549842834e-01" nType="0">
          <Node pos="l" depth="2" NCoef="0" IVar="-1" Cut="0.0000000000000000e+00" cType="1" res="-3.3466845750808716e-02" rms="4.2177003622055054e-01" purity="2.3146685957908630e-01" nType="-99"/>
          <Node pos="r" depth="2" NCoef="0" IVar="0" Cut="2.3206077575683594e+01" cType="1" res="1.3484521768987179e-02" rms="4.9196985363960266e-01" purity="5.1862794160842896e-01" nType="0">
            <Node pos="l" depth="3" NCoef="0" IVar="2" Cut="1.2354918718338013e+00" cType="1" res="-2.3753879591822624e-02" rms="4.9307125806808472e-01" purity="4.3989327549934387e-01" nType="0">
              <Node pos="l" depth="4" NCoef="0" IVar="0" Cut="1.4801568031311035e+01" cType="1" res="-5.9679266996681690e-03" rms="4.9457821249961853e-01" purity="4.5894601941108704e-01" nType="0">
                <Node pos="l" depth="5" NCoef="0" IVar="-1" Cut="0.0000000000000000e+00" cType="1" res="-6.1968979425728321e-03" rms="4.8994582891464233e-01" purity="4.0927037596702576e-01" nType="-99"/>
                <Node pos="r" depth="5" NCoef="0" IVar="-1" Cut="0.0000000000000000e+00" cType="1" res="5.1439306698739529e-03" rms="4.9874359369277954e-01" purity="5.2336084842681885e-01" nType="-99"/>
              </Node>
              <Node pos="r" depth="4" NCoef="0" IVar="-1" Cut="0.0000000000000000e+00" cType="1" res="-1.1396924033761024e-02" rms="4.8862311244010925e-01" purity="4.0499639511108398e-01" nType="-99"/>
            </Node>
            <Node pos="r" depth="3" NCoef="0" IVar="5" Cut="-2.6912376880645752e+00" cType="1" res="4.5320734381675720e-02" rms="4.8878186941146851e-01" purity="5.8594042062759399e-01" nType="0">
              <Node pos="l" depth="4" NCoef="0" IVar="0" Cut="3.2986160278320312e+01" cType="1" res="5.8329325169324875e-02" rms="4.8659241199493408e-01" purity="6.0311263799667358e-01" nType="0">
                <Node pos="l" depth="5" NCoef="0" IVar="-1" Cut="0.0000000000000000e+00" cType="1" res="6.3921017572283745e-03" rms="4.9506017565727234e-01" purity="5.6303960084915161e-01" nType="-99"/>
                <Node pos="r" depth="5" NCoef="0" IVar="-1" Cut="0.0000000000000000e+00" cType="1" res="1.4631967991590500e-02" rms="4.8158812522888184e-01" purity="6.2381076812744141e-01" nType="-99"/>
              </Node>
              <Node pos="r" depth="4" NCoef="0" IVar="-1" Cut="0.0000000000000000e+00" cType="1" res="-7.0429001934826374e-03" rms="4.9456685781478882e-01" purity="4.7979143261909485e-01" nType="-99"/>
            </Node>
          </Node>
        </Node>
        <Node pos="r" depth="1" NCoef="0" IVar="6" Cut="1.2857142686843872e+00" cType="1" res="1.1803955584764481e-01" rms="4.4703069329261780e-01" purity="7.1258908510208130e-01" nType="0">
          <Node pos="l" depth="2" NCoef="0" IVar="-1" Cut="0.0000000000000000e+00" cType="1" res="3.1578239053487778e-02" rms="4.3354213237762451e-01" purity="7.4457591772079468e-01" nType="-99"/>
          <Node pos="r" depth="2" NCoef="0" IVar="-1" Cut="0.0000000000000000e+00" cType="1" res="1.2778673321008682e-02" rms="4.6345174312591553e-01" purity="6.5838855504989624e-01" nType="-99"/>
        </Node>
      </Node>
    </BinaryTree>
    <BinaryTree type="DecisionTree" boostWeight="1.0000000000000000e+00" itree="7">
      <Node pos="s" depth="0" NCoef="0" IVar="0" Cut="7.4529937744140625e+01" cType="1" res="-1.7211877275258303e-04" rms="4.7931671142578125e-01" purity="4.9986180663108826e-01" nType="0">
        <Node pos="l" depth="1" NCoef="0" IVar="0" Cut="7.1382246017456055e+00" cType="1" res="-1.9557092338800430e-02" rms="4.8246371746063232e-01" purity="4.6063965559005737e-01" nType="0">
          <Node pos="l" depth="2" NCoef="0" IVar="-1" Cut="0.0000000000000000e+00" cType="1" res="-3.0867611989378929e-02" rms="4.2103472352027893e-01" purity="2.3031541705131531e-01" nType="-99"/>
          <Node pos="r" depth="2" NCoef="0" IVar="0" Cut="1.6765789031982422e+01" cType="1" res="1.1355804279446602e-02" rms="4.9158719182014465e-01" purity="5.1753753423690796e-01" nType="0">
            <Node pos="l" depth="3" NCoef="0" IVar="-1" Cut="0.0000000000000000e+00" cType="1" res="-7.6271789148449898e-03" rms="4.8874714970588684e-01" purity="4.0546837449073792e-01" nType="-99"/>
            <Node pos="r" depth="3" NCoef="0" IVar="13" Cut="5.0120353698730469e+01" cType="1" res="3.3622764050960541e-02" rms="4.9126967787742615e-01" purity="5.6867378950119019e-01" nType="0">
              <Node pos="l" depth="4" NCoef="0" IVar="0" Cut="4.7023136138916016e+01" cType="1" res="4.7032594680786133e-02" rms="4.8955887556076050e-01" purity="5.8312201499938965e-01" nType="0">
                <Node pos="l" depth="5" NCoef="0" IVar="-1" Cut="0.0000000000000000e+00" cType="1" res="5.6952759623527527e-03" rms="4.9389150738716125e-01" purity="5.5628317594528198e-01" nType="-99"/>
                <Node pos="r" depth="5" NCoef="0" IVar="-1" Cut="0.0000000000000000e+00" cType="1" res="2.0414927974343300e-02" rms="4.7306126356124878e-01" purity="6.5908885002136230e-01" nType="-99"/>
              </Node>
              <Node pos="r" depth="4" NCoef="0" IVar="-1" Cut="0.0000000000000000e+00" cType="1" res="-4.2182705365121365e-03" rms="4.9443364143371582e-01" purity="5.0992929935455322e-01" nType="-99"/>
            </Node>
          </Node>
        </Node>
        <Node pos="r" depth="1" NCoef="0" IVar="13" Cut="4.0875095367431641e+01" cType="1" res="1.0345505177974701e-01" rms="4.4812595844268799e-01" purity="7.0953381061553955e-01" nType="0">
          <Node pos="l" depth="2" NCoef="0" IVar="-1" Cut="0.0000000000000000e+00" cType="1" res="3.0332701280713081e-02" rms="4.2697000503540039e-01" purity="7.5441497564315796e-01" nType="-99"/>
          <Node pos="r" depth="2" NCoef="0" IVar="-1" Cut="0.0000000000000000e+00" cType="1" res="9.7341937944293022e-03" rms="4.7076380252838135e-01" purity="6.4567512273788452e-01" nType="-99"/>
        </Node>
      </Node>
    </BinaryTree>
    <BinaryTree type="DecisionTree" boostWeight="1.0000000000000000e+00" itree="8">
      <Node pos="s" depth="0" NCoef="0" IVar="12" Cut="1.9047619402408600e-01" cType="1" res="-7.9688371624797583e-04" rms="4.7805547714233398e-01" purity="4.9934384226799011e-01" nType="0">
        <Node pos="l" depth="1" NCoef="0" IVar="7" Cut="4.2857143282890320e-01" cType="1" res="1.4893895015120506e-02" rms="4.7583702206611633e-01" purity="5.1234114170074463e-01" nType="0">
          <Node pos="l" depth="2" NCoef="0" IVar="0" Cut="3.0910001754760742e+01" cType="1" res="-3.0941773205995560e-02" rms="4.7734716534614563e-01" purity="4.3220224976539612e-01" nType="0">
            <Node pos="l" depth="3" NCoef="0" IVar="0" Cut="8.8712158203125000e+00" cType="1" res="-4.8109352588653564e-02" rms="4.7476050257682800e-01" purity="3.9021107554435730e-01" nType="0">
              <Node pos="l" depth="4" NCoef="0" IVar="-1" Cut="0.0000000000000000e+00" cType="1" res="-2.4774421006441116e-02" rms="4.3268570303916931e-01" purity="2.5116091966629028e-01" nType="-99"/>
              <Node pos="r" depth="4" NCoef="0" IVar="0" Cut="1.8316171646118164e+01" cType="1" res="-3.8290007505565882e-03" rms="4.9576184153556824e-01" purity="4.8235774040222168e-01" nType="0">
                <Node pos="l" depth="5" NCoef="0" IVar="-1" Cut="0.0000000000000000e+00" cType="1" res="-4.6506905928254128e-03" rms="4.9404570460319519e-01" purity="4.3488305807113647e-01" nType="-99"/>
                <Node pos="r" depth="5" NCoef="0" IVar="-1" Cut="0.0000000000000000e+00" cType="1" res="4.4207260943949223e-03" rms="4.9689349532127380e-01" purity="5.4627925157546997e-01" nType="-99"/>
              </Node>
            </Node>
            <Node pos="r" depth="3" NCoef="0" IVar="1" Cut="-1.7282027006149292e-01" cType="1" res="5.0931416451931000e-02" rms="4.8114100098609924e-01" purity="6.3246059417724609e-01" nType="0">
              <Node pos="l" depth="4" NCoef="0" IVar="-1" Cut="0.0000000000000000e+00" cType="1" res="1.0375321842730045e-02" rms="4.8169150948524475e-01" purity="6.3233250379562378e-01" nType="-99"/>
              <Node pos="r" depth="4" NCoef="0" IVar="-1" Cut="0.0000000000000000e+00" cType="1" res="1.0581856593489647e-02" rms="4.8057889938354492e-01" purity="6.3259124755859375e-01" nType="-99"/>
            </Node>
          </Node>
          <Node pos="r" depth="2" NCoef="0" IVar="10" Cut="2.4010050296783447e+00" cType="1" res="9.2928953468799591e-02" rms="4.6292975544929504e-01" purity="6.4877730607986450e-01" nType="0">
            <Node pos="l" depth="3" NCoef="0" IVar="0" Cut="5.5144317626953125e+01" cType="1" res="7.3988974094390869e-02" rms="4.6995201706886292e-01" purity="6.2706625461578369e-01" nType="0">
              <Node pos="l" depth="4" NCoef="0" IVar="0" Cut="2.8954238891601562e+01" cType="1" res="3.6274898797273636e-02" rms="4.8859876394271851e-01" purity="5.3824114799499512e-01" nType="0">
                <Node pos="l" depth="5" NCoef="0" IVar="-1" Cut="0.0000000000000000e+00" cType="1" res="-1.4212657697498798e-03" rms="4.8939409852027893e-01" purity="4.5393252372741699e-01" nType="-99"/>
                <Node pos="r" depth="5" NCoef="0" IVar="-1" Cut="0.0000000000000000e+00" cType="1" res="1.3197057880461216e-02" rms="4.8589009046554565e-01" purity="5.9515708684921265e-01" nType="-99"/>
              </Node>
              <Node pos="r" depth="4" NCoef="0" IVar="0" Cut="1.0752648925781250e+02" cType="1" res="1.0947923362255096e-01" rms="4.4881728291511536e-01" purity="7.1065378189086914e-01" nType="0">
                <Node pos="l" depth="5" NCoef="0" IVar="-1" Cut="0.0000000000000000e+00" cType="1" res="1.8607445061206818e-02" rms="4.6864715218544006e-01" purity="6.6950213909149170e-01" nType="-99"/>
                <Node pos="r" depth="5" NCoef="0" IVar="-1" Cut="0.0000000000000000e+00" cType="1" res="3.2159514725208282e-02" rms="4.0461149811744690e-01" purity="7.9120475053787231e-01" nType="-99"/>
              </Node>
            </Node>
            <Node pos="r" depth="3" NCoef="0" IVar="-1" Cut="0.0000000000000000e+00" cType="1" res="4.0656235069036484e-02" rms="4.0813881158828735e-01" purity="7.6592457294464111e-01" nType="-99"/>
          </Node>
        </Node>
        <Node pos="r" depth="1" NCoef="0" IVar="-1" Cut="0.0000000000000000e+00" cType="1" res="-6.1027981340885162e-02" rms="4.1951963305473328e-01" purity="2.5380483269691467e-01" nType="-99"/>
      </Node>
    </BinaryTree>
    <BinaryTree type="DecisionTree" boostWeight="1.0000000000000000e+00" itree="9">
      <Node pos="s" depth="0" NCoef="0" IVar="0" Cut="7.4513427734375000e+01" cType="1" res="2.8565037064254284e-03" rms="4.7605770826339722e-01" purity="5.0296783447265625e-01" nType="0">
        <Node pos="l" depth="1" NCoef="0" IVar="0" Cut="7.1209683418273926e+00" cType="1" res="-1.2380501255393028e-02" rms="4.8040625452995300e-01" purity="4.6456655859947205e-01" nType="0">
          <Node pos="l" depth="2" NCoef="0" IVar="-1" Cut="0.0000000000000000e+00" cType="1" res="-2.5389136746525764e-02" rms="4.2365303635597229e-01" purity="2.3459945619106293e-01" nType="-99"/>
          <Node pos="r" depth="2" NCoef="0" IVar="0" Cut="1.9957670211791992e+01" cType="1" res="1.2646223418414593e-02" rms="4.8992899060249329e-01" purity="5.2036017179489136e-01" nType="0">
            <Node pos="l" depth="3" NCoef="0" IVar="2" Cut="1.0711566209793091e+00" cType="1" res="-1.6486305743455887e-02" rms="4.9201729893684387e-01" purity="4.3003666400909424e-01" nType="0">
              <Node pos="l" depth="4" NCoef="0" IVar="-1" Cut="0.0000000000000000e+00" cType="1" res="-7.0056878030300140e-04" rms="4.9445626139640808e-01" purity="4.4710788130760193e-01" nType="-99"/>
              <Node pos="r" depth="4" NCoef="0" IVar="-1" Cut="0.0000000000000000e+00" cType="1" res="-7.1672317571938038e-03" rms="4.8790913820266724e-01" purity="4.0565893054008484e-01" nType="-99"/>
            </Node>
            <Node pos="r" depth="3" NCoef="0" IVar="13" Cut="4.2262054443359375e+01" cType="1" res="3.1737886369228363e-02" rms="4.8761242628097534e-01" purity="5.7955259084701538e-01" nType="0">
              <Node pos="l" depth="4" NCoef="0" IVar="0" Cut="4.3338783264160156e+01" cType="1" res="5.0397124141454697e-02" rms="4.8537632822990417e-01" purity="6.0261750221252441e-01" nType="0">
                <Node pos="l" depth="5" NCoef="0" IVar="-1" Cut="0.0000000000000000e+00" cType="1" res="5.9233712963759899e-03" rms="4.9310952425003052e-01" purity="5.7019019126892090e-01" nType="-99"/>
                <Node pos="r" depth="5" NCoef="0" IVar="-1" Cut="0.0000000000000000e+00" cType="1" res="1.8215950578451157e-02" rms="4.6860918402671814e-01" purity="6.6143965721130371e-01" nType="-99"/>
              </Node>
              <Node pos="r" depth="4" NCoef="0" IVar="6" Cut="4.2857143282890320e-01" cType="1" res="-1.0447834618389606e-02" rms="4.9001839756965637e-01" purity="5.2740627527236938e-01" nType="0">
                <Node pos="l" depth="5" NCoef="0" IVar="-1" Cut="0.0000000000000000e+00" cType="1" res="1.0158772580325603e-02" rms="4.8551917076110840e-01" purity="6.1093109846115112e-01" nType="-99"/>
                <Node pos="r" depth="5" NCoef="0" IVar="-1" Cut="0.0000000000000000e+00" cType="1" res="-1.5851778909564018e-02" rms="4.8610207438468933e-01" purity="4.3265262246131897e-01" nType="-99"/>
              </Node>
            </Node>
          </Node>
        </Node>
        <Node pos="r" depth="1" NCoef="0" IVar="6" Cut="1.2857142686843872e+00" cType="1" res="8.4305487573146820e-02" rms="4.4330912828445435e-01" purity="7.0824092626571655e-01" nType="0">
          <Node pos="l" depth="2" NCoef="0" IVar="-1" Cut="0.0000000000000000e+00" cType="1" res="2.4604115635156631e-02" rms="4.3122714757919312e-01" purity="7.4233782291412354e-01" nType="-99"/>
          <Node pos="r" depth="2" NCoef="0" IVar="-1" Cut="0.0000000000000000e+00" cType="1" res="6.6914116032421589e-03" rms="4.5918077230453491e-01" purity="6.4782077074050903e-01" nType="-99"/>
        </Node>
      </Node>
    </BinaryTree>
    <BinaryTree type="DecisionTree" boostWeight="1.0000000000000000e+00" itree="10">
      <Node pos="s" depth="0" NCoef="0" IVar="0" Cut="6.2473503112792969e+01" cType="1" res="-3.9587598294019699e-03" rms="4.7399976849555969e-01" purity="4.9599200487136841e-01" nType="0">
        <Node pos="l" depth="1" NCoef="0" IVar="0" Cut="8.9626398086547852e+00" cType="1" res="-2.1688459441065788e-02" rms="4.7808167338371277e-01" purity="4.4738119840621948e-01" nType="0">
          <Node pos="l" depth="2" NCoef="0" IVar="-1" Cut="0.0000000000000000e+00" cType="1" res="-2.1426513791084290e-02" rms="4.3138197064399719e-01" purity="2.4975728988647461e-01" nType="-99"/>
          <Node pos="r" depth="2" NCoef="0" IVar="2" Cut="9.4717478752136230e-01" cType="1" res="6.4039612188935280e-03" rms="4.9143725633621216e-01" purity="5.2114212512969971e-01" nType="0">
            <Node pos="l" depth="3" NCoef="0" IVar="0" Cut="2.1704963684082031e+01" cType="1" res="2.5566628202795982e-02" rms="4.9059382081031799e-01" purity="5.4715365171432495e-01" nType="0">
              <Node pos="l" depth="4" NCoef="0" IVar="-1" Cut="0.0000000000000000e+00" cType="1" res="-2.9605321469716728e-04" rms="4.9717447161674500e-01" purity="4.7040811181068420e-01" nType="-99"/>
              <Node pos="r" depth="4" NCoef="0" IVar="6" Cut="3.8095238804817200e-01" cType="1" res="4.4985067099332809e-02" rms="4.8488306999206543e-01" purity="6.0227471590042114e-01" nType="0">
                <Node pos="l" depth="5" NCoef="0" IVar="-1" Cut="0.0000000000000000e+00" cType="1" res="1.2155738659203053e-02" rms="4.7973045706748962e-01" purity="6.3404852151870728e-01" nType="-99"/>
                <Node pos="r" depth="5" NCoef="0" IVar="-1" Cut="0.0000000000000000e+00" cType="1" res="4.2286599054932594e-03" rms="4.9250853061676025e-01" purity="5.4877692461013794e-01" nType="-99"/>
              </Node>
            </Node>
            <Node pos="r" depth="3" NCoef="0" IVar="6" Cut="3.8095238804817200e-01" cType="1" res="-1.5462297014892101e-02" rms="4.9148607254028320e-01" purity="4.9146068096160889e-01" nType="0">
              <Node pos="l" depth="4" NCoef="0" IVar="0" Cut="2.6798360824584961e+01" cType="1" res="-5.2091316320002079e-04" rms="4.9118977785110474e-01" purity="5.0964075326919556e-01" nType="0">
                <Node pos="l" depth="5" NCoef="0" IVar="-1" Cut="0.0000000000000000e+00" cType="1" res="-4.4711520895361900e-03" rms="4.9421375989913940e-01" purity="4.5080396533012390e-01" nType="-99"/>
                <Node pos="r" depth="5" NCoef="0" IVar="-1" Cut="0.0000000000000000e+00" cType="1" res="8.2751642912626266e-03" rms="4.8281833529472351e-01" purity="6.2047463655471802e-01" nType="-99"/>
              </Node>
              <Node pos="r" depth="4" NCoef="0" IVar="-1" Cut="0.0000000000000000e+00" cType="1" res="-1.1433389969170094e-02" rms="4.8992604017257690e-01" purity="4.4100660085678101e-01" nType="-99"/>
            </Node>
          </Node>
        </Node>
        <Node pos="r" depth="1" NCoef="0" IVar="4" Cut="-1.3059296607971191e+00" cType="1" res="6.5957605838775635e-02" rms="4.5080187916755676e-01" purity="6.8768697977066040e-01" nType="0">
          <Node pos="l" depth="2" NCoef="0" IVar="-1" Cut="0.0000000000000000e+00" cType="1" res="2.9152462258934975e-02" rms="4.1804847121238708e-01" purity="7.5635564327239990e-01" nType="-99"/>
          <Node pos="r" depth="2" NCoef="0" IVar="4" Cut="9.8087906837463379e-01" cType="1" res="3.9145920425653458e-02" rms="4.5984658598899841e-01" purity="6.6152471303939819e-01" nType="0">
            <Node pos="l" depth="3" NCoef="0" IVar="-1" Cut="0.0000000000000000e+00" cType="1" res="-1.6739164129830897e-04" rms="4.7219613194465637e-01" purity="6.2013351917266846e-01" nType="-99"/>
            <Node pos="r" depth="3" NCoef="0" IVar="-1" Cut="0.0000000000000000e+00" cType="1" res="2.1874271333217621e-02" rms="4.3250826001167297e-01" purity="7.2626274824142456e-01" nType="-99"/>
          </Node>
        </Node>
      </Node>
    </BinaryTree>
    <BinaryTree type="DecisionTree" boostWeight="1.0000000000000000e+00" itree="11">
      <Node pos="s" depth="0" NCoef="0" IVar="0" Cut="5.8786544799804688e+01" cType="1" res="-2.6023660320788622e-03" rms="4.7380650043487549e-01" purity="4.9716031551361084e-01" nType="0">
        <Node pos="l" depth="1" NCoef="0" IVar="0" Cut="8.4460067749023438e+00" cType="1" res="-1.8821205943822861e-02" rms="4.7795110940933228e-01" purity="4.4550904631614685e-01" nType="0">
          <Node pos="l" depth="2" NCoef="0" IVar="-1" Cut="0.0000000000000000e+00" cType="1" res="-1.9422003999352455e-02" rms="4.3079325556755066e-01" purity="2.4825568497180939e-01" nType="-99"/>
          <Node pos="r" depth="2" NCoef="0" IVar="5" Cut="-4.5384621620178223e+00" cType="1" res="5.2071898244321346e-03" rms="4.9139133095741272e-01" purity="5.1561129093170166e-01" nType="0">
            <Node pos="l" depth="3" NCoef="0" IVar="0" Cut="1.5637780189514160e+01" cType="1" res="1.1269699782133102e-02" rms="4.9165359139442444e-01" purity="5.2285468578338623e-01" nType="0">
              <Node pos="l" depth="4" NCoef="0" IVar="-1" Cut="0.0000000000000000e+00" cType="1" res="-5.0010848790407181e-03" rms="4.9165412783622742e-01" purity="4.1541513800621033e-01" nType="-99"/>
              <Node pos="r" depth="4" NCoef="0" IVar="0" Cut="4.0293880462646484e+01" cType="1" res="2.6139793917536736e-02" rms="4.9088612198829651e-01" purity="5.6744819879531860e-01" nType="0">
                <Node pos="l" depth="5" NCoef="0" IVar="-1" Cut="0.0000000000000000e+00" cType="1" res="3.1611986923962831e-03" rms="4.9522686004638672e-01" purity="5.4542952775955200e-01" nType="-99"/>
                <Node pos="r" depth="5" NCoef="0" IVar="-1" Cut="0.0000000000000000e+00" cType="1" res="1.1865045875310898e-02" rms="4.7629064321517944e-01" purity="6.3331717252731323e-01" nType="-99"/>
              </Node>
            </Node>
            <Node pos="r" depth="3" NCoef="0" IVar="-1" Cut="0.0000000000000000e+00" cType="1" res="-1.1629085987806320e-02" rms="4.8420056700706482e-01" purity="4.4044110178947449e-01" nType="-99"/>
          </Node>
        </Node>
        <Node pos="r" depth="1" NCoef="0" IVar="13" Cut="4.0942489624023438e+01" cType="1" res="5.4077006876468658e-02" rms="4.5450577139854431e-01" purity="6.7766404151916504e-01" nType="0">
          <Node pos="l" depth="2" NCoef="0" IVar="10" Cut="-5.1414215564727783e-01" cType="1" res="8.5234902799129486e-02" rms="4.4165232777595520e-01" purity="7.2070211172103882e-01" nType="0">
            <Node pos="l" depth="3" NCoef="0" IVar="-1" Cut="0.0000000000000000e+00" cType="1" res="1.2399804778397083e-02" rms="4.5809206366539001e-01" purity="6.9295001029968262e-01" nType="-99"/>
            <Node pos="r" depth="3" NCoef="0" IVar="-1" Cut="0.0000000000000000e+00" cType="1" res="2.7451762929558754e-02" rms="4.1330137848854065e-01" purity="7.6091414690017700e-01" nType="-99"/>
          </Node>
          <Node pos="r" depth="2" NCoef="0" IVar="-1" Cut="0.0000000000000000e+00" cType="1" res="1.6148237045854330e-03" rms="4.6919742226600647e-01" purity="6.1348277330398560e-01" nType="-99"/>
        </Node>
      </Node>
    </BinaryTree>
    <BinaryTree type="DecisionTree" boostWeight="1.0000000000000000e+00" itree="12">
      <Node pos="s" depth="0" NCoef="0" IVar="0" Cut="1.2491317749023438e+02" cType="1" res="-3.2818845938891172e-03" rms="4.7382566332817078e-01" purity="4.9739509820938110e-01" nType="0">
        <Node pos="l" depth="1" NCoef="0" IVar="0" Cut="1.1947183609008789e+01" cType="1" res="-9.7691630944609642e-03" rms="4.7705283761024475e-01" purity="4.7904276847839355e-01" nType="0">
          <Node pos="l" depth="2" NCoef="0" IVar="-1" Cut="0.0000000000000000e+00" cType="1" res="-1.3843310065567493e-02" rms="4.4770956039428711e-01" purity="2.8861007094383240e-01" nType="-99"/>
          <Node pos="r" depth="2" NCoef="0" IVar="13" Cut="7.0096733093261719e+01" cType="1" res="1.2960549443960190e-02" rms="4.8737850785255432e-01" purity="5.6098115444183350e-01" nType="0">
            <Node pos="l" depth="3" NCoef="0" IVar="0" Cut="3.8844100952148438e+01" cType="1" res="2.5222895666956902e-02" rms="4.8643442988395691e-01" purity="5.7452541589736938e-01" nType="0">
              <Node pos="l" depth="4" NCoef="0" IVar="2" Cut="1.4167816638946533e+00" cType="1" res="2.0669808145612478e-03" rms="4.9632054567337036e-01" purity="5.1735866069793701e-01" nType="0">
                <Node pos="l" depth="5" NCoef="0" IVar="-1" Cut="0.0000000000000000e+00" cType="1" res="2.2070491686463356e-03" rms="4.9617773294448853e-01" purity="5.3016382455825806e-01" nType="-99"/>
                <Node pos="r" depth="5" NCoef="0" IVar="-1" Cut="0.0000000000000000e+00" cType="1" res="-4.4811414554715157e-03" rms="4.9589893221855164e-01" purity="4.8230838775634766e-01" nType="-99"/>
              </Node>
              <Node pos="r" depth="4" NCoef="0" IVar="2" Cut="9.4715476036071777e-01" cType="1" res="5.5953226983547211e-02" rms="4.7124183177947998e-01" purity="6.5039175748825073e-01" nType="0">
                <Node pos="l" depth="5" NCoef="0" IVar="-1" Cut="0.0000000000000000e+00" cType="1" res="1.7277656123042107e-02" rms="4.6116033196449280e-01" purity="6.8253213167190552e-01" nType="-99"/>
                <Node pos="r" depth="5" NCoef="0" IVar="-1" Cut="0.0000000000000000e+00" cType="1" res="5.2987947128713131e-03" rms="4.8087626695632935e-01" purity="6.1308389902114868e-01" nType="-99"/>
              </Node>
            </Node>
            <Node pos="r" depth="3" NCoef="0" IVar="-1" Cut="0.0000000000000000e+00" cType="1" res="-2.7223566547036171e-02" rms="4.7459357976913452e-01" purity="3.9905199408531189e-01" nType="-99"/>
          </Node>
        </Node>
        <Node pos="r" depth="1" NCoef="0" IVar="-1" Cut="0.0000000000000000e+00" cType="1" res="2.2938890382647514e-02" rms="4.0664196014404297e-01" purity="7.8528207540512085e-01" nType="-99"/>
      </Node>
    </BinaryTree>
    <BinaryTree type="DecisionTree" boostWeight="1.0000000000000000e+00" itree="13">
      <Node pos="s" depth="0" NCoef="0" IVar="0" Cut="1.2488694000244141e+02" cType="1" res="3.6520296707749367e-03" rms="4.7179853916168213e-01" purity="5.0314682722091675e-01" nType="0">
        <Node pos="l" depth="1" NCoef="0" IVar="0" Cut="1.1918434143066406e+01" cType="1" res="-4.1923909448087215e-03" rms="4.7614687681198120e-01" purity="4.8292401432991028e-01" nType="0">
          <Node pos="l" depth="2" NCoef="0" IVar="-1" Cut="0.0000000000000000e+00" cType="1" res="-1.2294947169721127e-02" rms="4.4885405898094177e-01" purity="2.9001757502555847e-01" nType="-99"/>
          <Node pos="r" depth="2" NCoef="0" IVar="6" Cut="1.2857142686843872e+00" cType="1" res="1.7987675964832306e-02" rms="4.8588341474533081e-01" purity="5.6689214706420898e-01" nType="0">
            <Node pos="l" depth="3" NCoef="0" IVar="4" Cut="1.4652582406997681e+00" cType="1" res="2.9853176325559616e-02" rms="4.8538896441459656e-01" purity="5.7994037866592407e-01" nType="0">
              <Node pos="l" depth="4" NCoef="0" IVar="4" Cut="-1.3055711984634399e+00" cType="1" res="2.1333821117877960e-02" rms="4.8824399709701538e-01" purity="5.6829583644866943e-01" nType="0">
                <Node pos="l" depth="5" NCoef="0" IVar="-1" Cut="0.0000000000000000e+00" cType="1" res="6.4501189626753330e-03" rms="4.8685020208358765e-01" purity="5.7403010129928589e-01" nType="-99"/>
                <Node pos="r" depth="5" NCoef="0" IVar="-1" Cut="0.0000000000000000e+00" cType="1" res="-3.0148248188197613e-03" rms="4.9143034219741821e-01" purity="5.4812204837799072e-01" nType="-99"/>
              </Node>
              <Node pos="r" depth="4" NCoef="0" IVar="-1" Cut="0.0000000000000000e+00" cType="1" res="2.0831184461712837e-02" rms="4.5508238673210144e-01" purity="6.7609578371047974e-01" nType="-99"/>
            </Node>
            <Node pos="r" depth="3" NCoef="0" IVar="-1" Cut="0.0000000000000000e+00" cType="1" res="-1.6503874212503433e-02" rms="4.7873380780220032e-01" purity="4.5849412679672241e-01" nType="-99"/>
          </Node>
        </Node>
        <Node pos="r" depth="1" NCoef="0" IVar="-1" Cut="0.0000000000000000e+00" cType="1" res="3.0404746532440186e-02" rms="3.7490749359130859e-01" purity="8.2456892728805542e-01" nType="-99"/>
      </Node>
    </BinaryTree>
    <BinaryTree type="DecisionTree" boostWeight="1.0000000000000000e+00" itree="14">
      <Node pos="s" depth="0" NCoef="0" IVar="12" Cut="2.3809523880481720e-01" cType="1" res="-2.1216522436589003e-03" rms="4.7191825509071350e-01" purity="4.9742403626441956e-01" nType="0">
        <Node pos="l" depth="1" NCoef="0" IVar="7" Cut="4.2857143282890320e-01" cType="1" res="1.1630253866314888e-02" rms="4.7080102562904358e-01" purity="5.1005208492279053e-01" nType="0">
          <Node pos="l" depth="2" NCoef="0" IVar="1" Cut="-2.7162818908691406e+00" cType="1" res="-1.8739299848675728e-02" rms="4.7460332512855530e-01" purity="4.3250787258148193e-01" nType="0">
            <Node pos="l" depth="3" NCoef="0" IVar="-1" Cut="0.0000000000000000e+00" cType="1" res="-1.1377071030437946e-02" rms="4.5999822020530701e-01" purity="3.4438407421112061e-01" nType="-99"/>
            <Node pos="r" depth="3" NCoef="0" IVar="1" Cut="2.7823350429534912e+00" cType="1" res="-6.6226548515260220e-03" rms="4.7918200492858887e-01" purity="4.6427842974662781e-01" nType="0">
              <Node pos="l" depth="4" NCoef="0" IVar="2" Cut="1.2593932151794434e+00" cType="1" res="1.3464176096022129e-02" rms="4.8668348789215088e-01" purity="5.2434986829757690e-01" nType="0">
                <Node pos="l" depth="5" NCoef="0" IVar="-1" Cut="0.0000000000000000e+00" cType="1" res="7.1718469262123108e-03" rms="4.8589777946472168e-01" purity="5.5326271057128906e-01" nType="-99"/>
                <Node pos="r" depth="5" NCoef="0" IVar="-1" Cut="0.0000000000000000e+00" cType="1" res="-4.1242158040404320e-03" rms="4.8606568574905396e-01" purity="4.7845029830932617e-01" nType="-99"/>
              </Node>
              <Node pos="r" depth="4" NCoef="0" IVar="-1" Cut="0.0000000000000000e+00" cType="1" res="-9.8853418603539467e-03" rms="4.6187800168991089e-01" purity="3.4821772575378418e-01" nType="-99"/>
            </Node>
          </Node>
          <Node pos="r" depth="2" NCoef="0" IVar="10" Cut="2.3965609073638916e+00" cType="1" res="6.3193000853061676e-02" rms="4.5970174670219421e-01" purity="6.4171004295349121e-01" nType="0">
            <Node pos="l" depth="3" NCoef="0" IVar="0" Cut="5.8018981933593750e+01" cType="1" res="4.4949959963560104e-02" rms="4.6725788712501526e-01" purity="6.1803013086318970e-01" nType="0">
              <Node pos="l" depth="4" NCoef="0" IVar="0" Cut="3.5945045471191406e+01" cType="1" res="1.5904057770967484e-02" rms="4.8580542206764221e-01" purity="5.2499401569366455e-01" nType="0">
                <Node pos="l" depth="5" NCoef="0" IVar="-1" Cut="0.0000000000000000e+00" cType="1" res="-1.8554893322288990e-03" rms="4.8569262027740479e-01" purity="4.6016985177993774e-01" nType="-99"/>
                <Node pos="r" depth="5" NCoef="0" IVar="-1" Cut="0.0000000000000000e+00" cType="1" res="8.8926274329423904e-03" rms="4.8442977666854858e-01" purity="5.9699910879135132e-01" nType="-99"/>
              </Node>
              <Node pos="r" depth="4" NCoef="0" IVar="2" Cut="1.0671010017395020e+00" cType="1" res="7.6717033982276917e-02" rms="4.4392007589340210e-01" purity="7.1978229284286499e-01" nType="0">
                <Node pos="l" depth="5" NCoef="0" IVar="-1" Cut="0.0000000000000000e+00" cType="1" res="2.0322965458035469e-02" rms="4.3342572450637817e-01" purity="7.4104040861129761e-01" nType="-99"/>
                <Node pos="r" depth="5" NCoef="0" IVar="-1" Cut="0.0000000000000000e+00" cType="1" res="1.1239822022616863e-02" rms="4.6009153127670288e-01" purity="6.8372017145156860e-01" nType="-99"/>
              </Node>
            </Node>
            <Node pos="r" depth="3" NCoef="0" IVar="-1" Cut="0.0000000000000000e+00" cType="1" res="3.4786850214004517e-02" rms="4.0380927920341492e-01" purity="7.6727628707885742e-01" nType="-99"/>
          </Node>
        </Node>
        <Node pos="r" depth="1" NCoef="0" IVar="-1" Cut="0.0000000000000000e+00" cType="1" res="-5.4141897708177567e-02" rms="4.1405069828033447e-01" purity="2.5865924358367920e-01" nType="-99"/>
      </Node>
    </BinaryTree>
    <BinaryTree type="DecisionTree" boostWeight="1.0000000000000000e+00" itree="15">
      <Node pos="s" depth="0" NCoef="0" IVar="4" Cut="1.9263819456100464e+00" cType="1" res="3.7185067776590586e-03" rms="4.7076505422592163e-01" purity="5.0342899560928345e-01" nType="0">
        <Node pos="l" depth="1" NCoef="0" IVar="1" Cut="3.0895385742187500e+00" cType="1" res="-3.4180800430476665e-03" rms="4.7237217426300049e-01" purity="4.9067658185958862e-01" nType="0">
          <Node pos="l" depth="2" NCoef="0" IVar="1" Cut="-2.9757995605468750e+00" cType="1" res="5.5349776521325111e-03" rms="4.7463765740394592e-01" purity="5.1928853988647461e-01" nType="0">
            <Node pos="l" depth="3" NCoef="0" IVar="-1" Cut="0.0000000000000000e+00" cType="1" res="-9.3945013359189034e-03" rms="4.6154084801673889e-01" purity="3.4339201450347900e-01" nType="-99"/>
            <Node pos="r" depth="3" NCoef="0" IVar="4" Cut="-7.1226447820663452e-01" cType="1" res="1.6644939780235291e-02" rms="4.7689533233642578e-01" purity="5.5960369110107422e-01" nType="0">
              <Node pos="l" depth="4" NCoef="0" IVar="2" Cut="1.5713807344436646e+00" cType="1" res="3.2129615545272827e-02" rms="4.7646358609199524e-01" purity="5.6014603376388550e-01" nType="0">
                <Node pos="l" depth="5" NCoef="0" IVar="-1" Cut="0.0000000000000000e+00" cType="1" res="9.7643835470080376e-03" rms="4.7413650155067444e-01" purity="5.8465021848678589e-01" nType="-99"/>
                <Node pos="r" depth="5" NCoef="0" IVar="-1" Cut="0.0000000000000000e+00" cType="1" res="-2.0862650126218796e-03" rms="4.8078674077987671e-01" purity="4.8793315887451172e-01" nType="-99"/>
              </Node>
              <Node pos="r" depth="4" NCoef="0" IVar="1" Cut="-6.6523307561874390e-01" cType="1" res="-2.3925773799419403e-02" rms="4.7563996911048889e-01" purity="5.5818265676498413e-01" nType="0">
                <Node pos="l" depth="5" NCoef="0" IVar="-1" Cut="0.0000000000000000e+00" cType="1" res="2.8992234729230404e-03" rms="4.7302281856536865e-01" purity="5.8870977163314819e-01" nType="-99"/>
                <Node pos="r" depth="5" NCoef="0" IVar="-1" Cut="0.0000000000000000e+00" cType="1" res="-9.4196116551756859e-03" rms="4.7581285238265991e-01" purity="5.4178303480148315e-01" nType="-99"/>
              </Node>
            </Node>
          </Node>
          <Node pos="r" depth="2" NCoef="0" IVar="-1" Cut="0.0000000000000000e+00" cType="1" res="-1.2246947735548019e-02" rms="4.5538792014122009e-01" purity="3.2334765791893005e-01" nType="-99"/>
        </Node>
        <Node pos="r" depth="1" NCoef="0" IVar="-1" Cut="0.0000000000000000e+00" cType="1" res="2.2140312939882278e-02" rms="4.3596479296684265e-01" purity="6.8041980266571045e-01" nType="-99"/>
      </Node>
    </BinaryTree>
    <BinaryTree type="DecisionTree" boostWeight="1.0000000000000000e+00" itree="16">
      <Node pos="s" depth="0" NCoef="0" IVar="10" Cut="2.8746991157531738e+00" cType="1" res="-3.6792198661714792e-03" rms="4.7073912620544434e-01" purity="4.9722570180892944e-01" nType="0">
        <Node pos="l" depth="1" NCoef="0" IVar="1" Cut="-2.8404121398925781e+00" cType="1" res="-9.7834197804331779e-03" rms="4.7299888730049133e-01" purity="4.8445162177085876e-01" nType="0">
          <Node pos="l" depth="2" NCoef="0" IVar="-1" Cut="0.0000000000000000e+00" cType="1" res="-1.0984130203723907e-02" rms="4.6177607774734497e-01" purity="3.4044927358627319e-01" nType="-99"/>
          <Node pos="r" depth="2" NCoef="0" IVar="1" Cut="3.0141448974609375e+00" cType="1" res="-1.1764707742258906e-03" rms="4.7490695118904114e-01" purity="5.1507651805877686e-01" nType="0">
            <Node pos="l" depth="3" NCoef="0" IVar="2" Cut="1.2908223867416382e+00" cType="1" res="9.2144263908267021e-03" rms="4.7830188274383545e-01" purity="5.5745166540145874e-01" nType="0">
              <Node pos="l" depth="4" NCoef="0" IVar="6" Cut="4.2857143282890320e-01" cType="1" res="2.6778724044561386e-02" rms="4.7473770380020142e-01" purity="5.8947527408599854e-01" nType="0">
                <Node pos="l" depth="5" NCoef="0" IVar="-1" Cut="0.0000000000000000e+00" cType="1" res="8.6182216182351112e-03" rms="4.7694733738899231e-01" purity="5.7799881696701050e-01" nType="-99"/>
                <Node pos="r" depth="5" NCoef="0" IVar="-1" Cut="0.0000000000000000e+00" cType="1" res="1.6394429840147495e-03" rms="4.7108763456344604e-01" purity="6.0482645034790039e-01" nType="-99"/>
              </Node>
              <Node pos="r" depth="4" NCoef="0" IVar="6" Cut="4.2857143282890320e-01" cType="1" res="-2.4337273091077805e-02" rms="4.8326629400253296e-01" purity="4.9627947807312012e-01" nType="0">
                <Node pos="l" depth="5" NCoef="0" IVar="-1" Cut="0.0000000000000000e+00" cType="1" res="-1.7767610261216760e-03" rms="4.8309320211410522e-01" purity="4.9520984292030334e-01" nType="-99"/>
                <Node pos="r" depth="5" NCoef="0" IVar="-1" Cut="0.0000000000000000e+00" cType="1" res="-1.0735003277659416e-02" rms="4.8235452175140381e-01" purity="4.9811908602714539e-01" nType="-99"/>
              </Node>
            </Node>
            <Node pos="r" depth="3" NCoef="0" IVar="-1" Cut="0.0000000000000000e+00" cType="1" res="-9.9521456286311150e-03" rms="4.5761194825172424e-01" purity="3.3532515168190002e-01" nType="-99"/>
          </Node>
        </Node>
        <Node pos="r" depth="1" NCoef="0" IVar="-1" Cut="0.0000000000000000e+00" cType="1" res="2.0732777193188667e-02" rms="4.2090821266174316e-01" purity="7.0227473974227905e-01" nType="-99"/>
      </Node>
    </BinaryTree>
    <BinaryTree type="DecisionTree" boostWeight="1.0000000000000000e+00" itree="17">
      <Node pos="s" depth="0" NCoef="0" IVar="4" Cut="1.9263819456100464e+00" cType="1" res="-2.2187742870301008e-03" rms="4.6919041872024536e-01" purity="4.9801692366600037e-01" nType="0">
        <Node pos="l" depth="1" NCoef="0" IVar="2" Cut="1.2908242940902710e+00" cType="1" res="-8.1075066700577736e-03" rms="4.7081530094146729e-01" purity="4.8522940278053284e-01" nType="0">
          <Node pos="l" depth="2" NCoef="0" IVar="3" Cut="2.6795144081115723e+00" cType="1" res="5.1870066672563553e-03" rms="4.7034570574760437e-01" purity="5.0830173492431641e-01" nType="0">
            <Node pos="l" depth="3" NCoef="0" IVar="4" Cut="-7.1224290132522583e-01" cType="1" res="5.3008839488029480e-02" rms="4.4896182417869568e-01" purity="6.8276411294937134e-01" nType="0">
              <Node pos="l" depth="4" NCoef="0" IVar="-1" Cut="0.0000000000000000e+00" cType="1" res="1.6768543049693108e-02" rms="4.4046667218208313e-01" purity="7.0966410636901855e-01" nType="-99"/>
              <Node pos="r" depth="4" NCoef="0" IVar="-1" Cut="0.0000000000000000e+00" cType="1" res="5.4016052745282650e-03" rms="4.5742729306221008e-01" purity="6.5019738674163818e-01" nType="-99"/>
            </Node>
            <Node pos="r" depth="3" NCoef="0" IVar="1" Cut="2.7305529117584229e+00" cType="1" res="-7.5622927397489548e-03" rms="4.7507238388061523e-01" purity="4.6179008483886719e-01" nType="0">
              <Node pos="l" depth="4" NCoef="0" IVar="1" Cut="-2.0745089054107666e+00" cType="1" res="-9.4587252533528954e-05" rms="4.7811180353164673e-01" purity="4.9302110075950623e-01" nType="0">
                <Node pos="l" depth="5" NCoef="0" IVar="-1" Cut="0.0000000000000000e+00" cType="1" res="-5.3193718194961548e-03" rms="4.7646540403366089e-01" purity="4.0653529763221741e-01" nType="-99"/>
                <Node pos="r" depth="5" NCoef="0" IVar="-1" Cut="0.0000000000000000e+00" cType="1" res="4.2539923451840878e-03" rms="4.7850877046585083e-01" purity="5.6463611125946045e-01" nType="-99"/>
              </Node>
              <Node pos="r" depth="4" NCoef="0" IVar="-1" Cut="0.0000000000000000e+00" cType="1" res="-6.5749073401093483e-03" rms="4.6502140164375305e-01" purity="3.6725929379463196e-01" nType="-99"/>
            </Node>
          </Node>
          <Node pos="r" depth="2" NCoef="0" IVar="4" Cut="-7.1224755048751831e-01" cType="1" res="-3.7142515182495117e-02" rms="4.7053509950637817e-01" purity="4.3483963608741760e-01" nType="0">
            <Node pos="l" depth="3" NCoef="0" IVar="0" Cut="3.3453716278076172e+01" cType="1" res="-2.9912460595369339e-02" rms="4.6844577789306641e-01" purity="4.2606431245803833e-01" nType="0">
              <Node pos="l" depth="4" NCoef="0" IVar="-1" Cut="0.0000000000000000e+00" cType="1" res="-1.0048761032521725e-02" rms="4.6515583992004395e-01" purity="3.6357226967811584e-01" nType="-99"/>
              <Node pos="r" depth="4" NCoef="0" IVar="-1" Cut="0.0000000000000000e+00" cType="1" res="4.6861865557730198e-03" rms="4.7465425729751587e-01" purity="6.1836761236190796e-01" nType="-99"/>
            </Node>
            <Node pos="r" depth="3" NCoef="0" IVar="-1" Cut="0.0000000000000000e+00" cType="1" res="-1.4214854687452316e-02" rms="4.7810828685760498e-01" purity="4.7221219539642334e-01" nType="-99"/>
          </Node>
        </Node>
        <Node pos="r" depth="1" NCoef="0" IVar="-1" Cut="0.0000000000000000e+00" cType="1" res="1.6471669077873230e-02" rms="4.3974149227142334e-01" purity="6.6735714673995972e-01" nType="-99"/>
      </Node>
    </BinaryTree>
    <BinaryTree type="DecisionTree" boostWeight="1.0000000000000000e+00" itree="18">
      <Node pos="s" depth="0" NCoef="0" IVar="12" Cut="1.9047619402408600e-01" cType="1" res="-4.2350770672783256e-04" rms="4.6965596079826355e-01" purity="5.0003761053085327e-01" nType="0">
        <Node pos="l" depth="1" NCoef="0" IVar="0" Cut="5.8329772949218750e+01" cType="1" res="1.2400478124618530e-02" rms="4.6910345554351807e-01" purity="5.1309108734130859e-01" nType="0">
          <Node pos="l" depth="2" NCoef="0" IVar="0" Cut="8.3708095550537109e+00" cType="1" res="-3.7625918630510569e-03" rms="4.7668656706809998e-01" purity="4.5559242367744446e-01" nType="0">
            <Node pos="l" depth="3" NCoef="0" IVar="-1" Cut="0.0000000000000000e+00" cType="1" res="-1.2479808181524277e-02" rms="4.3163609504699707e-01" purity="2.5027379393577576e-01" nType="-99"/>
            <Node pos="r" depth="3" NCoef="0" IVar="0" Cut="3.6918632507324219e+01" cType="1" res="1.3430857099592686e-02" rms="4.9039921164512634e-01" purity="5.2783030271530151e-01" nType="0">
              <Node pos="l" depth="4" NCoef="0" IVar="2" Cut="6.3873469829559326e-01" cType="1" res="3.8864361122250557e-03" rms="4.9413609504699707e-01" purity="4.9523606896400452e-01" nType="0">
                <Node pos="l" depth="5" NCoef="0" IVar="-1" Cut="0.0000000000000000e+00" cType="1" res="5.3964708931744099e-03" rms="4.9256351590156555e-01" purity="5.2922165393829346e-01" nType="-99"/>
                <Node pos="r" depth="5" NCoef="0" IVar="-1" Cut="0.0000000000000000e+00" cType="1" res="-1.9688406027853489e-03" rms="4.9458044767379761e-01" purity="4.7487336397171021e-01" nType="-99"/>
              </Node>
              <Node pos="r" depth="4" NCoef="0" IVar="1" Cut="8.4702730178833008e-01" cType="1" res="4.4046845287084579e-02" rms="4.7692796587944031e-01" purity="6.3238400220870972e-01" nType="0">
                <Node pos="l" depth="5" NCoef="0" IVar="-1" Cut="0.0000000000000000e+00" cType="1" res="1.2403711676597595e-02" rms="4.7224745154380798e-01" purity="6.4667552709579468e-01" nType="-99"/>
                <Node pos="r" depth="5" NCoef="0" IVar="-1" Cut="0.0000000000000000e+00" cType="1" res="4.4708158820867538e-03" rms="4.8284390568733215e-01" purity="6.1134344339370728e-01" nType="-99"/>
              </Node>
            </Node>
          </Node>
          <Node pos="r" depth="2" NCoef="0" IVar="10" Cut="4.4041469693183899e-01" cType="1" res="7.4695229530334473e-02" rms="4.3304559588432312e-01" purity="7.3469907045364380e-01" nType="0">
            <Node pos="l" depth="3" NCoef="0" IVar="4" Cut="-8.4417086839675903e-01" cType="1" res="4.6036828309297562e-02" rms="4.5343616604804993e-01" purity="6.9894641637802124e-01" nType="0">
              <Node pos="l" depth="4" NCoef="0" IVar="-1" Cut="0.0000000000000000e+00" cType="1" res="1.7151579260826111e-02" rms="4.4043579697608948e-01" purity="7.3279452323913574e-01" nType="-99"/>
              <Node pos="r" depth="4" NCoef="0" IVar="-1" Cut="0.0000000000000000e+00" cType="1" res="5.7970941998064518e-03" rms="4.6061712503433228e-01" purity="6.7687290906906128e-01" nType="-99"/>
            </Node>
            <Node pos="r" depth="3" NCoef="0" IVar="-1" Cut="0.0000000000000000e+00" cType="1" res="2.9718663543462753e-02" rms="3.8641962409019470e-01" purity="8.0155414342880249e-01" nType="-99"/>
          </Node>
        </Node>
        <Node pos="r" depth="1" NCoef="0" IVar="-1" Cut="0.0000000000000000e+00" cType="1" res="-5.0108123570680618e-02" rms="4.1074436902999878e-01" purity="2.5373798608779907e-01" nType="-99"/>
      </Node>
    </BinaryTree>
    <BinaryTree type="DecisionTree" boostWeight="1.0000000000000000e+00" itree="19">
      <Node pos="s" depth="0" NCoef="0" IVar="0" Cut="1.2490262603759766e+02" cType="1" res="7.4731266067828983e-05" rms="4.6777990460395813e-01" purity="4.9905800819396973e-01" nType="0">
        <Node pos="l" depth="1" NCoef="0" IVar="6" Cut="1.2857142686843872e+00" cType="1" res="-5.7952785864472389e-03" rms="4.7232136130332947e-01" purity="4.7922885417938232e-01" nType="0">
          <Node pos="l" depth="2" NCoef="0" IVar="0" Cut="1.7881206512451172e+01" cType="1" res="6.7026645410805941e-04" rms="4.7262790799140930e-01" purity="4.8273605108261108e-01" nType="0">
            <Node pos="l" depth="3" NCoef="0" IVar="0" Cut="7.6885633468627930e+00" cType="1" res="-2.9980210587382317e-02" rms="4.6227461099624634e-01" purity="3.3569672703742981e-01" nType="0">
              <Node pos="l" depth="4" NCoef="0" IVar="-1" Cut="0.0000000000000000e+00" cType="1" res="-1.3379113748669624e-02" rms="4.2573463916778564e-01" purity="2.3920048773288727e-01" nType="-99"/>
              <Node pos="r" depth="4" NCoef="0" IVar="-1" Cut="0.0000000000000000e+00" cType="1" res="-1.7385960090905428e-03" rms="4.8994228243827820e-01" purity="4.1707322001457214e-01" nType="-99"/>
            </Node>
            <Node pos="r" depth="3" NCoef="0" IVar="0" Cut="4.8460124969482422e+01" cType="1" res="2.6270110160112381e-02" rms="4.7960555553436279e-01" purity="6.0554593801498413e-01" nType="0">
              <Node pos="l" depth="4" NCoef="0" IVar="2" Cut="7.9838967323303223e-01" cType="1" res="1.4206554740667343e-02" rms="4.9039679765701294e-01" purity="5.6716954708099365e-01" nType="0">
                <Node pos="l" depth="5" NCoef="0" IVar="-1" Cut="0.0000000000000000e+00" cType="1" res="5.8896723203361034e-03" rms="4.8681446909904480e-01" purity="5.9637093544006348e-01" nType="-99"/>
                <Node pos="r" depth="5" NCoef="0" IVar="-1" Cut="0.0000000000000000e+00" cType="1" res="2.6702991453930736e-04" rms="4.9321550130844116e-01" purity="5.4110175371170044e-01" nType="-99"/>
              </Node>
              <Node pos="r" depth="4" NCoef="0" IVar="4" Cut="-1.7685955762863159e+00" cType="1" res="4.8129539936780930e-02" rms="4.5859849452972412e-01" purity="6.7508476972579956e-01" nType="0">
                <Node pos="l" depth="5" NCoef="0" IVar="-1" Cut="0.0000000000000000e+00" cType="1" res="2.0536432042717934e-02" rms="4.3604910373687744e-01" purity="7.3753589391708374e-01" nType="-99"/>
                <Node pos="r" depth="5" NCoef="0" IVar="-1" Cut="0.0000000000000000e+00" cType="1" res="5.3836153820157051e-03" rms="4.6797087788581848e-01" purity="6.4329457283020020e-01" nType="-99"/>
              </Node>
            </Node>
          </Node>
          <Node pos="r" depth="2" NCoef="0" IVar="-1" Cut="0.0000000000000000e+00" cType="1" res="-1.6612056642770767e-02" rms="4.6241971850395203e-01" purity="4.3912750482559204e-01" nType="-99"/>
        </Node>
        <Node pos="r" depth="1" NCoef="0" IVar="-1" Cut="0.0000000000000000e+00" cType="1" res="2.4086633697152138e-02" rms="3.7422835826873779e-01" purity="8.2030946016311646e-01" nType="-99"/>
      </Node>
    </BinaryTree>
    <BinaryTree type="DecisionTree" boostWeight="1.0000000000000000e+00" itree="20">
      <Node pos="s" depth="0" NCoef="0" IVar="12" Cut="1.9047619402408600e-01" cType="1" res="-9.6263882005587220e-04" rms="4.6674326062202454e-01" purity="4.9764892458915710e-01" nType="0">
        <Node pos="l" depth="1" NCoef="0" IVar="4" Cut="-4.5381956100463867e+00" cType="1" res="1.0786850005388260e-02" rms="4.6673074364662170e-01" purity="5.1094198226928711e-01" nType="0">
          <Node pos="l" depth="2" NCoef="0" IVar="2" Cut="6.2969022989273071e-01" cType="1" res="-1.5223879367113113e-02" rms="4.7178146243095398e-01" purity="4.2909282445907593e-01" nType="0">
            <Node pos="l" depth="3" NCoef="0" IVar="13" Cut="2.9322124481201172e+01" cType="1" res="3.6457867827266455e-03" rms="4.7469741106033325e-01" purity="4.5937314629554749e-01" nType="0">
              <Node pos="l" depth="4" NCoef="0" IVar="-1" Cut="0.0000000000000000e+00" cType="1" res="-1.0272328509017825e-03" rms="4.7412380576133728e-01" purity="4.4442877173423767e-01" nType="-99"/>
              <Node pos="r" depth="4" NCoef="0" IVar="-1" Cut="0.0000000000000000e+00" cType="1" res="2.8283784631639719e-03" rms="4.7516590356826782e-01" purity="4.7622215747833252e-01" nType="-99"/>
            </Node>
            <Node pos="r" depth="3" NCoef="0" IVar="0" Cut="1.9188737869262695e+01" cType="1" res="-2.6187740266323090e-02" rms="4.6973085403442383e-01" purity="4.1149902343750000e-01" nType="0">
              <Node pos="l" depth="4" NCoef="0" IVar="-1" Cut="0.0000000000000000e+00" cType="1" res="-9.3445535749197006e-03" rms="4.5638963580131531e-01" purity="3.2016047835350037e-01" nType="-99"/>
              <Node pos="r" depth="4" NCoef="0" IVar="3" Cut="2.9206910133361816e+00" cType="1" res="1.9841240718960762e-03" rms="4.9130511283874512e-01" purity="5.7393896579742432e-01" nType="0">
                <Node pos="l" depth="5" NCoef="0" IVar="-1" Cut="0.0000000000000000e+00" cType="1" res="1.9095289753749967e-03" rms="4.8846054077148438e-01" purity="5.9029519557952881e-01" nType="-99"/>
                <Node pos="r" depth="5" NCoef="0" IVar="-1" Cut="0.0000000000000000e+00" cType="1" res="-8.7993335910141468e-04" rms="4.9368208646774292e-01" purity="5.5970305204391479e-01" nType="-99"/>
              </Node>
            </Node>
          </Node>
          <Node pos="r" depth="2" NCoef="0" IVar="10" Cut="2.3890514373779297e+00" cType="1" res="5.5449742823839188e-02" rms="4.5446869730949402e-01" purity="6.5148484706878662e-01" nType="0">
            <Node pos="l" depth="3" NCoef="0" IVar="4" Cut="-1.0190404653549194e+00" cType="1" res="4.1748583316802979e-02" rms="4.6370476484298706e-01" purity="6.2865543365478516e-01" nType="0">
              <Node pos="l" depth="4" NCoef="0" IVar="-1" Cut="0.0000000000000000e+00" cType="1" res="1.6971642151474953e-02" rms="4.4634360074996948e-01" purity="6.6341847181320190e-01" nType="-99"/>
              <Node pos="r" depth="4" NCoef="0" IVar="4" Cut="1.4310783147811890e+00" cType="1" res="2.6038760319352150e-02" rms="4.7023111581802368e-01" purity="6.1345922946929932e-01" nType="0">
                <Node pos="l" depth="5" NCoef="0" IVar="-1" Cut="0.0000000000000000e+00" cType="1" res="5.3945253603160381e-04" rms="4.8009863495826721e-01" purity="5.8680689334869385e-01" nType="-99"/>
                <Node pos="r" depth="5" NCoef="0" IVar="-1" Cut="0.0000000000000000e+00" cType="1" res="1.5264037065207958e-02" rms="4.4788956642150879e-01" purity="6.6331928968429565e-01" nType="-99"/>
              </Node>
            </Node>
            <Node pos="r" depth="3" NCoef="0" IVar="-1" Cut="0.0000000000000000e+00" cType="1" res="2.9840333387255669e-02" rms="3.9196610450744629e-01" purity="7.7609205245971680e-01" nType="-99"/>
          </Node>
        </Node>
        <Node pos="r" depth="1" NCoef="0" IVar="-1" Cut="0.0000000000000000e+00" cType="1" res="-4.6249497681856155e-02" rms="4.0807768702507019e-01" purity="2.4735534191131592e-01" nType="-99"/>
      </Node>
    </BinaryTree>
    <BinaryTree type="DecisionTree" boostWeight="1.0000000000000000e+00" itree="21">
      <Node pos="s" depth="0" NCoef="0" IVar="13" Cut="6.0493534088134766e+01" cType="1" res="3.0094604007899761e-03" rms="4.6654918789863586e-01" purity="5.0210928916931152e-01" nType="0">
        <Node pos="l" depth="1" NCoef="0" IVar="0" Cut="5.2087299346923828e+01" cType="1" res="9.6115684136748314e-03" rms="4.6671181917190552e-01" purity="5.0794672966003418e-01" nType="0">
          <Node pos="l" depth="2" NCoef="0" IVar="0" Cut="9.9667520523071289e+00" cType="1" res="-6.1133843846619129e-03" rms="4.7511133551597595e-01" purity="4.4307625293731689e-01" nType="0">
            <Node pos="l" depth="3" NCoef="0" IVar="-1" Cut="0.0000000000000000e+00" cType="1" res="-8.5777016356587410e-03" rms="4.4019091129302979e-01" purity="2.6878672838211060e-01" nType="-99"/>
            <Node pos="r" depth="3" NCoef="0" IVar="1" Cut="-2.5696048736572266e+00" cType="1" res="8.6963456124067307e-03" rms="4.9076309800148010e-01" purity="5.2912944555282593e-01" nType="0">
              <Node pos="l" depth="4" NCoef="0" IVar="-1" Cut="0.0000000000000000e+00" cType="1" res="-3.0166273936629295e-03" rms="4.9435997009277344e-01" purity="4.7549504041671753e-01" nType="-99"/>
              <Node pos="r" depth="4" NCoef="0" IVar="1" Cut="1.6772885322570801e+00" cType="1" res="1.4627203345298767e-02" rms="4.8967263102531433e-01" purity="5.4267144203186035e-01" nType="0">
                <Node pos="l" depth="5" NCoef="0" IVar="-1" Cut="0.0000000000000000e+00" cType="1" res="5.6683612056076527e-03" rms="4.8668187856674194e-01" purity="5.6954854726791382e-01" nType="-99"/>
                <Node pos="r" depth="5" NCoef="0" IVar="-1" Cut="0.0000000000000000e+00" cType="1" res="-3.8550409954041243e-04" rms="4.9296167492866516e-01" purity="5.0844258069992065e-01" nType="-99"/>
              </Node>
            </Node>
          </Node>
          <Node pos="r" depth="2" NCoef="0" IVar="4" Cut="1.0007803440093994e+00" cType="1" res="6.0231398791074753e-02" rms="4.3473657965660095e-01" purity="7.1676969528198242e-01" nType="0">
            <Node pos="l" depth="3" NCoef="0" IVar="4" Cut="-1.5710014104843140e+00" cType="1" res="4.7374937683343887e-02" rms="4.4424888491630554e-01" purity="6.9861489534378052e-01" nType="0">
              <Node pos="l" depth="4" NCoef="0" IVar="-1" Cut="0.0000000000000000e+00" cType="1" res="2.1458990871906281e-02" rms="4.1340589523315430e-01" purity="7.6685941219329834e-01" nType="-99"/>
              <Node pos="r" depth="4" NCoef="0" IVar="-1" Cut="0.0000000000000000e+00" cType="1" res="4.6311756595969200e-03" rms="4.5929545164108276e-01" purity="6.5859514474868774e-01" nType="-99"/>
            </Node>
            <Node pos="r" depth="3" NCoef="0" IVar="-1" Cut="0.0000000000000000e+00" cType="1" res="2.1975459530949593e-02" rms="4.0636587142944336e-01" purity="7.6508599519729614e-01" nType="-99"/>
          </Node>
        </Node>
        <Node pos="r" depth="1" NCoef="0" IVar="6" Cut="4.2857143282890320e-01" cType="1" res="-4.8718549311161041e-02" rms="4.6201920509338379e-01" purity="4.5637252926826477e-01" nType="0">
          <Node pos="l" depth="2" NCoef="0" IVar="-1" Cut="0.0000000000000000e+00" cType="1" res="2.1062768064439297e-03" rms="4.7462961077690125e-01" purity="4.9506625533103943e-01" nType="-99"/>
          <Node pos="r" depth="2" NCoef="0" IVar="-1" Cut="0.0000000000000000e+00" cType="1" res="-2.2095084190368652e-02" rms="4.4325593113899231e-01" purity="4.2062997817993164e-01" nType="-99"/>
        </Node>
      </Node>
    </BinaryTree>
    <BinaryTree type="DecisionTree" boostWeight="1.0000000000000000e+00" itree="22">
      <Node pos="s" depth="0" NCoef="0" IVar="13" Cut="6.0493534088134766e+01" cType="1" res="5.0660222768783569e-03" rms="4.6623697876930237e-01" purity="5.0542157888412476e-01" nType="0">
        <Node pos="l" depth="1" NCoef="0" IVar="4" Cut="-4.5382413864135742e+00" cType="1" res="1.0558564215898514e-02" rms="4.6660527586936951e-01" purity="5.1100242137908936e-01" nType="0">
          <Node pos="l" depth="2" NCoef="0" IVar="0" Cut="2.7926481246948242e+01" cType="1" res="-4.9255555495619774e-03" rms="4.7217130661010742e-01" purity="4.3674105405807495e-01" nType="0">
            <Node pos="l" depth="3" NCoef="0" IVar="2" Cut="1.1019405126571655e+00" cType="1" res="-1.4549598097801208e-02" rms="4.7114050388336182e-01" purity="3.8229033350944519e-01" nType="0">
              <Node pos="l" depth="4" NCoef="0" IVar="0" Cut="1.3311170578002930e+01" cType="1" res="-1.1608214117586613e-04" rms="4.7605043649673462e-01" purity="4.0513923764228821e-01" nType="0">
                <Node pos="l" depth="5" NCoef="0" IVar="-1" Cut="0.0000000000000000e+00" cType="1" res="-1.7136331880465150e-03" rms="4.6163427829742432e-01" purity="3.2492208480834961e-01" nType="-99"/>
                <Node pos="r" depth="5" NCoef="0" IVar="-1" Cut="0.0000000000000000e+00" cType="1" res="2.2500879131257534e-03" rms="4.9718725681304932e-01" purity="5.2845960855484009e-01" nType="-99"/>
              </Node>
              <Node pos="r" depth="4" NCoef="0" IVar="-1" Cut="0.0000000000000000e+00" cType="1" res="-7.8835310414433479e-03" rms="4.6297177672386169e-01" purity="3.4854522347450256e-01" nType="-99"/>
            </Node>
            <Node pos="r" depth="3" NCoef="0" IVar="-1" Cut="0.0000000000000000e+00" cType="1" res="6.9476519711315632e-03" rms="4.7430837154388428e-01" purity="6.4924257993698120e-01" nType="-99"/>
          </Node>
          <Node pos="r" depth="2" NCoef="0" IVar="6" Cut="4.2857143282890320e-01" cType="1" res="3.6210078746080399e-02" rms="4.5607995986938477e-01" purity="6.3402628898620605e-01" nType="0">
            <Node pos="l" depth="3" NCoef="0" IVar="-1" Cut="0.0000000000000000e+00" cType="1" res="1.9767556339502335e-02" rms="4.2429897189140320e-01" purity="6.9308787584304810e-01" nType="-99"/>
            <Node pos="r" depth="3" NCoef="0" IVar="0" Cut="1.1675334930419922e+02" cType="1" res="2.4106223136186600e-02" rms="4.6235102415084839e-01" purity="6.2023484706878662e-01" nType="0">
              <Node pos="l" depth="4" NCoef="0" IVar="1" Cut="1.1070548295974731e+00" cType="1" res="1.3636232353746891e-02" rms="4.7712570428848267e-01" purity="5.7745230197906494e-01" nType="0">
                <Node pos="l" depth="5" NCoef="0" IVar="-1" Cut="0.0000000000000000e+00" cType="1" res="5.6568370200693607e-03" rms="4.7358372807502747e-01" purity="5.9809589385986328e-01" nType="-99"/>
                <Node pos="r" depth="5" NCoef="0" IVar="-1" Cut="0.0000000000000000e+00" cType="1" res="-2.2619492374360561e-03" rms="4.8271307349205017e-01" purity="5.3896522521972656e-01" nType="-99"/>
              </Node>
              <Node pos="r" depth="4" NCoef="0" IVar="-1" Cut="0.0000000000000000e+00" cType="1" res="1.7866626381874084e-02" rms="3.8999268412590027e-01" purity="8.0273801088333130e-01" nType="-99"/>
            </Node>
          </Node>
        </Node>
        <Node pos="r" depth="1" NCoef="0" IVar="6" Cut="4.2857143282890320e-01" cType="1" res="-3.8068309426307678e-02" rms="4.6106535196304321e-01" purity="4.6159353852272034e-01" nType="0">
          <Node pos="l" depth="2" NCoef="0" IVar="-1" Cut="0.0000000000000000e+00" cType="1" res="5.4653049446642399e-03" rms="4.6890756487846375e-01" purity="5.0699704885482788e-01" nType="-99"/>
          <Node pos="r" depth="2" NCoef="0" IVar="-1" Cut="0.0000000000000000e+00" cType="1" res="-2.0964235067367554e-02" rms="4.4548097252845764e-01" purity="4.1899192333221436e-01" nType="-99"/>
        </Node>
      </Node>
    </BinaryTree>
    <BinaryTree type="DecisionTree" boostWeight="1.0000000000000000e+00" itree="23">
      <Node pos="s" depth="0" NCoef="0" IVar="0" Cut="1.2641861724853516e+02" cType="1" res="-5.4536049719899893e-04" rms="4.6791800856590271e-01" purity="5.0141203403472900e-01" nType="0">
        <Node pos="l" depth="1" NCoef="0" IVar="6" Cut="1.2857142686843872e+00" cType="1" res="-4.5559150166809559e-03" rms="4.7232651710510254e-01" purity="4.8257446289062500e-01" nType="0">
          <Node pos="l" depth="2" NCoef="0" IVar="0" Cut="1.2110163688659668e+01" cType="1" res="5.2747450536116958e-04" rms="4.7335869073867798e-01" purity="4.8580899834632874e-01" nType="0">
            <Node pos="l" depth="3" NCoef="0" IVar="-1" Cut="0.0000000000000000e+00" cType="1" res="-4.8980806022882462e-03" rms="4.5084059238433838e-01" purity="2.9698774218559265e-01" nType="-99"/>
            <Node pos="r" depth="3" NCoef="0" IVar="1" Cut="-2.4086618423461914e+00" cType="1" res="1.0928025469183922e-02" rms="4.8353248834609985e-01" purity="5.7714748382568359e-01" nType="0">
              <Node pos="l" depth="4" NCoef="0" IVar="-1" Cut="0.0000000000000000e+00" cType="1" res="-4.5893797650933266e-03" rms="4.9477291107177734e-01" purity="5.0208121538162231e-01" nType="-99"/>
              <Node pos="r" depth="4" NCoef="0" IVar="1" Cut="2.2953989505767822e+00" cType="1" res="1.8007559701800346e-02" rms="4.8081555962562561e-01" purity="5.9307861328125000e-01" nType="0">
                <Node pos="l" depth="5" NCoef="0" IVar="-1" Cut="0.0000000000000000e+00" cType="1" res="5.0076986663043499e-03" rms="4.7664201259613037e-01" purity="6.1253863573074341e-01" nType="-99"/>
                <Node pos="r" depth="5" NCoef="0" IVar="-1" Cut="0.0000000000000000e+00" cType="1" res="-2.1339663362596184e-04" rms="4.9421793222427368e-01" purity="5.2715110778808594e-01" nType="-99"/>
              </Node>
            </Node>
          </Node>
          <Node pos="r" depth="2" NCoef="0" IVar="-1" Cut="0.0000000000000000e+00" cType="1" res="-1.3208283111453056e-02" rms="4.5641201734542847e-01" purity="4.4570085406303406e-01" nType="-99"/>
        </Node>
        <Node pos="r" depth="1" NCoef="0" IVar="-1" Cut="0.0000000000000000e+00" cType="1" res="1.6990184783935547e-02" rms="3.8421714305877686e-01" purity="8.0534327030181885e-01" nType="-99"/>
      </Node>
    </BinaryTree>
    <BinaryTree type="DecisionTree" boostWeight="1.0000000000000000e+00" itree="24">
      <Node pos="s" depth="0" NCoef="0" IVar="10" Cut="2.9141819477081299e+00" cType="1" res="-4.2824358679354191e-03" rms="4.6628651022911072e-01" purity="4.9691113829612732e-01" nType="0">
        <Node pos="l" depth="1" NCoef="0" IVar="8" Cut="1.4054521179199219e+02" cType="1" res="-8.0133276060223579e-03" rms="4.6906360983848572e-01" purity="4.8535075783729553e-01" nType="0">
          <Node pos="l" depth="2" NCoef="0" IVar="1" Cut="2.8876979351043701e+00" cType="1" res="-3.8505210541188717e-03" rms="4.7030001878738403e-01" purity="4.8525679111480713e-01" nType="0">
            <Node pos="l" depth="3" NCoef="0" IVar="1" Cut="-2.2478904724121094e+00" cType="1" res="2.8246035799384117e-03" rms="4.7239816188812256e-01" purity="5.1807481050491333e-01" nType="0">
              <Node pos="l" depth="4" NCoef="0" IVar="2" Cut="7.8711092472076416e-01" cType="1" res="-2.5674743577837944e-02" rms="4.6975716948509216e-01" purity="3.9052388072013855e-01" nType="0">
                <Node pos="l" depth="5" NCoef="0" IVar="-1" Cut="0.0000000000000000e+00" cType="1" res="-3.0117982532829046e-03" rms="4.7976201772689819e-01" purity="4.2594635486602783e-01" nType="-99"/>
                <Node pos="r" depth="5" NCoef="0" IVar="-1" Cut="0.0000000000000000e+00" cType="1" res="-8.2528563216328621e-03" rms="4.5955330133438110e-01" purity="3.5617160797119141e-01" nType="-99"/>
              </Node>
              <Node pos="r" depth="4" NCoef="0" IVar="1" Cut="1.4203536510467529e+00" cType="1" res="1.6574867069721222e-02" rms="4.7305345535278320e-01" purity="5.7961517572402954e-01" nType="0">
                <Node pos="l" depth="5" NCoef="0" IVar="-1" Cut="0.0000000000000000e+00" cType="1" res="5.8213570155203342e-03" rms="4.6794149279594421e-01" purity="6.0580372810363770e-01" nType="-99"/>
                <Node pos="r" depth="5" NCoef="0" IVar="-1" Cut="0.0000000000000000e+00" cType="1" res="-4.4567356235347688e-04" rms="4.8158288002014160e-01" purity="5.3233361244201660e-01" nType="-99"/>
              </Node>
            </Node>
            <Node pos="r" depth="3" NCoef="0" IVar="-1" Cut="0.0000000000000000e+00" cType="1" res="-7.6459129340946674e-03" rms="4.5950299501419067e-01" purity="3.3709177374839783e-01" nType="-99"/>
          </Node>
          <Node pos="r" depth="2" NCoef="0" IVar="-1" Cut="0.0000000000000000e+00" cType="1" res="-1.7673131078481674e-02" rms="4.4159120321273804e-01" purity="4.8694756627082825e-01" nType="-99"/>
        </Node>
        <Node pos="r" depth="1" NCoef="0" IVar="-1" Cut="0.0000000000000000e+00" cType="1" res="1.3367196545004845e-02" rms="4.1285830736160278e-01" purity="6.8800270557403564e-01" nType="-99"/>
      </Node>
    </BinaryTree>
    <BinaryTree type="DecisionTree" boostWeight="1.0000000000000000e+00" itree="25">
      <Node pos="s" depth="0" NCoef="0" IVar="13" Cut="6.0472675323486328e+01" cType="1" res="-1.8253319431096315e-03" rms="4.6628943085670471e-01" purity="4.9821078777313232e-01" nType="0">
        <Node pos="l" depth="1" NCoef="0" IVar="0" Cut="1.0837703704833984e+02" cType="1" res="3.0161808244884014e-03" rms="4.6667259931564331e-01" purity="5.0337058305740356e-01" nType="0">
          <Node pos="l" depth="2" NCoef="0" IVar="0" Cut="1.0382771492004395e+01" cType="1" res="-2.8773229569196701e-03" rms="4.7256031632423401e-01" purity="4.7870230674743652e-01" nType="0">
            <Node pos="l" depth="3" NCoef="0" IVar="-1" Cut="0.0000000000000000e+00" cType="1" res="-7.1306522004306316e-03" rms="4.3993729352951050e-01" purity="2.7009555697441101e-01" nType="-99"/>
            <Node pos="r" depth="3" NCoef="0" IVar="4" Cut="-1.3095023632049561e+00" cType="1" res="7.7568208798766136e-03" rms="4.8448678851127625e-01" purity="5.6147867441177368e-01" nType="0">
              <Node pos="l" depth="4" NCoef="0" IVar="0" Cut="3.3714832305908203e+01" cType="1" res="1.5213789418339729e-02" rms="4.8541128635406494e-01" purity="5.5700600147247314e-01" nType="0">
                <Node pos="l" depth="5" NCoef="0" IVar="-1" Cut="0.0000000000000000e+00" cType="1" res="4.8556894762441516e-04" rms="4.9532842636108398e-01" purity="5.0180095434188843e-01" nType="-99"/>
                <Node pos="r" depth="5" NCoef="0" IVar="-1" Cut="0.0000000000000000e+00" cType="1" res="9.8994243890047073e-03" rms="4.6014165878295898e-01" purity="6.8540501594543457e-01" nType="-99"/>
              </Node>
              <Node pos="r" depth="4" NCoef="0" IVar="4" Cut="6.8959712982177734e-01" cType="1" res="-8.1962756812572479e-03" rms="4.8211589455604553e-01" purity="5.7104730606079102e-01" nType="0">
                <Node pos="l" depth="5" NCoef="0" IVar="-1" Cut="0.0000000000000000e+00" cType="1" res="-7.1777473203837872e-03" rms="4.8887750506401062e-01" purity="5.2443104982376099e-01" nType="-99"/>
                <Node pos="r" depth="5" NCoef="0" IVar="-1" Cut="0.0000000000000000e+00" cType="1" res="3.5387573298066854e-03" rms="4.7436374425888062e-01" purity="6.1477988958358765e-01" nType="-99"/>
              </Node>
            </Node>
          </Node>
          <Node pos="r" depth="2" NCoef="0" IVar="-1" Cut="0.0000000000000000e+00" cType="1" res="2.0183341577649117e-02" rms="3.7767410278320312e-01" purity="8.1233733892440796e-01" nType="-99"/>
        </Node>
        <Node pos="r" depth="1" NCoef="0" IVar="6" Cut="4.2857143282890320e-01" cType="1" res="-4.0180075913667679e-02" rms="4.6145093441009521e-01" purity="4.5733490586280823e-01" nType="0">
          <Node pos="l" depth="2" NCoef="0" IVar="-1" Cut="0.0000000000000000e+00" cType="1" res="2.3429326247423887e-03" rms="4.7294157743453979e-01" purity="5.0010251998901367e-01" nType="-99"/>
          <Node pos="r" depth="2" NCoef="0" IVar="-1" Cut="0.0000000000000000e+00" cType="1" res="-1.8881596624851227e-02" rms="4.4531837105751038e-01" purity="4.1760537028312683e-01" nType="-99"/>
        </Node>
      </Node>
    </BinaryTree>
    <BinaryTree type="DecisionTree" boostWeight="1.0000000000000000e+00" itree="26">
      <Node pos="s" depth="0" NCoef="0" IVar="4" Cut="1.9244381189346313e+00" cType="1" res="-1.4344991650432348e-03" rms="4.6627688407897949e-01" purity="4.9882644414901733e-01" nType="0">
        <Node pos="l" depth="1" NCoef="0" IVar="2" Cut="1.5957715511322021e+00" cType="1" res="-5.3587579168379307e-03" rms="4.6834594011306763e-01" purity="4.8648145794868469e-01" nType="0">
          <Node pos="l" depth="2" NCoef="0" IVar="3" Cut="1.7886739969253540e+00" cType="1" res="1.2484783073887229e-03" rms="4.6872767806053162e-01" purity="5.0246286392211914e-01" nType="0">
            <Node pos="l" depth="3" NCoef="0" IVar="-1" Cut="0.0000000000000000e+00" cType="1" res="1.0958038270473480e-02" rms="4.0785336494445801e-01" purity="7.5629705190658569e-01" nType="-99"/>
            <Node pos="r" depth="3" NCoef="0" IVar="4" Cut="-7.1352994441986084e-01" cType="1" res="-1.8713787430897355e-03" rms="4.7278848290443420e-01" purity="4.8360610008239746e-01" nType="0">
              <Node pos="l" depth="4" NCoef="0" IVar="1" Cut="-2.0605978965759277e+00" cType="1" res="3.0475375242531300e-03" rms="4.7191944718360901e-01" purity="4.7371840476989746e-01" nType="0">
                <Node pos="l" depth="5" NCoef="0" IVar="-1" Cut="0.0000000000000000e+00" cType="1" res="-3.4814137034118176e-03" rms="4.7257786989212036e-01" purity="4.0848812460899353e-01" nType="-99"/>
                <Node pos="r" depth="5" NCoef="0" IVar="-1" Cut="0.0000000000000000e+00" cType="1" res="2.8775569517165422e-03" rms="4.7125127911567688e-01" purity="5.0892263650894165e-01" nType="-99"/>
              </Node>
              <Node pos="r" depth="4" NCoef="0" IVar="4" Cut="2.9136395454406738e-01" cType="1" res="-2.5197753682732582e-02" rms="4.7619673609733582e-01" purity="5.3049534559249878e-01" nType="0">
                <Node pos="l" depth="5" NCoef="0" IVar="-1" Cut="0.0000000000000000e+00" cType="1" res="-1.2075535953044891e-02" rms="4.8249611258506775e-01" purity="4.9566456675529480e-01" nType="-99"/>
                <Node pos="r" depth="5" NCoef="0" IVar="-1" Cut="0.0000000000000000e+00" cType="1" res="-4.3512930278666317e-04" rms="4.7018572688102722e-01" purity="5.5597960948944092e-01" nType="-99"/>
              </Node>
            </Node>
          </Node>
          <Node pos="r" depth="2" NCoef="0" IVar="4" Cut="-2.0324168205261230e+00" cType="1" res="-3.0820373445749283e-02" rms="4.6599668264389038e-01" purity="4.2489555478096008e-01" nType="0">
            <Node pos="l" depth="3" NCoef="0" IVar="-1" Cut="0.0000000000000000e+00" cType="1" res="-4.8086126334965229e-03" rms="4.6545529365539551e-01" purity="4.1160520911216736e-01" nType="-99"/>
            <Node pos="r" depth="3" NCoef="0" IVar="-1" Cut="0.0000000000000000e+00" cType="1" res="-1.1723631992936134e-02" rms="4.6659475564956665e-01" purity="4.6104958653450012e-01" nType="-99"/>
          </Node>
        </Node>
        <Node pos="r" depth="1" NCoef="0" IVar="-1" Cut="0.0000000000000000e+00" cType="1" res="1.1960391886532307e-02" rms="4.3320623040199280e-01" purity="6.6874659061431885e-01" nType="-99"/>
      </Node>
    </BinaryTree>
    <BinaryTree type="DecisionTree" boostWeight="1.0000000000000000e+00" itree="27">
      <Node pos="s" depth="0" NCoef="0" IVar="8" Cut="3.4243530273437500e+02" cType="1" res="-4.3195416219532490e-04" rms="4.6595060825347900e-01" purity="4.9908077716827393e-01" nType="0">
        <Node pos="l" depth="1" NCoef="0" IVar="8" Cut="1.3044303894042969e+02" cType="1" res="-3.5678304266184568e-03" rms="4.6904671192169189e-01" purity="4.8824611306190491e-01" nType="0">
          <Node pos="l" depth="2" NCoef="0" IVar="7" Cut="3.3333334326744080e-01" cType="1" res="-5.0827796803787351e-04" rms="4.7026389837265015e-01" purity="4.8683157563209534e-01" nType="0">
            <Node pos="l" depth="3" NCoef="0" IVar="2" Cut="4.7227236628532410e-01" cType="1" res="-1.0133818723261356e-02" rms="4.7265684604644775e-01" purity="4.3021926283836365e-01" nType="0">
              <Node pos="l" depth="4" NCoef="0" IVar="-1" Cut="0.0000000000000000e+00" cType="1" res="2.8110537095926702e-04" rms="4.7578787803649902e-01" purity="4.5621255040168762e-01" nType="-99"/>
