<?xml version="1.0"?>
<MethodSetup Method="BDT::BDT">
  <GeneralInfo>
    <Info name="TMVA Release" value="4.2.1 [262657]"/>
    <Info name="ROOT Release" value="6.16/00 [397312]"/>
    <Info name="Creator" value="mo"/>
    <Info name="Date" value="Fri Apr  5 19:30:33 2019"/>
    <Info name="Host" value="Linux moXPS 4.19.16-1-MANJARO #1 SMP PREEMPT Fri Jan 18 17:03:05 UTC 2019 x86_64 GNU/Linux"/>
    <Info name="Dir" value="/home/mo/Analysis/AnalysisTools/train_DNN"/>
    <Info name="Training events" value="951281"/>
    <Info name="TrainingTime" value="1.61062772e+02"/>
    <Info name="AnalysisType" value="Classification"/>
  </GeneralInfo>
  <Options>
    <Option name="V" modified="Yes">False</Option>
    <Option name="VerbosityLevel" modified="No">Default</Option>
    <Option name="VarTransform" modified="No">None</Option>
    <Option name="H" modified="Yes">False</Option>
    <Option name="CreateMVAPdfs" modified="No">False</Option>
    <Option name="IgnoreNegWeightsInTraining" modified="No">False</Option>
    <Option name="NTrees" modified="Yes">500</Option>
    <Option name="MaxDepth" modified="Yes">5</Option>
    <Option name="MinNodeSize" modified="No">5%</Option>
    <Option name="nCuts" modified="Yes">20</Option>
    <Option name="BoostType" modified="Yes">Grad</Option>
    <Option name="AdaBoostR2Loss" modified="No">quadratic</Option>
    <Option name="UseBaggedBoost" modified="Yes">True</Option>
    <Option name="Shrinkage" modified="Yes">1.000000e-01</Option>
    <Option name="AdaBoostBeta" modified="No">5.000000e-01</Option>
    <Option name="UseRandomisedTrees" modified="No">False</Option>
    <Option name="UseNvars" modified="No">4</Option>
    <Option name="UsePoissonNvars" modified="No">True</Option>
    <Option name="BaggedSampleFraction" modified="Yes">5.000000e-01</Option>
    <Option name="UseYesNoLeaf" modified="No">True</Option>
    <Option name="NegWeightTreatment" modified="Yes">pray</Option>
    <Option name="Css" modified="No">1.000000e+00</Option>
    <Option name="Cts_sb" modified="No">1.000000e+00</Option>
    <Option name="Ctb_ss" modified="No">1.000000e+00</Option>
    <Option name="Cbb" modified="No">1.000000e+00</Option>
    <Option name="NodePurityLimit" modified="No">5.000000e-01</Option>
    <Option name="SeparationType" modified="No">giniindex</Option>
    <Option name="RegressionLossFunctionBDTG" modified="No">huber</Option>
    <Option name="HuberQuantile" modified="No">7.000000e-01</Option>
    <Option name="DoBoostMonitor" modified="No">False</Option>
    <Option name="UseFisherCuts" modified="No">False</Option>
    <Option name="MinLinCorrForFisher" modified="No">8.000000e-01</Option>
    <Option name="UseExclusiveVars" modified="No">False</Option>
    <Option name="DoPreselection" modified="No">False</Option>
    <Option name="SigToBkgFraction" modified="No">1.000000e+00</Option>
    <Option name="PruneMethod" modified="No">nopruning</Option>
    <Option name="PruneStrength" modified="No">0.000000e+00</Option>
    <Option name="PruningValFraction" modified="No">5.000000e-01</Option>
    <Option name="SkipNormalization" modified="No">False</Option>
    <Option name="nEventsMin" modified="No">0</Option>
    <Option name="UseBaggedGrad" modified="No">False</Option>
    <Option name="GradBaggingFraction" modified="No">5.000000e-01</Option>
    <Option name="UseNTrainEvents" modified="No">0</Option>
    <Option name="NNodesMax" modified="No">0</Option>
  </Options>
  <Variables NVar="14">
    <Variable VarIndex="0" Expression="h_pt" Label="h_pt" Title="h_pt" Unit="" Internal="h_pt" Type="F" Min="2.65376773e-02" Max="1.94831677e+03"/>
    <Variable VarIndex="1" Expression="h_eta" Label="h_eta" Title="h_eta" Unit="" Internal="h_eta" Type="F" Min="-9.77999973e+00" Max="9.49607563e+00"/>
    <Variable VarIndex="2" Expression="h_deta" Label="h_deta" Title="h_deta" Unit="" Internal="h_deta" Type="F" Min="3.42726707e-06" Max="3.53930640e+00"/>
    <Variable VarIndex="3" Expression="h_dphi" Label="h_dphi" Title="h_dphi" Unit="" Internal="h_dphi" Type="F" Min="1.59740448e-05" Max="6.27688837e+00"/>
    <Variable VarIndex="4" Expression="jeteta_1" Label="jeteta_1" Title="jeteta_1" Unit="" Internal="jeteta_1" Type="F" Min="-5.00000000e+00" Max="4.69619560e+00"/>
    <Variable VarIndex="5" Expression="jeteta_2" Label="jeteta_2" Title="jeteta_2" Unit="" Internal="jeteta_2" Type="F" Min="-5.00000000e+00" Max="4.69987106e+00"/>
    <Variable VarIndex="6" Expression="ncentJets" Label="ncentJets" Title="ncentJets" Unit="" Internal="ncentJets" Type="F" Min="0.00000000e+00" Max="9.00000000e+00"/>
    <Variable VarIndex="7" Expression="njets" Label="njets" Title="njets" Unit="" Internal="njets" Type="F" Min="0.00000000e+00" Max="9.00000000e+00"/>
    <Variable VarIndex="8" Expression="mjj_1" Label="mjj_1" Title="mjj_1" Unit="" Internal="mjj_1" Type="F" Min="0.00000000e+00" Max="7.59475928e+03"/>
    <Variable VarIndex="9" Expression="mjj_2" Label="mjj_2" Title="mjj_2" Unit="" Internal="mjj_2" Type="F" Min="0.00000000e+00" Max="2.55204077e+03"/>
    <Variable VarIndex="10" Expression="detajj_1" Label="detajj_1" Title="detajj_1" Unit="" Internal="detajj_1" Type="F" Min="-1.00000000e+00" Max="9.27267361e+00"/>
    <Variable VarIndex="11" Expression="detajj_2" Label="detajj_2" Title="detajj_2" Unit="" Internal="detajj_2" Type="F" Min="-1.00000000e+00" Max="8.23760033e+00"/>
    <Variable VarIndex="12" Expression="nbtagJets" Label="nbtagJets" Title="nbtagJets" Unit="" Internal="nbtagJets" Type="F" Min="0.00000000e+00" Max="4.00000000e+00"/>
    <Variable VarIndex="13" Expression="metpt" Label="metpt" Title="metpt" Unit="" Internal="metpt" Type="F" Min="1.61223933e-02" Max="4.85793115e+03"/>
  </Variables>
  <Spectators NSpec="0"/>
  <Classes NClass="2">
    <Class Name="Signal" Index="0"/>
    <Class Name="Background" Index="1"/>
  </Classes>
  <Transformations NTransformations="0"/>
  <MVAPdfs/>
  <Weights NTrees="500" AnalysisType="1">
    <BinaryTree type="DecisionTree" boostWeight="1.0000000000000000e+00" itree="0">
      <Node pos="s" depth="0" NCoef="0" IVar="0" Cut="8.2264427185058594e+01" cType="1" res="1.3188454322516918e-03" rms="4.9999827146530151e-01" purity="5.0131881237030029e-01" nType="0">
        <Node pos="l" depth="1" NCoef="0" IVar="0" Cut="1.1788949012756348e+01" cType="1" res="-3.7779819220304489e-02" rms="4.9857065081596375e-01" purity="4.6222019195556641e-01" nType="0">
          <Node pos="l" depth="2" NCoef="0" IVar="0" Cut="6.1956596374511719e+00" cType="1" res="-2.2904253005981445e-01" rms="4.4445419311523438e-01" purity="2.7095749974250793e-01" nType="0">
            <Node pos="l" depth="3" NCoef="0" IVar="-1" Cut="0.0000000000000000e+00" cType="1" res="-5.9735052287578583e-02" rms="4.0099012851715088e-01" purity="2.0132474601268768e-01" nType="-99"/>
            <Node pos="r" depth="3" NCoef="0" IVar="-1" Cut="0.0000000000000000e+00" cType="1" res="-3.1367804855108261e-02" rms="4.7476470470428467e-01" purity="3.4316095709800720e-01" nType="-99"/>
          </Node>
          <Node pos="r" depth="2" NCoef="0" IVar="0" Cut="2.5212833404541016e+01" cType="1" res="5.8616727590560913e-02" rms="4.9655219912528992e-01" purity="5.5861669778823853e-01" nType="0">
            <Node pos="l" depth="3" NCoef="0" IVar="0" Cut="1.6902830123901367e+01" cType="1" res="-1.3183698058128357e-02" rms="4.9982616305351257e-01" purity="4.8681631684303284e-01" nType="0">
              <Node pos="l" depth="4" NCoef="0" IVar="-1" Cut="0.0000000000000000e+00" cType="1" res="-1.0571411810815334e-02" rms="4.9719828367233276e-01" purity="4.4714295864105225e-01" nType="-99"/>
              <Node pos="r" depth="4" NCoef="0" IVar="-1" Cut="0.0000000000000000e+00" cType="1" res="3.9418297819793224e-03" rms="4.9961140751838684e-01" purity="5.1970916986465454e-01" nType="-99"/>
            </Node>
            <Node pos="r" depth="3" NCoef="0" IVar="6" Cut="4.2857143282890320e-01" cType="1" res="1.0538206994533539e-01" rms="4.8876845836639404e-01" purity="6.0538208484649658e-01" nType="0">
              <Node pos="l" depth="4" NCoef="0" IVar="0" Cut="4.1511959075927734e+01" cType="1" res="1.5064243972301483e-01" rms="4.7676709294319153e-01" purity="6.5064245462417603e-01" nType="0">
                <Node pos="l" depth="5" NCoef="0" IVar="-1" Cut="0.0000000000000000e+00" cType="1" res="2.1550854668021202e-02" rms="4.8825097084045410e-01" purity="6.0775429010391235e-01" nType="-99"/>
                <Node pos="r" depth="5" NCoef="0" IVar="-1" Cut="0.0000000000000000e+00" cType="1" res="4.4517889618873596e-02" rms="4.4772082567214966e-01" purity="7.2258949279785156e-01" nType="-99"/>
              </Node>
              <Node pos="r" depth="4" NCoef="0" IVar="0" Cut="5.2380176544189453e+01" cType="1" res="5.5491961538791656e-02" rms="4.9691110849380493e-01" purity="5.5549192428588867e-01" nType="0">
                <Node pos="l" depth="5" NCoef="0" IVar="-1" Cut="0.0000000000000000e+00" cType="1" res="1.6588448779657483e-03" rms="4.9993118643760681e-01" purity="5.0829422473907471e-01" nType="-99"/>
                <Node pos="r" depth="5" NCoef="0" IVar="-1" Cut="0.0000000000000000e+00" cType="1" res="2.1064532920718193e-02" rms="4.8878127336502075e-01" purity="6.0532265901565552e-01" nType="-99"/>
              </Node>
            </Node>
          </Node>
        </Node>
        <Node pos="r" depth="1" NCoef="0" IVar="6" Cut="1.2857142686843872e+00" cType="1" res="2.6386269927024841e-01" rms="4.2470750212669373e-01" purity="7.6386272907257080e-01" nType="0">
          <Node pos="l" depth="2" NCoef="0" IVar="-1" Cut="0.0000000000000000e+00" cType="1" res="5.7732563465833664e-02" rms="4.0825700759887695e-01" purity="7.8866279125213623e-01" nType="-99"/>
          <Node pos="r" depth="2" NCoef="0" IVar="-1" Cut="0.0000000000000000e+00" cType="1" res="4.5099928975105286e-02" rms="4.4626215100288391e-01" purity="7.2549962997436523e-01" nType="-99"/>
        </Node>
      </Node>
    </BinaryTree>
    <BinaryTree type="DecisionTree" boostWeight="1.0000000000000000e+00" itree="1">
      <Node pos="s" depth="0" NCoef="0" IVar="7" Cut="4.2857143282890320e-01" cType="1" res="8.5115619003772736e-04" rms="4.9399113655090332e-01" purity="5.0100910663604736e-01" nType="0">
        <Node pos="l" depth="1" NCoef="0" IVar="3" Cut="2.9842913150787354e+00" cType="1" res="-7.0255912840366364e-02" rms="4.8908349871635437e-01" purity="4.2274290323257446e-01" nType="0">
          <Node pos="l" depth="2" NCoef="0" IVar="3" Cut="2.7001552581787109e+00" cType="1" res="1.7774194478988647e-02" rms="4.9692475795745850e-01" purity="5.2245652675628662e-01" nType="0">
            <Node pos="l" depth="3" NCoef="0" IVar="-1" Cut="0.0000000000000000e+00" cType="1" res="1.4844862744212151e-02" rms="4.9082320928573608e-01" purity="5.8844846487045288e-01" nType="-99"/>
            <Node pos="r" depth="3" NCoef="0" IVar="-1" Cut="0.0000000000000000e+00" cType="1" res="-2.4468945339322090e-03" rms="4.9754428863525391e-01" purity="4.8733246326446533e-01" nType="-99"/>
          </Node>
          <Node pos="r" depth="2" NCoef="0" IVar="0" Cut="1.9460060119628906e+01" cType="1" res="-1.0352619737386703e-01" rms="4.8191794753074646e-01" purity="3.8505697250366211e-01" nType="0">
            <Node pos="l" depth="3" NCoef="0" IVar="0" Cut="7.4295787811279297e+00" cType="1" res="-1.6378773748874664e-01" rms="4.6331408619880676e-01" purity="3.1785976886749268e-01" nType="0">
              <Node pos="l" depth="4" NCoef="0" IVar="-1" Cut="0.0000000000000000e+00" cType="1" res="-5.1285166293382645e-02" rms="4.1190272569656372e-01" purity="2.1717198193073273e-01" nType="-99"/>
              <Node pos="r" depth="4" NCoef="0" IVar="-1" Cut="0.0000000000000000e+00" cType="1" res="-1.4415492303669453e-02" rms="4.9270918965339661e-01" purity="4.1843831539154053e-01" nType="-99"/>
            </Node>
            <Node pos="r" depth="3" NCoef="0" IVar="-1" Cut="0.0000000000000000e+00" cType="1" res="1.6394112259149551e-02" rms="4.9070799350738525e-01" purity="5.9184819459915161e-01" nType="-99"/>
          </Node>
        </Node>
        <Node pos="r" depth="1" NCoef="0" IVar="0" Cut="9.2907981872558594e+01" cType="1" res="1.1328148841857910e-01" rms="4.8064583539962769e-01" purity="6.2475901842117310e-01" nType="0">
          <Node pos="l" depth="2" NCoef="0" IVar="0" Cut="3.5478500366210938e+01" cType="1" res="6.2933705747127533e-02" rms="4.9269530177116394e-01" purity="5.6913292407989502e-01" nType="0">
            <Node pos="l" depth="3" NCoef="0" IVar="-1" Cut="0.0000000000000000e+00" cType="1" res="-5.8711562305688858e-03" rms="4.9678507447242737e-01" purity="4.6677133440971375e-01" nType="-99"/>
            <Node pos="r" depth="3" NCoef="0" IVar="4" Cut="-1.1236817836761475e+00" cType="1" res="1.0941486805677414e-01" rms="4.8400485515594482e-01" purity="6.2069600820541382e-01" nType="0">
              <Node pos="l" depth="4" NCoef="0" IVar="-1" Cut="0.0000000000000000e+00" cType="1" res="3.2880984246730804e-02" rms="4.6635404229164124e-01" purity="6.7706286907196045e-01" nType="-99"/>
              <Node pos="r" depth="4" NCoef="0" IVar="4" Cut="1.0896281003952026e+00" cType="1" res="8.7094344198703766e-02" rms="4.8925197124481201e-01" purity="5.9774941205978394e-01" nType="0">
                <Node pos="l" depth="5" NCoef="0" IVar="-1" Cut="0.0000000000000000e+00" cType="1" res="7.2818952612578869e-03" rms="4.9731189012527466e-01" purity="5.4562205076217651e-01" nType="-99"/>
                <Node pos="r" depth="5" NCoef="0" IVar="-1" Cut="0.0000000000000000e+00" cType="1" res="3.1641498208045959e-02" rms="4.6862247586250305e-01" purity="6.7069512605667114e-01" nType="-99"/>
              </Node>
            </Node>
          </Node>
          <Node pos="r" depth="2" NCoef="0" IVar="5" Cut="-2.2293994426727295e+00" cType="1" res="2.5321078300476074e-01" rms="4.1448688507080078e-01" purity="7.7935808897018433e-01" nType="0">
            <Node pos="l" depth="3" NCoef="0" IVar="-1" Cut="0.0000000000000000e+00" cType="1" res="5.1438961178064346e-02" rms="4.1104537248611450e-01" purity="7.8471940755844116e-01" nType="-99"/>
            <Node pos="r" depth="3" NCoef="0" IVar="-1" Cut="0.0000000000000000e+00" cType="1" res="5.0125584006309509e-02" rms="4.1788688302040100e-01" purity="7.7397984266281128e-01" nType="-99"/>
          </Node>
        </Node>
      </Node>
    </BinaryTree>
    <BinaryTree type="DecisionTree" boostWeight="1.0000000000000000e+00" itree="2">
      <Node pos="s" depth="0" NCoef="0" IVar="7" Cut="4.2857143282890320e-01" cType="1" res="-1.6518853371962905e-03" rms="4.8975241184234619e-01" purity="4.9853885173797607e-01" nType="0">
        <Node pos="l" depth="1" NCoef="0" IVar="3" Cut="2.9843082427978516e+00" cType="1" res="-6.4635872840881348e-02" rms="4.8562154173851013e-01" purity="4.2120301723480225e-01" nType="0">
          <Node pos="l" depth="2" NCoef="0" IVar="3" Cut="2.7001626491546631e+00" cType="1" res="1.6319623216986656e-02" rms="4.9649012088775635e-01" purity="5.2293145656585693e-01" nType="0">
            <Node pos="l" depth="3" NCoef="0" IVar="-1" Cut="0.0000000000000000e+00" cType="1" res="1.3895757496356964e-02" rms="4.9010547995567322e-01" purity="5.9103322029113770e-01" nType="-99"/>
            <Node pos="r" depth="3" NCoef="0" IVar="-1" Cut="0.0000000000000000e+00" cType="1" res="-2.5684868451207876e-03" rms="4.9756526947021484e-01" purity="4.8547488451004028e-01" nType="-99"/>
          </Node>
          <Node pos="r" depth="2" NCoef="0" IVar="0" Cut="2.3373661041259766e+01" cType="1" res="-9.4510734081268311e-02" rms="4.7809851169586182e-01" purity="3.8366240262985229e-01" nType="0">
            <Node pos="l" depth="3" NCoef="0" IVar="0" Cut="8.9308433532714844e+00" cType="1" res="-1.3720358908176422e-01" rms="4.6584483981132507e-01" purity="3.3144602179527283e-01" nType="0">
              <Node pos="l" depth="4" NCoef="0" IVar="-1" Cut="0.0000000000000000e+00" cType="1" res="-4.3651681393384933e-02" rms="4.2334839701652527e-01" purity="2.3610444366931915e-01" nType="-99"/>
              <Node pos="r" depth="4" NCoef="0" IVar="-1" Cut="0.0000000000000000e+00" cType="1" res="-7.6898951083421707e-03" rms="4.9673539400100708e-01" purity="4.5076975226402283e-01" nType="-99"/>
            </Node>
            <Node pos="r" depth="3" NCoef="0" IVar="-1" Cut="0.0000000000000000e+00" cType="1" res="1.9300282001495361e-02" rms="4.8550644516944885e-01" purity="6.1706185340881348e-01" nType="-99"/>
          </Node>
        </Node>
        <Node pos="r" depth="1" NCoef="0" IVar="0" Cut="9.2894920349121094e+01" cType="1" res="9.7287967801094055e-02" rms="4.7975614666938782e-01" purity="6.2002354860305786e-01" nType="0">
          <Node pos="l" depth="2" NCoef="0" IVar="6" Cut="1.2857142686843872e+00" cType="1" res="5.2799914032220840e-02" rms="4.9220702052116394e-01" purity="5.6531584262847900e-01" nType="0">
            <Node pos="l" depth="3" NCoef="0" IVar="0" Cut="2.6629394531250000e+01" cType="1" res="7.8240178525447845e-02" rms="4.8776730895042419e-01" purity="5.9067332744598389e-01" nType="0">
              <Node pos="l" depth="4" NCoef="0" IVar="-1" Cut="0.0000000000000000e+00" cType="1" res="-7.8954985365271568e-03" rms="4.9512872099876404e-01" purity="4.4945138692855835e-01" nType="-99"/>
              <Node pos="r" depth="4" NCoef="0" IVar="0" Cut="5.8184524536132812e+01" cType="1" res="1.1268460005521774e-01" rms="4.8016598820686340e-01" purity="6.3200968503952026e-01" nType="0">
                <Node pos="l" depth="5" NCoef="0" IVar="-1" Cut="0.0000000000000000e+00" cType="1" res="1.5383228659629822e-02" rms="4.9030995368957520e-01" purity="5.9017997980117798e-01" nType="-99"/>
                <Node pos="r" depth="5" NCoef="0" IVar="-1" Cut="0.0000000000000000e+00" cType="1" res="3.2553162425756454e-02" rms="4.6124267578125000e-01" purity="6.8974167108535767e-01" nType="-99"/>
              </Node>
            </Node>
            <Node pos="r" depth="3" NCoef="0" IVar="-1" Cut="0.0000000000000000e+00" cType="1" res="-1.2876071035861969e-02" rms="4.9558475613594055e-01" purity="4.4861438870429993e-01" nType="-99"/>
          </Node>
          <Node pos="r" depth="2" NCoef="0" IVar="2" Cut="7.5673550367355347e-01" cType="1" res="2.2191332280635834e-01" rms="4.1855600476264954e-01" purity="7.7327758073806763e-01" nType="0">
            <Node pos="l" depth="3" NCoef="0" IVar="-1" Cut="0.0000000000000000e+00" cType="1" res="4.7827165573835373e-02" rms="4.0870776772499084e-01" purity="7.8791892528533936e-01" nType="-99"/>
            <Node pos="r" depth="3" NCoef="0" IVar="-1" Cut="0.0000000000000000e+00" cType="1" res="4.1876226663589478e-02" rms="4.2771056294441223e-01" purity="7.5857412815093994e-01" nType="-99"/>
          </Node>
        </Node>
      </Node>
    </BinaryTree>
    <BinaryTree type="DecisionTree" boostWeight="1.0000000000000000e+00" itree="3">
      <Node pos="s" depth="0" NCoef="0" IVar="7" Cut="4.2857143282890320e-01" cType="1" res="1.0708905756473541e-03" rms="4.8585110902786255e-01" purity="5.0100141763687134e-01" nType="0">
        <Node pos="l" depth="1" NCoef="0" IVar="1" Cut="3.2769210338592529e+00" cType="1" res="-5.6730691343545914e-02" rms="4.8318740725517273e-01" purity="4.2271336913108826e-01" nType="0">
          <Node pos="l" depth="2" NCoef="0" IVar="1" Cut="-3.2384386062622070e+00" cType="1" res="-3.4717608243227005e-02" rms="4.8778766393661499e-01" purity="4.5130681991577148e-01" nType="0">
            <Node pos="l" depth="3" NCoef="0" IVar="-1" Cut="0.0000000000000000e+00" cType="1" res="-3.1338512897491455e-02" rms="4.5016634464263916e-01" purity="2.9630780220031738e-01" nType="-99"/>
            <Node pos="r" depth="3" NCoef="0" IVar="3" Cut="2.6859493255615234e+00" cType="1" res="7.6843082206323743e-04" rms="4.9281936883926392e-01" purity="4.9719482660293579e-01" nType="0">
              <Node pos="l" depth="4" NCoef="0" IVar="-1" Cut="0.0000000000000000e+00" cType="1" res="1.3735794462263584e-02" rms="4.8907062411308289e-01" purity="5.9750127792358398e-01" nType="-99"/>
              <Node pos="r" depth="4" NCoef="0" IVar="0" Cut="1.9663019180297852e+01" cType="1" res="-1.0091468691825867e-02" rms="4.9255353212356567e-01" purity="4.8109561204910278e-01" nType="0">
                <Node pos="l" depth="5" NCoef="0" IVar="-1" Cut="0.0000000000000000e+00" cType="1" res="-1.6188364475965500e-02" rms="4.8373290896415710e-01" purity="3.8898777961730957e-01" nType="-99"/>
                <Node pos="r" depth="5" NCoef="0" IVar="-1" Cut="0.0000000000000000e+00" cType="1" res="1.6401493921875954e-02" rms="4.8882445693016052e-01" purity="6.0145872831344604e-01" nType="-99"/>
              </Node>
            </Node>
          </Node>
          <Node pos="r" depth="2" NCoef="0" IVar="-1" Cut="0.0000000000000000e+00" cType="1" res="-3.1759023666381836e-02" rms="4.4837239384651184e-01" purity="2.9300501942634583e-01" nType="-99"/>
        </Node>
        <Node pos="r" depth="1" NCoef="0" IVar="0" Cut="8.7126251220703125e+01" cType="1" res="9.4083301723003387e-02" rms="4.7558107972145081e-01" purity="6.2698000669479370e-01" nType="0">
          <Node pos="l" depth="2" NCoef="0" IVar="0" Cut="2.4991437911987305e+01" cType="1" res="4.8214294016361237e-02" rms="4.9086734652519226e-01" purity="5.6461751461029053e-01" nType="0">
            <Node pos="l" depth="3" NCoef="0" IVar="-1" Cut="0.0000000000000000e+00" cType="1" res="-1.1512137018144131e-02" rms="4.9267148971557617e-01" purity="4.2631363868713379e-01" nType="-99"/>
            <Node pos="r" depth="3" NCoef="0" IVar="13" Cut="4.3461242675781250e+01" cType="1" res="7.5519435107707977e-02" rms="4.8668369650840759e-01" purity="6.0035055875778198e-01" nType="0">
              <Node pos="l" depth="4" NCoef="0" IVar="0" Cut="4.5703475952148438e+01" cType="1" res="9.8973609507083893e-02" rms="4.8150879144668579e-01" purity="6.2430518865585327e-01" nType="0">
                <Node pos="l" depth="5" NCoef="0" IVar="-1" Cut="0.0000000000000000e+00" cType="1" res="1.0625051334500313e-02" rms="4.9405297636985779e-01" purity="5.6662875413894653e-01" nType="-99"/>
                <Node pos="r" depth="5" NCoef="0" IVar="-1" Cut="0.0000000000000000e+00" cType="1" res="2.5497974827885628e-02" rms="4.7155997157096863e-01" purity="6.5930294990539551e-01" nType="-99"/>
              </Node>
              <Node pos="r" depth="4" NCoef="0" IVar="-1" Cut="0.0000000000000000e+00" cType="1" res="4.4513191096484661e-03" rms="4.9412485957145691e-01" purity="5.4587215185165405e-01" nType="-99"/>
            </Node>
          </Node>
          <Node pos="r" depth="2" NCoef="0" IVar="10" Cut="4.5843696594238281e-01" cType="1" res="1.9956414401531219e-01" rms="4.1980931162834167e-01" purity="7.7038943767547607e-01" nType="0">
            <Node pos="l" depth="3" NCoef="0" IVar="-1" Cut="0.0000000000000000e+00" cType="1" res="3.6393847316503525e-02" rms="4.3228045105934143e-01" purity="7.5076675415039062e-01" nType="-99"/>
            <Node pos="r" depth="3" NCoef="0" IVar="-1" Cut="0.0000000000000000e+00" cType="1" res="4.5037973672151566e-02" rms="4.0599408745765686e-01" purity="7.8978043794631958e-01" nType="-99"/>
          </Node>
        </Node>
      </Node>
    </BinaryTree>
    <BinaryTree type="DecisionTree" boostWeight="1.0000000000000000e+00" itree="4">
      <Node pos="s" depth="0" NCoef="0" IVar="0" Cut="7.4512947082519531e+01" cType="1" res="-4.6636461047455668e-04" rms="4.8349514603614807e-01" purity="4.9975785613059998e-01" nType="0">
        <Node pos="l" depth="1" NCoef="0" IVar="0" Cut="1.0667397499084473e+01" cType="1" res="-2.8994934633374214e-02" rms="4.8595243692398071e-01" purity="4.5707258582115173e-01" nType="0">
          <Node pos="l" depth="2" NCoef="0" IVar="0" Cut="5.6002736091613770e+00" cType="1" res="-1.6722062230110168e-01" rms="4.3673741817474365e-01" purity="2.6138895750045776e-01" nType="0">
            <Node pos="l" depth="3" NCoef="0" IVar="-1" Cut="0.0000000000000000e+00" cType="1" res="-4.4423129409551620e-02" rms="3.9777177572250366e-01" purity="1.9737534224987030e-01" nType="-99"/>
            <Node pos="r" depth="3" NCoef="0" IVar="-1" Cut="0.0000000000000000e+00" cType="1" res="-2.4632753804326057e-02" rms="4.6636685729026794e-01" purity="3.2252478599548340e-01" nType="-99"/>
          </Node>
          <Node pos="r" depth="2" NCoef="0" IVar="0" Cut="2.2828685760498047e+01" cType="1" res="3.3889256417751312e-02" rms="4.9412748217582703e-01" purity="5.4609662294387817e-01" nType="0">
            <Node pos="l" depth="3" NCoef="0" IVar="0" Cut="1.7037761688232422e+01" cType="1" res="-1.7442643642425537e-02" rms="4.9824976921081543e-01" purity="4.6596616506576538e-01" nType="0">
              <Node pos="l" depth="4" NCoef="0" IVar="-1" Cut="0.0000000000000000e+00" cType="1" res="-7.5877164490520954e-03" rms="4.9596318602561951e-01" purity="4.3666690587997437e-01" nType="-99"/>
              <Node pos="r" depth="4" NCoef="0" IVar="-1" Cut="0.0000000000000000e+00" cType="1" res="2.4262813385576010e-03" rms="5.0007253885269165e-01" purity="5.0845223665237427e-01" nType="-99"/>
            </Node>
            <Node pos="r" depth="3" NCoef="0" IVar="6" Cut="4.2857143282890320e-01" cType="1" res="6.5552413463592529e-02" rms="4.8888719081878662e-01" purity="5.9552359580993652e-01" nType="0">
              <Node pos="l" depth="4" NCoef="0" IVar="0" Cut="3.7595703125000000e+01" cType="1" res="9.5845974981784821e-02" rms="4.8192211985588074e-01" purity="6.2956970930099487e-01" nType="0">
                <Node pos="l" depth="5" NCoef="0" IVar="-1" Cut="0.0000000000000000e+00" cType="1" res="1.1884767562150955e-02" rms="4.9320507049560547e-01" purity="5.8499497175216675e-01" nType="-99"/>
                <Node pos="r" depth="5" NCoef="0" IVar="-1" Cut="0.0000000000000000e+00" cType="1" res="3.0074603855609894e-02" rms="4.5986413955688477e-01" purity="6.9436120986938477e-01" nType="-99"/>
              </Node>
              <Node pos="r" depth="4" NCoef="0" IVar="0" Cut="4.4979370117187500e+01" cType="1" res="2.4211853742599487e-02" rms="4.9525433778762817e-01" purity="5.4906207323074341e-01" nType="0">
                <Node pos="l" depth="5" NCoef="0" IVar="-1" Cut="0.0000000000000000e+00" cType="1" res="-2.0150549244135618e-03" rms="4.9899449944496155e-01" purity="5.0139194726943970e-01" nType="-99"/>
                <Node pos="r" depth="5" NCoef="0" IVar="-1" Cut="0.0000000000000000e+00" cType="1" res="9.9316369742155075e-03" rms="4.9096807837486267e-01" purity="5.8406919240951538e-01" nType="-99"/>
              </Node>
            </Node>
          </Node>
        </Node>
        <Node pos="r" depth="1" NCoef="0" IVar="6" Cut="1.2857142686843872e+00" cType="1" res="1.6105505824089050e-01" rms="4.3541118502616882e-01" purity="7.4143087863922119e-01" nType="0">
          <Node pos="l" depth="2" NCoef="0" IVar="-1" Cut="0.0000000000000000e+00" cType="1" res="3.7402890622615814e-02" rms="4.2355608940124512e-01" purity="7.6290833950042725e-01" nType="-99"/>
          <Node pos="r" depth="2" NCoef="0" IVar="-1" Cut="0.0000000000000000e+00" cType="1" res="2.5537801906466484e-02" rms="4.5337823033332825e-01" purity="7.0327258110046387e-01" nType="-99"/>
        </Node>
      </Node>
    </BinaryTree>
    <BinaryTree type="DecisionTree" boostWeight="1.0000000000000000e+00" itree="5">
      <Node pos="s" depth="0" NCoef="0" IVar="0" Cut="7.4528709411621094e+01" cType="1" res="-1.5761179383844137e-04" rms="4.8009610176086426e-01" purity="4.9978443980216980e-01" nType="0">
        <Node pos="l" depth="1" NCoef="0" IVar="0" Cut="1.0683876991271973e+01" cType="1" res="-2.7203960344195366e-02" rms="4.8327806591987610e-01" purity="4.5561674237251282e-01" nType="0">
          <Node pos="l" depth="2" NCoef="0" IVar="0" Cut="5.6168136596679688e+00" cType="1" res="-1.5240345895290375e-01" rms="4.3537086248397827e-01" purity="2.5972798466682434e-01" nType="0">
            <Node pos="l" depth="3" NCoef="0" IVar="-1" Cut="0.0000000000000000e+00" cType="1" res="-4.1768196970224380e-02" rms="3.9393609762191772e-01" purity="1.9246524572372437e-01" nType="-99"/>
            <Node pos="r" depth="3" NCoef="0" IVar="-1" Cut="0.0000000000000000e+00" cType="1" res="-2.2006841376423836e-02" rms="4.6740558743476868e-01" purity="3.2428184151649475e-01" nType="-99"/>
          </Node>
          <Node pos="r" depth="2" NCoef="0" IVar="0" Cut="2.5885074615478516e+01" cType="1" res="3.0708489939570427e-02" rms="4.9326515197753906e-01" purity="5.4622727632522583e-01" nType="0">
            <Node pos="l" depth="3" NCoef="0" IVar="0" Cut="1.5750868797302246e+01" cType="1" res="-1.3218122534453869e-02" rms="4.9827176332473755e-01" purity="4.7408545017242432e-01" nType="0">
              <Node pos="l" depth="4" NCoef="0" IVar="-1" Cut="0.0000000000000000e+00" cType="1" res="-8.4013408049941063e-03" rms="4.9486121535301208e-01" purity="4.2821380496025085e-01" nType="-99"/>
              <Node pos="r" depth="4" NCoef="0" IVar="3" Cut="3.0734663009643555e+00" cType="1" res="6.3992389477789402e-03" rms="4.9964919686317444e-01" purity="5.0551867485046387e-01" nType="0">
                <Node pos="l" depth="5" NCoef="0" IVar="-1" Cut="0.0000000000000000e+00" cType="1" res="-3.7470523966476321e-04" rms="4.9987745285034180e-01" purity="4.9768611788749695e-01" nType="-99"/>
                <Node pos="r" depth="5" NCoef="0" IVar="-1" Cut="0.0000000000000000e+00" cType="1" res="2.8316441457718611e-03" rms="4.9931180477142334e-01" purity="5.1284128427505493e-01" nType="-99"/>
              </Node>
            </Node>
            <Node pos="r" depth="3" NCoef="0" IVar="6" Cut="4.2857143282890320e-01" cType="1" res="6.6631481051445007e-02" rms="4.8619163036346436e-01" purity="6.0522460937500000e-01" nType="0">
              <Node pos="l" depth="4" NCoef="0" IVar="0" Cut="4.4416141510009766e+01" cType="1" res="9.9548801779747009e-02" rms="4.7699767351150513e-01" purity="6.4629375934600830e-01" nType="0">
                <Node pos="l" depth="5" NCoef="0" IVar="-1" Cut="0.0000000000000000e+00" cType="1" res="1.5213333070278168e-02" rms="4.8672184348106384e-01" purity="6.1496257781982422e-01" nType="-99"/>
                <Node pos="r" depth="5" NCoef="0" IVar="-1" Cut="0.0000000000000000e+00" cType="1" res="3.1721908599138260e-02" rms="4.4829154014587402e-01" purity="7.1993023157119751e-01" nType="-99"/>
              </Node>
              <Node pos="r" depth="4" NCoef="0" IVar="0" Cut="5.5997047424316406e+01" cType="1" res="2.7654930949211121e-02" rms="4.9403011798858643e-01" purity="5.5659562349319458e-01" nType="0">
                <Node pos="l" depth="5" NCoef="0" IVar="-1" Cut="0.0000000000000000e+00" cType="1" res="2.1849872427992523e-04" rms="4.9807167053222656e-01" purity="5.2136451005935669e-01" nType="-99"/>
                <Node pos="r" depth="5" NCoef="0" IVar="-1" Cut="0.0000000000000000e+00" cType="1" res="1.5398967079818249e-02" rms="4.8276063799858093e-01" purity="6.2114351987838745e-01" nType="-99"/>
              </Node>
            </Node>
          </Node>
        </Node>
        <Node pos="r" depth="1" NCoef="0" IVar="6" Cut="1.2857142686843872e+00" cType="1" res="1.5189209580421448e-01" rms="4.3130916357040405e-01" purity="7.4808752536773682e-01" nType="0">
          <Node pos="l" depth="2" NCoef="0" IVar="-1" Cut="0.0000000000000000e+00" cType="1" res="3.5960935056209564e-02" rms="4.1804930567741394e-01" purity="7.7157557010650635e-01" nType="-99"/>
          <Node pos="r" depth="2" NCoef="0" IVar="-1" Cut="0.0000000000000000e+00" cType="1" res="2.4355761706829071e-02" rms="4.5054572820663452e-01" purity="7.0875358581542969e-01" nType="-99"/>
        </Node>
      </Node>
    </BinaryTree>
    <BinaryTree type="DecisionTree" boostWeight="1.0000000000000000e+00" itree="6">
      <Node pos="s" depth="0" NCoef="0" IVar="7" Cut="4.2857143282890320e-01" cType="1" res="-1.2731474125757813e-03" rms="4.7801515460014343e-01" purity="4.9892735481262207e-01" nType="0">
        <Node pos="l" depth="1" NCoef="0" IVar="0" Cut="2.8975202560424805e+01" cType="1" res="-4.2732637375593185e-02" rms="4.7662094235420227e-01" purity="4.2260450124740601e-01" nType="0">
          <Node pos="l" depth="2" NCoef="0" IVar="0" Cut="8.2975530624389648e+00" cType="1" res="-7.2941787540912628e-02" rms="4.7120061516761780e-01" purity="3.7039819359779358e-01" nType="0">
            <Node pos="l" depth="3" NCoef="0" IVar="-1" Cut="0.0000000000000000e+00" cType="1" res="-3.3414050936698914e-02" rms="4.1562509536743164e-01" purity="2.2464774549007416e-01" nType="-99"/>
            <Node pos="r" depth="3" NCoef="0" IVar="0" Cut="1.4205518722534180e+01" cType="1" res="-1.9836397841572762e-02" rms="4.9564579129219055e-01" purity="4.6191442012786865e-01" nType="0">
              <Node pos="l" depth="4" NCoef="0" IVar="-1" Cut="0.0000000000000000e+00" cType="1" res="-1.1485897935926914e-02" rms="4.8838326334953308e-01" purity="3.9463230967521667e-01" nType="-99"/>
              <Node pos="r" depth="4" NCoef="0" IVar="-1" Cut="0.0000000000000000e+00" cType="1" res="1.0900936322286725e-03" rms="4.9897259473800659e-01" purity="5.0787961483001709e-01" nType="-99"/>
            </Node>
          </Node>
          <Node pos="r" depth="2" NCoef="0" IVar="2" Cut="8.2516688108444214e-01" cType="1" res="8.3940021693706512e-02" rms="4.7836959362030029e-01" purity="6.4151555299758911e-01" nType="0">
            <Node pos="l" depth="3" NCoef="0" IVar="-1" Cut="0.0000000000000000e+00" cType="1" res="1.9593780860304832e-02" rms="4.7458133101463318e-01" purity="6.5354281663894653e-01" nType="-99"/>
            <Node pos="r" depth="3" NCoef="0" IVar="-1" Cut="0.0000000000000000e+00" cType="1" res="1.4447148889303207e-02" rms="4.8182442784309387e-01" purity="6.2938517332077026e-01" nType="-99"/>
          </Node>
        </Node>
        <Node pos="r" depth="1" NCoef="0" IVar="0" Cut="8.7113189697265625e+01" cType="1" res="6.5221779048442841e-02" rms="4.7270998358726501e-01" purity="6.2133800983428955e-01" nType="0">
          <Node pos="l" depth="2" NCoef="0" IVar="0" Cut="2.9120244979858398e+01" cType="1" res="3.3958591520786285e-02" rms="4.8785164952278137e-01" purity="5.6240123510360718e-01" nType="0">
            <Node pos="l" depth="3" NCoef="0" IVar="-1" Cut="0.0000000000000000e+00" cType="1" res="-6.1699389480054379e-03" rms="4.9165353178977966e-01" purity="4.4434288144111633e-01" nType="-99"/>
            <Node pos="r" depth="3" NCoef="0" IVar="4" Cut="-1.1192481517791748e+00" cType="1" res="5.6243445724248886e-02" rms="4.8453933000564575e-01" purity="6.0311657190322876e-01" nType="0">
              <Node pos="l" depth="4" NCoef="0" IVar="-1" Cut="0.0000000000000000e+00" cType="1" res="2.1274661645293236e-02" rms="4.6957826614379883e-01" purity="6.5994077920913696e-01" nType="-99"/>
              <Node pos="r" depth="4" NCoef="0" IVar="4" Cut="1.3720015287399292e+00" cType="1" res="3.6394257098436356e-02" rms="4.8914846777915955e-01" purity="5.7985204458236694e-01" nType="0">
                <Node pos="l" depth="5" NCoef="0" IVar="-1" Cut="0.0000000000000000e+00" cType="1" res="-7.8476232010871172e-04" rms="4.9613553285598755e-01" purity="5.3244423866271973e-01" nType="-99"/>
                <Node pos="r" depth="5" NCoef="0" IVar="-1" Cut="0.0000000000000000e+00" cType="1" res="2.2249367088079453e-02" rms="4.6744209527969360e-01" purity="6.6581976413726807e-01" nType="-99"/>
              </Node>
            </Node>
          </Node>
          <Node pos="r" depth="2" NCoef="0" IVar="10" Cut="4.5843696594238281e-01" cType="1" res="1.3814541697502136e-01" rms="4.2653363943099976e-01" purity="7.5881212949752808e-01" nType="0">
            <Node pos="l" depth="3" NCoef="0" IVar="-1" Cut="0.0000000000000000e+00" cType="1" res="2.5153579190373421e-02" rms="4.3741616606712341e-01" purity="7.4153310060501099e-01" nType="-99"/>
            <Node pos="r" depth="3" NCoef="0" IVar="-1" Cut="0.0000000000000000e+00" cType="1" res="3.3439468592405319e-02" rms="4.1469058394432068e-01" purity="7.7568769454956055e-01" nType="-99"/>
          </Node>
        </Node>
      </Node>
    </BinaryTree>
    <BinaryTree type="DecisionTree" boostWeight="1.0000000000000000e+00" itree="7">
      <Node pos="s" depth="0" NCoef="0" IVar="0" Cut="8.2277336120605469e+01" cType="1" res="1.8553371774032712e-03" rms="4.7609534859657288e-01" purity="5.0169789791107178e-01" nType="0">
        <Node pos="l" depth="1" NCoef="0" IVar="0" Cut="1.1802265167236328e+01" cType="1" res="-1.7325613647699356e-02" rms="4.8037678003311157e-01" purity="4.6301895380020142e-01" nType="0">
          <Node pos="l" depth="2" NCoef="0" IVar="0" Cut="5.6495776176452637e+00" cType="1" res="-1.1480625718832016e-01" rms="4.4182851910591125e-01" purity="2.7507397532463074e-01" nType="0">
            <Node pos="l" depth="3" NCoef="0" IVar="-1" Cut="0.0000000000000000e+00" cType="1" res="-3.4800436347723007e-02" rms="3.9819583296775818e-01" purity="1.9767488539218903e-01" nType="-99"/>
            <Node pos="r" depth="3" NCoef="0" IVar="-1" Cut="0.0000000000000000e+00" cType="1" res="-1.5918109565973282e-02" rms="4.7206765413284302e-01" purity="3.3998873829841614e-01" nType="-99"/>
          </Node>
          <Node pos="r" depth="2" NCoef="0" IVar="0" Cut="2.8581893920898438e+01" cType="1" res="3.2065954059362411e-02" rms="4.9144664406776428e-01" purity="5.5824697017669678e-01" nType="0">
            <Node pos="l" depth="3" NCoef="0" IVar="2" Cut="9.8543846607208252e-01" cType="1" res="3.8772393018007278e-03" rms="4.9860119819641113e-01" purity="4.9689328670501709e-01" nType="0">
              <Node pos="l" depth="4" NCoef="0" IVar="-1" Cut="0.0000000000000000e+00" cType="1" res="4.3604546226561069e-03" rms="4.9853730201721191e-01" purity="5.1376259326934814e-01" nType="-99"/>
              <Node pos="r" depth="4" NCoef="0" IVar="-1" Cut="0.0000000000000000e+00" cType="1" res="-3.6984300240874290e-03" rms="4.9778163433074951e-01" purity="4.7581651806831360e-01" nType="-99"/>
            </Node>
            <Node pos="r" depth="3" NCoef="0" IVar="6" Cut="4.2857143282890320e-01" cType="1" res="5.6749727576971054e-02" rms="4.8374798893928528e-01" purity="6.1197215318679810e-01" nType="0">
              <Node pos="l" depth="4" NCoef="0" IVar="0" Cut="4.3923297882080078e+01" cType="1" res="9.7848854959011078e-02" rms="4.6950778365135193e-01" purity="6.6736459732055664e-01" nType="0">
                <Node pos="l" depth="5" NCoef="0" IVar="-1" Cut="0.0000000000000000e+00" cType="1" res="1.5214697457849979e-02" rms="4.8228520154953003e-01" purity="6.3167876005172729e-01" nType="-99"/>
                <Node pos="r" depth="5" NCoef="0" IVar="-1" Cut="0.0000000000000000e+00" cType="1" res="2.7515210211277008e-02" rms="4.4674536585807800e-01" purity="7.2255778312683105e-01" nType="-99"/>
              </Node>
              <Node pos="r" depth="4" NCoef="0" IVar="0" Cut="5.9264171600341797e+01" cType="1" res="1.7647232860326767e-02" rms="4.9375206232070923e-01" purity="5.5927073955535889e-01" nType="0">
                <Node pos="l" depth="5" NCoef="0" IVar="-1" Cut="0.0000000000000000e+00" cType="1" res="2.6479465304873884e-04" rms="4.9772986769676208e-01" purity="5.3035587072372437e-01" nType="-99"/>
                <Node pos="r" depth="5" NCoef="0" IVar="-1" Cut="0.0000000000000000e+00" cType="1" res="9.1822920367121696e-03" rms="4.8574972152709961e-01" purity="6.0791546106338501e-01" nType="-99"/>
              </Node>
            </Node>
          </Node>
        </Node>
        <Node pos="r" depth="1" NCoef="0" IVar="6" Cut="1.2857142686843872e+00" cType="1" res="1.3016900420188904e-01" rms="4.2467230558395386e-01" purity="7.6044583320617676e-01" nType="0">
          <Node pos="l" depth="2" NCoef="0" IVar="-1" Cut="0.0000000000000000e+00" cType="1" res="3.2249875366687775e-02" rms="4.1004106402397156e-01" purity="7.8439199924468994e-01" nType="-99"/>
          <Node pos="r" depth="2" NCoef="0" IVar="-1" Cut="0.0000000000000000e+00" cType="1" res="2.1495260298252106e-02" rms="4.4454920291900635e-01" purity="7.2377765178680420e-01" nType="-99"/>
        </Node>
      </Node>
    </BinaryTree>
    <BinaryTree type="DecisionTree" boostWeight="1.0000000000000000e+00" itree="8">
      <Node pos="s" depth="0" NCoef="0" IVar="7" Cut="4.2857143282890320e-01" cType="1" res="1.3789144577458501e-03" rms="4.7431528568267822e-01" purity="5.0183922052383423e-01" nType="0">
        <Node pos="l" depth="1" NCoef="0" IVar="1" Cut="3.0254886150360107e+00" cType="1" res="-3.4625116735696793e-02" rms="4.7368574142456055e-01" purity="4.2281273007392883e-01" nType="0">
          <Node pos="l" depth="2" NCoef="0" IVar="1" Cut="-3.0062956809997559e+00" cType="1" res="-2.0943840965628624e-02" rms="4.7873759269714355e-01" purity="4.5222944021224976e-01" nType="0">
            <Node pos="l" depth="3" NCoef="0" IVar="-1" Cut="0.0000000000000000e+00" cType="1" res="-1.8103100359439850e-02" rms="4.5245504379272461e-01" purity="3.1640177965164185e-01" nType="-99"/>
            <Node pos="r" depth="3" NCoef="0" IVar="2" Cut="6.6016083955764771e-01" cType="1" res="4.4165514409542084e-03" rms="4.8634636402130127e-01" purity="5.0563079118728638e-01" nType="0">
              <Node pos="l" depth="4" NCoef="0" IVar="-1" Cut="0.0000000000000000e+00" cType="1" res="7.0310798473656178e-03" rms="4.8586937785148621e-01" purity="5.4012531042098999e-01" nType="-99"/>
              <Node pos="r" depth="4" NCoef="0" IVar="3" Cut="2.9842913150787354e+00" cType="1" res="-1.1860325932502747e-02" rms="4.8583063483238220e-01" purity="4.8690825700759888e-01" nType="0">
                <Node pos="l" depth="5" NCoef="0" IVar="-1" Cut="0.0000000000000000e+00" cType="1" res="1.2622168287634850e-03" rms="4.9097847938537598e-01" purity="5.3462159633636475e-01" nType="-99"/>
                <Node pos="r" depth="5" NCoef="0" IVar="-1" Cut="0.0000000000000000e+00" cType="1" res="-4.8463498242199421e-03" rms="4.8209232091903687e-01" purity="4.5590445399284363e-01" nType="-99"/>
              </Node>
            </Node>
          </Node>
          <Node pos="r" depth="2" NCoef="0" IVar="-1" Cut="0.0000000000000000e+00" cType="1" res="-1.7856314778327942e-02" rms="4.5144200325012207e-01" purity="3.1618434190750122e-01" nType="-99"/>
        </Node>
        <Node pos="r" depth="1" NCoef="0" IVar="0" Cut="8.7113189697265625e+01" cType="1" res="5.8204609900712967e-02" rms="4.6972528100013733e-01" purity="6.2656784057617188e-01" nType="0">
          <Node pos="l" depth="2" NCoef="0" IVar="6" Cut="4.2857143282890320e-01" cType="1" res="3.2454770058393478e-02" rms="4.8633340001106262e-01" purity="5.6730139255523682e-01" nType="0">
            <Node pos="l" depth="3" NCoef="0" IVar="-1" Cut="0.0000000000000000e+00" cType="1" res="1.8751453608274460e-02" rms="4.6112027764320374e-01" purity="6.3585996627807617e-01" nType="-99"/>
            <Node pos="r" depth="3" NCoef="0" IVar="13" Cut="4.3453350067138672e+01" cType="1" res="1.4697468839585781e-02" rms="4.9235734343528748e-01" purity="5.4649448394775391e-01" nType="0">
              <Node pos="l" depth="4" NCoef="0" IVar="0" Cut="5.4075733184814453e+01" cType="1" res="3.3752482384443283e-02" rms="4.8979529738426208e-01" purity="5.6837683916091919e-01" nType="0">
                <Node pos="l" depth="5" NCoef="0" IVar="-1" Cut="0.0000000000000000e+00" cType="1" res="2.4359037633985281e-03" rms="4.9613246321678162e-01" purity="5.2025359869003296e-01" nType="-99"/>
                <Node pos="r" depth="5" NCoef="0" IVar="-1" Cut="0.0000000000000000e+00" cType="1" res="1.3287705369293690e-02" rms="4.7881734371185303e-01" purity="6.3762235641479492e-01" nType="-99"/>
              </Node>
              <Node pos="r" depth="4" NCoef="0" IVar="-1" Cut="0.0000000000000000e+00" cType="1" res="-5.4775374010205269e-03" rms="4.9537146091461182e-01" purity="4.9845638871192932e-01" nType="-99"/>
            </Node>
          </Node>
          <Node pos="r" depth="2" NCoef="0" IVar="10" Cut="9.4089198112487793e-01" cType="1" res="1.1875593662261963e-01" rms="4.2199277877807617e-01" purity="7.6593422889709473e-01" nType="0">
            <Node pos="l" depth="3" NCoef="0" IVar="-1" Cut="0.0000000000000000e+00" cType="1" res="2.2319857031106949e-02" rms="4.3217766284942627e-01" purity="7.4999189376831055e-01" nType="-99"/>
            <Node pos="r" depth="3" NCoef="0" IVar="-1" Cut="0.0000000000000000e+00" cType="1" res="3.0779164284467697e-02" rms="4.0745654702186584e-01" purity="7.8646254539489746e-01" nType="-99"/>
          </Node>
        </Node>
      </Node>
    </BinaryTree>
    <BinaryTree type="DecisionTree" boostWeight="1.0000000000000000e+00" itree="9">
      <Node pos="s" depth="0" NCoef="0" IVar="7" Cut="4.2857143282890320e-01" cType="1" res="3.9205094799399376e-03" rms="4.7349569201469421e-01" purity="5.0487029552459717e-01" nType="0">
        <Node pos="l" depth="1" NCoef="0" IVar="1" Cut="3.1845939159393311e+00" cType="1" res="-2.7809163555502892e-02" rms="4.7376027703285217e-01" purity="4.2650511860847473e-01" nType="0">
          <Node pos="l" depth="2" NCoef="0" IVar="1" Cut="-2.9422135353088379e+00" cType="1" res="-1.4680190943181515e-02" rms="4.7888380289077759e-01" purity="4.5586156845092773e-01" nType="0">
            <Node pos="l" depth="3" NCoef="0" IVar="-1" Cut="0.0000000000000000e+00" cType="1" res="-1.4023002237081528e-02" rms="4.5705822110176086e-01" purity="3.3069249987602234e-01" nType="-99"/>
            <Node pos="r" depth="3" NCoef="0" IVar="2" Cut="9.9019217491149902e-01" cType="1" res="5.6451032869517803e-03" rms="4.8579216003417969e-01" purity="5.0559896230697632e-01" nType="0">
              <Node pos="l" depth="4" NCoef="0" IVar="1" Cut="1.1423286199569702e+00" cType="1" res="2.6219271123409271e-02" rms="4.8548153042793274e-01" purity="5.3184193372726440e-01" nType="0">
                <Node pos="l" depth="5" NCoef="0" IVar="-1" Cut="0.0000000000000000e+00" cType="1" res="7.6544089242815971e-03" rms="4.8454642295837402e-01" purity="5.4863929748535156e-01" nType="-99"/>
                <Node pos="r" depth="5" NCoef="0" IVar="-1" Cut="0.0000000000000000e+00" cType="1" res="2.4033959489315748e-03" rms="4.8629817366600037e-01" purity="5.1026195287704468e-01" nType="-99"/>
              </Node>
              <Node pos="r" depth="4" NCoef="0" IVar="1" Cut="5.5868989229202271e-01" cType="1" res="-1.6008540987968445e-02" rms="4.8517742753028870e-01" purity="4.7797900438308716e-01" nType="0">
                <Node pos="l" depth="5" NCoef="0" IVar="-1" Cut="0.0000000000000000e+00" cType="1" res="-1.4957664534449577e-03" rms="4.8545596003532410e-01" purity="4.9094280600547791e-01" nType="-99"/>
                <Node pos="r" depth="5" NCoef="0" IVar="-1" Cut="0.0000000000000000e+00" cType="1" res="-5.1537659019231796e-03" rms="4.8471203446388245e-01" purity="4.6423068642616272e-01" nType="-99"/>
              </Node>
            </Node>
          </Node>
          <Node pos="r" depth="2" NCoef="0" IVar="-1" Cut="0.0000000000000000e+00" cType="1" res="-1.7822995781898499e-02" rms="4.4731238484382629e-01" purity="3.0277419090270996e-01" nType="-99"/>
        </Node>
        <Node pos="r" depth="1" NCoef="0" IVar="13" Cut="6.0501422882080078e+01" cType="1" res="5.3954470902681351e-02" rms="4.6873450279235840e-01" purity="6.2844300270080566e-01" nType="0">
          <Node pos="l" depth="2" NCoef="0" IVar="0" Cut="1.1343994903564453e+02" cType="1" res="7.1951039135456085e-02" rms="4.6397930383682251e-01" purity="6.4655643701553345e-01" nType="0">
            <Node pos="l" depth="3" NCoef="0" IVar="0" Cut="4.8724655151367188e+01" cType="1" res="5.3438588976860046e-02" rms="4.7741058468818665e-01" purity="6.0934174060821533e-01" nType="0">
              <Node pos="l" depth="4" NCoef="0" IVar="0" Cut="2.7922960281372070e+01" cType="1" res="2.1730232983827591e-02" rms="4.9139612913131714e-01" purity="5.2917689085006714e-01" nType="0">
                <Node pos="l" depth="5" NCoef="0" IVar="-1" Cut="0.0000000000000000e+00" cType="1" res="-9.1200048336759210e-04" rms="4.9185565114021301e-01" purity="4.6483194828033447e-01" nType="-99"/>
                <Node pos="r" depth="5" NCoef="0" IVar="-1" Cut="0.0000000000000000e+00" cType="1" res="8.3265732973814011e-03" rms="4.9014213681221008e-01" purity="5.7706552743911743e-01" nType="-99"/>
              </Node>
              <Node pos="r" depth="4" NCoef="0" IVar="4" Cut="-6.7791271209716797e-01" cType="1" res="8.2003295421600342e-02" rms="4.6259400248527527e-01" purity="6.8155884742736816e-01" nType="0">
                <Node pos="l" depth="5" NCoef="0" IVar="-1" Cut="0.0000000000000000e+00" cType="1" res="2.3153608664870262e-02" rms="4.4910350441932678e-01" purity="7.1535962820053101e-01" nType="-99"/>
                <Node pos="r" depth="5" NCoef="0" IVar="-1" Cut="0.0000000000000000e+00" cType="1" res="1.3851055875420570e-02" rms="4.6940484642982483e-01" purity="6.6220819950103760e-01" nType="-99"/>
              </Node>
            </Node>
            <Node pos="r" depth="3" NCoef="0" IVar="-1" Cut="0.0000000000000000e+00" cType="1" res="3.5255663096904755e-02" rms="3.8423380255699158e-01" purity="8.1924194097518921e-01" nType="-99"/>
          </Node>
          <Node pos="r" depth="2" NCoef="0" IVar="-1" Cut="0.0000000000000000e+00" cType="1" res="-9.8949261009693146e-03" rms="4.8227632045745850e-01" purity="5.2657037973403931e-01" nType="-99"/>
        </Node>
      </Node>
    </BinaryTree>
    <BinaryTree type="DecisionTree" boostWeight="1.0000000000000000e+00" itree="10">
      <Node pos="s" depth="0" NCoef="0" IVar="0" Cut="6.0030548095703125e+01" cType="1" res="2.0760942716151476e-03" rms="4.7251984477043152e-01" purity="5.0272864103317261e-01" nType="0">
        <Node pos="l" depth="1" NCoef="0" IVar="0" Cut="8.5985269546508789e+00" cType="1" res="-1.9590418785810471e-02" rms="4.7779941558837891e-01" purity="4.4590362906455994e-01" nType="0">
          <Node pos="l" depth="2" NCoef="0" IVar="-1" Cut="0.0000000000000000e+00" cType="1" res="-2.4804430082440376e-02" rms="4.2293706536293030e-01" purity="2.3691637814044952e-01" nType="-99"/>
          <Node pos="r" depth="2" NCoef="0" IVar="0" Cut="2.0844306945800781e+01" cType="1" res="1.5051563270390034e-02" rms="4.9231311678886414e-01" purity="5.2408987283706665e-01" nType="0">
            <Node pos="l" depth="3" NCoef="0" IVar="2" Cut="1.1496696472167969e+00" cType="1" res="-1.7461601644754410e-02" rms="4.9494102597236633e-01" purity="4.4034034013748169e-01" nType="0">
              <Node pos="l" depth="4" NCoef="0" IVar="-1" Cut="0.0000000000000000e+00" cType="1" res="-9.6836691955104470e-04" rms="4.9608230590820312e-01" purity="4.5302757620811462e-01" nType="-99"/>
              <Node pos="r" depth="4" NCoef="0" IVar="-1" Cut="0.0000000000000000e+00" cType="1" res="-7.8533338382840157e-03" rms="4.9226835370063782e-01" purity="4.1892021894454956e-01" nType="-99"/>
            </Node>
            <Node pos="r" depth="3" NCoef="0" IVar="6" Cut="4.2857143282890320e-01" cType="1" res="3.8955941796302795e-02" rms="4.8899498581886292e-01" purity="5.8566439151763916e-01" nType="0">
              <Node pos="l" depth="4" NCoef="0" IVar="0" Cut="3.3906387329101562e+01" cType="1" res="5.5725257843732834e-02" rms="4.8411700129508972e-01" purity="6.1249893903732300e-01" nType="0">
                <Node pos="l" depth="5" NCoef="0" IVar="-1" Cut="0.0000000000000000e+00" cType="1" res="5.8223088271915913e-03" rms="4.9554762244224548e-01" purity="5.6431615352630615e-01" nType="-99"/>
                <Node pos="r" depth="5" NCoef="0" IVar="-1" Cut="0.0000000000000000e+00" cType="1" res="1.9065909087657928e-02" rms="4.6558323502540588e-01" purity="6.7824077606201172e-01" nType="-99"/>
              </Node>
              <Node pos="r" depth="4" NCoef="0" IVar="2" Cut="1.0112529993057251e+00" cType="1" res="8.3497129380702972e-03" rms="4.9631613492965698e-01" purity="5.3668773174285889e-01" nType="0">
                <Node pos="l" depth="5" NCoef="0" IVar="-1" Cut="0.0000000000000000e+00" cType="1" res="6.6505307331681252e-03" rms="4.9411168694496155e-01" purity="5.6242656707763672e-01" nType="-99"/>
                <Node pos="r" depth="5" NCoef="0" IVar="-1" Cut="0.0000000000000000e+00" cType="1" res="-5.0330464728176594e-03" rms="4.9733415246009827e-01" purity="5.0191587209701538e-01" nType="-99"/>
              </Node>
            </Node>
          </Node>
        </Node>
        <Node pos="r" depth="1" NCoef="0" IVar="0" Cut="1.1717766571044922e+02" cType="1" res="8.5185267031192780e-02" rms="4.4195222854614258e-01" purity="7.2069996595382690e-01" nType="0">
          <Node pos="l" depth="2" NCoef="0" IVar="4" Cut="-8.5043239593505859e-01" cType="1" res="5.8716941624879837e-02" rms="4.6283620595932007e-01" purity="6.7645925283432007e-01" nType="0">
            <Node pos="l" depth="3" NCoef="0" IVar="-1" Cut="0.0000000000000000e+00" cType="1" res="2.0821526646614075e-02" rms="4.4531404972076416e-01" purity="7.1941459178924561e-01" nType="-99"/>
            <Node pos="r" depth="3" NCoef="0" IVar="-1" Cut="0.0000000000000000e+00" cType="1" res="7.3518855497241020e-03" rms="4.7188395261764526e-01" purity="6.4952450990676880e-01" nType="-99"/>
          </Node>
          <Node pos="r" depth="2" NCoef="0" IVar="-1" Cut="0.0000000000000000e+00" cType="1" res="3.1826388090848923e-02" rms="3.8942030072212219e-01" purity="8.1248998641967773e-01" nType="-99"/>
        </Node>
      </Node>
    </BinaryTree>
    <BinaryTree type="DecisionTree" boostWeight="1.0000000000000000e+00" itree="11">
      <Node pos="s" depth="0" NCoef="0" IVar="7" Cut="4.2857143282890320e-01" cType="1" res="-1.8022357253357768e-03" rms="4.7145017981529236e-01" purity="4.9949631094932556e-01" nType="0">
        <Node pos="l" depth="1" NCoef="0" IVar="0" Cut="2.4618833541870117e+01" cType="1" res="-2.6514640077948570e-02" rms="4.7183671593666077e-01" purity="4.2234778404235840e-01" nType="0">
          <Node pos="l" depth="2" NCoef="0" IVar="0" Cut="7.0656647682189941e+00" cType="1" res="-5.1708471029996872e-02" rms="4.6519443392753601e-01" purity="3.5538244247436523e-01" nType="0">
            <Node pos="l" depth="3" NCoef="0" IVar="-1" Cut="0.0000000000000000e+00" cType="1" res="-2.6386799290776253e-02" rms="4.0470284223556519e-01" purity="2.0808777213096619e-01" nType="-99"/>
            <Node pos="r" depth="3" NCoef="0" IVar="0" Cut="1.3752099990844727e+01" cType="1" res="-1.6967516392469406e-02" rms="4.9168035387992859e-01" purity="4.3588295578956604e-01" nType="0">
              <Node pos="l" depth="4" NCoef="0" IVar="-1" Cut="0.0000000000000000e+00" cType="1" res="-8.8306851685047150e-03" rms="4.8250347375869751e-01" purity="3.7409096956253052e-01" nType="-99"/>
              <Node pos="r" depth="4" NCoef="0" IVar="-1" Cut="0.0000000000000000e+00" cType="1" res="1.6655784565955400e-03" rms="4.9922168254852295e-01" purity="4.9644744396209717e-01" nType="-99"/>
            </Node>
          </Node>
          <Node pos="r" depth="2" NCoef="0" IVar="2" Cut="6.6016262769699097e-01" cType="1" res="4.8482637852430344e-02" rms="4.8336696624755859e-01" purity="6.2169092893600464e-01" nType="0">
            <Node pos="l" depth="3" NCoef="0" IVar="-1" Cut="0.0000000000000000e+00" cType="1" res="1.2695704586803913e-02" rms="4.7905364632606506e-01" purity="6.3770282268524170e-01" nType="-99"/>
            <Node pos="r" depth="3" NCoef="0" IVar="-1" Cut="0.0000000000000000e+00" cType="1" res="8.0286776646971703e-03" rms="4.8613598942756653e-01" purity="6.1053055524826050e-01" nType="-99"/>
          </Node>
        </Node>
        <Node pos="r" depth="1" NCoef="0" IVar="13" Cut="6.0493534088134766e+01" cType="1" res="3.7382937967777252e-02" rms="4.6817007660865784e-01" purity="6.2182664871215820e-01" nType="0">
          <Node pos="l" depth="2" NCoef="0" IVar="10" Cut="2.4236514568328857e+00" cType="1" res="5.2371650934219360e-02" rms="4.6377807855606079e-01" purity="6.3918018341064453e-01" nType="0">
            <Node pos="l" depth="3" NCoef="0" IVar="6" Cut="4.2857143282890320e-01" cType="1" res="3.4653011709451675e-02" rms="4.7078567743301392e-01" purity="6.1622887849807739e-01" nType="0">
              <Node pos="l" depth="4" NCoef="0" IVar="-1" Cut="0.0000000000000000e+00" cType="1" res="2.0188840106129646e-02" rms="4.4331267476081848e-01" purity="6.7247813940048218e-01" nType="-99"/>
              <Node pos="r" depth="4" NCoef="0" IVar="0" Cut="5.9026294708251953e+01" cType="1" res="1.7954938113689423e-02" rms="4.7670033574104309e-01" purity="6.0077846050262451e-01" nType="0">
                <Node pos="l" depth="5" NCoef="0" IVar="-1" Cut="0.0000000000000000e+00" cType="1" res="-2.6305953506380320e-03" rms="4.9509891867637634e-01" purity="5.0436097383499146e-01" nType="-99"/>
                <Node pos="r" depth="5" NCoef="0" IVar="-1" Cut="0.0000000000000000e+00" cType="1" res="1.0152104310691357e-02" rms="4.5748576521873474e-01" purity="6.8855875730514526e-01" nType="-99"/>
              </Node>
            </Node>
            <Node pos="r" depth="3" NCoef="0" IVar="-1" Cut="0.0000000000000000e+00" cType="1" res="3.1981952488422394e-02" rms="4.1162198781967163e-01" purity="7.6186722517013550e-01" nType="-99"/>
          </Node>
          <Node pos="r" depth="2" NCoef="0" IVar="-1" Cut="0.0000000000000000e+00" cType="1" res="-9.4134435057640076e-03" rms="4.8336777091026306e-01" purity="5.2662223577499390e-01" nType="-99"/>
        </Node>
      </Node>
    </BinaryTree>
    <BinaryTree type="DecisionTree" boostWeight="1.0000000000000000e+00" itree="12">
      <Node pos="s" depth="0" NCoef="0" IVar="0" Cut="7.0303688049316406e+01" cType="1" res="-2.4228885304182768e-03" rms="4.7107905149459839e-01" purity="4.9844253063201904e-01" nType="0">
        <Node pos="l" depth="1" NCoef="0" IVar="0" Cut="1.0088537216186523e+01" cType="1" res="-1.6015369445085526e-02" rms="4.7609087824821472e-01" purity="4.5329096913337708e-01" nType="0">
          <Node pos="l" depth="2" NCoef="0" IVar="0" Cut="5.3095684051513672e+00" cType="1" res="-8.8560923933982849e-02" rms="4.3038511276245117e-01" purity="2.5305572152137756e-01" nType="0">
            <Node pos="l" depth="3" NCoef="0" IVar="-1" Cut="0.0000000000000000e+00" cType="1" res="-2.8902035206556320e-02" rms="3.8876256346702576e-01" purity="1.8583987653255463e-01" nType="-99"/>
            <Node pos="r" depth="3" NCoef="0" IVar="-1" Cut="0.0000000000000000e+00" cType="1" res="-1.2206396088004112e-02" rms="4.6326622366905212e-01" purity="3.1515932083129883e-01" nType="-99"/>
          </Node>
          <Node pos="r" depth="2" NCoef="0" IVar="0" Cut="2.1558044433593750e+01" cType="1" res="1.5336298383772373e-02" rms="4.9123343825340271e-01" purity="5.3982573747634888e-01" nType="0">
            <Node pos="l" depth="3" NCoef="0" IVar="2" Cut="9.8543530702590942e-01" cType="1" res="-7.4962754733860493e-03" rms="4.9662625789642334e-01" purity="4.5719981193542480e-01" nType="0">
              <Node pos="l" depth="4" NCoef="0" IVar="-1" Cut="0.0000000000000000e+00" cType="1" res="2.5009617675095797e-03" rms="4.9788773059844971e-01" purity="4.7928747534751892e-01" nType="-99"/>
              <Node pos="r" depth="4" NCoef="0" IVar="-1" Cut="0.0000000000000000e+00" cType="1" res="-6.4536514692008495e-03" rms="4.9397131800651550e-01" purity="4.3002712726593018e-01" nType="-99"/>
            </Node>
            <Node pos="r" depth="3" NCoef="0" IVar="6" Cut="4.2857143282890320e-01" cType="1" res="2.8903586789965630e-02" rms="4.8749449849128723e-01" purity="5.8892261981964111e-01" nType="0">
              <Node pos="l" depth="4" NCoef="0" IVar="0" Cut="4.2447959899902344e+01" cType="1" res="5.0090651959180832e-02" rms="4.8161268234252930e-01" purity="6.2299239635467529e-01" nType="0">
                <Node pos="l" depth="5" NCoef="0" IVar="-1" Cut="0.0000000000000000e+00" cType="1" res="7.5227236375212669e-03" rms="4.9046123027801514e-01" purity="5.9323102235794067e-01" nType="-99"/>
                <Node pos="r" depth="5" NCoef="0" IVar="-1" Cut="0.0000000000000000e+00" cType="1" res="1.8430572003126144e-02" rms="4.5389127731323242e-01" purity="7.0641529560089111e-01" nType="-99"/>
              </Node>
              <Node pos="r" depth="4" NCoef="0" IVar="13" Cut="3.0835304260253906e+01" cType="1" res="-4.1332081891596317e-03" rms="4.9471974372863770e-01" purity="5.3579795360565186e-01" nType="0">
                <Node pos="l" depth="5" NCoef="0" IVar="-1" Cut="0.0000000000000000e+00" cType="1" res="4.4935746118426323e-03" rms="4.9263679981231689e-01" purity="5.6874281167984009e-01" nType="-99"/>
                <Node pos="r" depth="5" NCoef="0" IVar="-1" Cut="0.0000000000000000e+00" cType="1" res="-5.9618074446916580e-03" rms="4.9539884924888611e-01" purity="5.0397187471389771e-01" nType="-99"/>
              </Node>
            </Node>
          </Node>
        </Node>
        <Node pos="r" depth="1" NCoef="0" IVar="6" Cut="1.2857142686843872e+00" cType="1" res="6.6636547446250916e-02" rms="4.3827986717224121e-01" purity="7.2784429788589478e-01" nType="0">
          <Node pos="l" depth="2" NCoef="0" IVar="1" Cut="1.1630984395742416e-01" cType="1" res="8.5233479738235474e-02" rms="4.2889147996902466e-01" purity="7.4912542104721069e-01" nType="0">
            <Node pos="l" depth="3" NCoef="0" IVar="-1" Cut="0.0000000000000000e+00" cType="1" res="1.9822126254439354e-02" rms="4.2653012275695801e-01" purity="7.5246983766555786e-01" nType="-99"/>
            <Node pos="r" depth="3" NCoef="0" IVar="-1" Cut="0.0000000000000000e+00" cType="1" res="1.8627524375915527e-02" rms="4.3135029077529907e-01" purity="7.4560153484344482e-01" nType="-99"/>
          </Node>
          <Node pos="r" depth="2" NCoef="0" IVar="-1" Cut="0.0000000000000000e+00" cType="1" res="7.3220748454332352e-03" rms="4.5293447375297546e-01" purity="6.8905335664749146e-01" nType="-99"/>
        </Node>
      </Node>
    </BinaryTree>
    <BinaryTree type="DecisionTree" boostWeight="1.0000000000000000e+00" itree="13">
      <Node pos="s" depth="0" NCoef="0" IVar="0" Cut="7.4528709411621094e+01" cType="1" res="-5.0247204490005970e-04" rms="4.6982702612876892e-01" purity="4.9975660443305969e-01" nType="0">
        <Node pos="l" depth="1" NCoef="0" IVar="0" Cut="1.0683848381042480e+01" cType="1" res="-1.2875294312834740e-02" rms="4.7533535957336426e-01" purity="4.5618093013763428e-01" nType="0">
          <Node pos="l" depth="2" NCoef="0" IVar="0" Cut="5.6167478561401367e+00" cType="1" res="-7.3266267776489258e-02" rms="4.3537706136703491e-01" purity="2.6371702551841736e-01" nType="0">
            <Node pos="l" depth="3" NCoef="0" IVar="-1" Cut="0.0000000000000000e+00" cType="1" res="-2.4855831637978554e-02" rms="3.9505353569984436e-01" purity="1.9361755251884460e-01" nType="-99"/>
            <Node pos="r" depth="3" NCoef="0" IVar="-1" Cut="0.0000000000000000e+00" cType="1" res="-9.4067547470331192e-03" rms="4.6933037042617798e-01" purity="3.3169358968734741e-01" nType="-99"/>
          </Node>
          <Node pos="r" depth="2" NCoef="0" IVar="0" Cut="4.1086097717285156e+01" cType="1" res="1.5182913281023502e-02" rms="4.9027475714683533e-01" purity="5.4560148715972900e-01" nType="0">
            <Node pos="l" depth="3" NCoef="0" IVar="3" Cut="2.7462673187255859e+00" cType="1" res="3.5749191883951426e-03" rms="4.9533739686012268e-01" purity="5.1144963502883911e-01" nType="0">
              <Node pos="l" depth="4" NCoef="0" IVar="-1" Cut="0.0000000000000000e+00" cType="1" res="-7.2404639795422554e-03" rms="4.9457696080207825e-01" purity="5.0971430540084839e-01" nType="-99"/>
              <Node pos="r" depth="4" NCoef="0" IVar="0" Cut="1.7922370910644531e+01" cType="1" res="1.1469374410808086e-02" rms="4.9511390924453735e-01" purity="5.1179826259613037e-01" nType="0">
                <Node pos="l" depth="5" NCoef="0" IVar="-1" Cut="0.0000000000000000e+00" cType="1" res="-2.5715348310768604e-03" rms="4.9589323997497559e-01" purity="4.4371363520622253e-01" nType="-99"/>
                <Node pos="r" depth="5" NCoef="0" IVar="-1" Cut="0.0000000000000000e+00" cType="1" res="5.7677272707223892e-03" rms="4.9384865164756775e-01" purity="5.5987656116485596e-01" nType="-99"/>
              </Node>
            </Node>
            <Node pos="r" depth="3" NCoef="0" IVar="6" Cut="4.2857143282890320e-01" cType="1" res="4.3947190046310425e-02" rms="4.7628092765808105e-01" purity="6.3022875785827637e-01" nType="0">
              <Node pos="l" depth="4" NCoef="0" IVar="-1" Cut="0.0000000000000000e+00" cType="1" res="1.7611518502235413e-02" rms="4.5249086618423462e-01" purity="7.0937377214431763e-01" nType="-99"/>
              <Node pos="r" depth="4" NCoef="0" IVar="-1" Cut="0.0000000000000000e+00" cType="1" res="3.9137299172580242e-03" rms="4.8945569992065430e-01" purity="5.7907152175903320e-01" nType="-99"/>
            </Node>
          </Node>
        </Node>
        <Node pos="r" depth="1" NCoef="0" IVar="6" Cut="1.2857142686843872e+00" cType="1" res="6.8441748619079590e-02" rms="4.3141695857048035e-01" purity="7.4257022142410278e-01" nType="0">
          <Node pos="l" depth="2" NCoef="0" IVar="-1" Cut="0.0000000000000000e+00" cType="1" res="1.9703136757016182e-02" rms="4.2035180330276489e-01" purity="7.6478749513626099e-01" nType="-99"/>
          <Node pos="r" depth="2" NCoef="0" IVar="-1" Cut="0.0000000000000000e+00" cType="1" res="8.5582965984940529e-03" rms="4.4908952713012695e-01" purity="7.0246791839599609e-01" nType="-99"/>
        </Node>
      </Node>
    </BinaryTree>
    <BinaryTree type="DecisionTree" boostWeight="1.0000000000000000e+00" itree="14">
      <Node pos="s" depth="0" NCoef="0" IVar="0" Cut="8.7020530700683594e+01" cType="1" res="8.4648949268739671e-05" rms="4.6906054019927979e-01" purity="5.0091671943664551e-01" nType="0">
        <Node pos="l" depth="1" NCoef="0" IVar="0" Cut="1.2454032897949219e+01" cType="1" res="-9.4727827236056328e-03" rms="4.7453123331069946e-01" purity="4.6544784307479858e-01" nType="0">
          <Node pos="l" depth="2" NCoef="0" IVar="0" Cut="5.3525018692016602e+00" cType="1" res="-6.2726400792598724e-02" rms="4.4243913888931274e-01" purity="2.8117889165878296e-01" nType="0">
            <Node pos="l" depth="3" NCoef="0" IVar="-1" Cut="0.0000000000000000e+00" cType="1" res="-2.3726148530840874e-02" rms="3.9193820953369141e-01" purity="1.8953284621238708e-01" nType="-99"/>
            <Node pos="r" depth="3" NCoef="0" IVar="-1" Cut="0.0000000000000000e+00" cType="1" res="-8.6652720347046852e-03" rms="4.7119715809822083e-01" purity="3.4103646874427795e-01" nType="-99"/>
          </Node>
          <Node pos="r" depth="2" NCoef="0" IVar="5" Cut="-1.7667096853256226e+00" cType="1" res="1.8803564831614494e-02" rms="4.8836439847946167e-01" purity="5.6329005956649780e-01" nType="0">
            <Node pos="l" depth="3" NCoef="0" IVar="0" Cut="3.7309425354003906e+01" cType="1" res="2.4616004899144173e-02" rms="4.8772835731506348e-01" purity="5.6854456663131714e-01" nType="0">
              <Node pos="l" depth="4" NCoef="0" IVar="3" Cut="3.3594849109649658e+00" cType="1" res="7.0198751054704189e-03" rms="4.9697488546371460e-01" purity="5.1857143640518188e-01" nType="0">
                <Node pos="l" depth="5" NCoef="0" IVar="-1" Cut="0.0000000000000000e+00" cType="1" res="2.6709404774010181e-03" rms="4.9697712063789368e-01" purity="5.2106684446334839e-01" nType="-99"/>
                <Node pos="r" depth="5" NCoef="0" IVar="-1" Cut="0.0000000000000000e+00" cType="1" res="-1.9500904018059373e-03" rms="4.9658486247062683e-01" purity="5.1189649105072021e-01" nType="-99"/>
              </Node>
              <Node pos="r" depth="4" NCoef="0" IVar="6" Cut="3.8095238804817200e-01" cType="1" res="5.4311811923980713e-02" rms="4.7022178769111633e-01" purity="6.5288084745407104e-01" nType="0">
                <Node pos="l" depth="5" NCoef="0" IVar="-1" Cut="0.0000000000000000e+00" cType="1" res="1.8469013273715973e-02" rms="4.4995704293251038e-01" purity="7.1406936645507812e-01" nType="-99"/>
                <Node pos="r" depth="5" NCoef="0" IVar="-1" Cut="0.0000000000000000e+00" cType="1" res="5.5149053223431110e-03" rms="4.8544904589653015e-01" purity="5.9978199005126953e-01" nType="-99"/>
              </Node>
            </Node>
            <Node pos="r" depth="3" NCoef="0" IVar="-1" Cut="0.0000000000000000e+00" cType="1" res="-7.2048613801598549e-03" rms="4.9095532298088074e-01" purity="5.1439797878265381e-01" nType="-99"/>
          </Node>
        </Node>
        <Node pos="r" depth="1" NCoef="0" IVar="10" Cut="4.5566898584365845e-01" cType="1" res="7.1887023746967316e-02" rms="4.1880127787590027e-01" purity="7.6738512516021729e-01" nType="0">
          <Node pos="l" depth="2" NCoef="0" IVar="-1" Cut="0.0000000000000000e+00" cType="1" res="1.3263124972581863e-02" rms="4.3054801225662231e-01" purity="7.5185221433639526e-01" nType="-99"/>
          <Node pos="r" depth="2" NCoef="0" IVar="-1" Cut="0.0000000000000000e+00" cType="1" res="2.0828580483794212e-02" rms="4.0586385130882263e-01" purity="7.8319227695465088e-01" nType="-99"/>
        </Node>
      </Node>
    </BinaryTree>
    <BinaryTree type="DecisionTree" boostWeight="1.0000000000000000e+00" itree="15">
      <Node pos="s" depth="0" NCoef="0" IVar="10" Cut="2.8817839622497559e+00" cType="1" res="-2.9600495472550392e-03" rms="4.6896257996559143e-01" purity="4.9757289886474609e-01" nType="0">
        <Node pos="l" depth="1" NCoef="0" IVar="0" Cut="9.2820083618164062e+01" cType="1" res="-9.1260988265275955e-03" rms="4.7086390852928162e-01" purity="4.8396241664886475e-01" nType="0">
          <Node pos="l" depth="2" NCoef="0" IVar="0" Cut="1.3298542976379395e+01" cType="1" res="-1.5137719921767712e-02" rms="4.7440704703330994e-01" purity="4.5797699689865112e-01" nType="0">
            <Node pos="l" depth="3" NCoef="0" IVar="0" Cut="6.3563337326049805e+00" cType="1" res="-5.4199818521738052e-02" rms="4.4585973024368286e-01" purity="2.8887617588043213e-01" nType="0">
              <Node pos="l" depth="4" NCoef="0" IVar="-1" Cut="0.0000000000000000e+00" cType="1" res="-1.9610466435551643e-02" rms="4.0305674076080322e-01" purity="2.0468199253082275e-01" nType="-99"/>
              <Node pos="r" depth="4" NCoef="0" IVar="-1" Cut="0.0000000000000000e+00" cType="1" res="-6.6842786036431789e-03" rms="4.7959867119789124e-01" purity="3.6371046304702759e-01" nType="-99"/>
            </Node>
            <Node pos="r" depth="3" NCoef="0" IVar="0" Cut="4.7378532409667969e+01" cType="1" res="8.2624405622482300e-03" rms="4.8922199010848999e-01" purity="5.5927687883377075e-01" nType="0">
              <Node pos="l" depth="4" NCoef="0" IVar="3" Cut="2.6245822906494141e+00" cType="1" res="-3.5375545849092305e-05" rms="4.9488294124603271e-01" purity="5.2723312377929688e-01" nType="0">
                <Node pos="l" depth="5" NCoef="0" IVar="-1" Cut="0.0000000000000000e+00" cType="1" res="-1.0296577587723732e-02" rms="4.9256697297096252e-01" purity="5.1264631748199463e-01" nType="-99"/>
                <Node pos="r" depth="5" NCoef="0" IVar="-1" Cut="0.0000000000000000e+00" cType="1" res="1.5889847418293357e-03" rms="4.9478265643119812e-01" purity="5.2952301502227783e-01" nType="-99"/>
              </Node>
              <Node pos="r" depth="4" NCoef="0" IVar="6" Cut="3.8095238804817200e-01" cType="1" res="2.9475148767232895e-02" rms="4.7378304600715637e-01" purity="6.4119428396224976e-01" nType="0">
                <Node pos="l" depth="5" NCoef="0" IVar="-1" Cut="0.0000000000000000e+00" cType="1" res="1.6668377444148064e-02" rms="4.4404938817024231e-01" purity="7.2822809219360352e-01" nType="-99"/>
                <Node pos="r" depth="5" NCoef="0" IVar="-1" Cut="0.0000000000000000e+00" cType="1" res="1.2087763752788305e-03" rms="4.8671087622642517e-01" purity="5.9633690118789673e-01" nType="-99"/>
              </Node>
            </Node>
          </Node>
          <Node pos="r" depth="2" NCoef="0" IVar="-1" Cut="0.0000000000000000e+00" cType="1" res="1.3001361861824989e-02" rms="4.2669156193733215e-01" purity="7.5753945112228394e-01" nType="-99"/>
        </Node>
        <Node pos="r" depth="1" NCoef="0" IVar="-1" Cut="0.0000000000000000e+00" cType="1" res="2.3384204134345055e-02" rms="4.1996094584465027e-01" purity="7.3566424846649170e-01" nType="-99"/>
      </Node>
    </BinaryTree>
    <BinaryTree type="DecisionTree" boostWeight="1.0000000000000000e+00" itree="16">
      <Node pos="s" depth="0" NCoef="0" IVar="10" Cut="2.8418629169464111e+00" cType="1" res="1.3057488249614835e-03" rms="4.6862536668777466e-01" purity="5.0186806917190552e-01" nType="0">
        <Node pos="l" depth="1" NCoef="0" IVar="1" Cut="-2.7804698944091797e+00" cType="1" res="-3.5207925830036402e-03" rms="4.7037819027900696e-01" purity="4.8894277215003967e-01" nType="0">
          <Node pos="l" depth="2" NCoef="0" IVar="-1" Cut="0.0000000000000000e+00" cType="1" res="-8.1221610307693481e-03" rms="4.5835018157958984e-01" purity="3.4564837813377380e-01" nType="-99"/>
          <Node pos="r" depth="2" NCoef="0" IVar="1" Cut="3.1774811744689941e+00" cType="1" res="4.1299695149064064e-03" rms="4.7278594970703125e-01" purity="5.2207177877426147e-01" nType="0">
            <Node pos="l" depth="3" NCoef="0" IVar="4" Cut="1.4623788595199585e+00" cType="1" res="1.2154109776020050e-02" rms="4.7705093026161194e-01" purity="5.6423401832580566e-01" nType="0">
              <Node pos="l" depth="4" NCoef="0" IVar="4" Cut="-9.9948614835739136e-01" cType="1" res="6.7446320317685604e-03" rms="4.7931060194969177e-01" purity="5.5161726474761963e-01" nType="0">
                <Node pos="l" depth="5" NCoef="0" IVar="-1" Cut="0.0000000000000000e+00" cType="1" res="3.0759235378354788e-03" rms="4.7842437028884888e-01" purity="5.4197198152542114e-01" nType="-99"/>
                <Node pos="r" depth="5" NCoef="0" IVar="-1" Cut="0.0000000000000000e+00" cType="1" res="-3.5707911010831594e-03" rms="4.8116949200630188e-01" purity="5.8022785186767578e-01" nType="-99"/>
              </Node>
              <Node pos="r" depth="4" NCoef="0" IVar="-1" Cut="0.0000000000000000e+00" cType="1" res="1.2614507228136063e-02" rms="4.5486316084861755e-01" purity="6.7121863365173340e-01" nType="-99"/>
            </Node>
            <Node pos="r" depth="3" NCoef="0" IVar="-1" Cut="0.0000000000000000e+00" cType="1" res="-8.0388719215989113e-03" rms="4.4915506243705750e-01" purity="3.1481343507766724e-01" nType="-99"/>
          </Node>
        </Node>
        <Node pos="r" depth="1" NCoef="0" IVar="-1" Cut="0.0000000000000000e+00" cType="1" res="1.9037570804357529e-02" rms="4.2887029051780701e-01" purity="7.2459089756011963e-01" nType="-99"/>
      </Node>
    </BinaryTree>
    <BinaryTree type="DecisionTree" boostWeight="1.0000000000000000e+00" itree="17">
      <Node pos="s" depth="0" NCoef="0" IVar="4" Cut="1.0007085800170898e+00" cType="1" res="3.7555774906650186e-04" rms="4.6839874982833862e-01" purity="5.0140714645385742e-01" nType="0">
        <Node pos="l" depth="1" NCoef="0" IVar="0" Cut="8.7036285400390625e+01" cType="1" res="-7.0636798627674580e-03" rms="4.7007322311401367e-01" purity="4.7959905862808228e-01" nType="0">
          <Node pos="l" depth="2" NCoef="0" IVar="0" Cut="8.3281202316284180e+00" cType="1" res="-1.1869491077959538e-02" rms="4.7371801733970642e-01" purity="4.5134991407394409e-01" nType="0">
            <Node pos="l" depth="3" NCoef="0" IVar="-1" Cut="0.0000000000000000e+00" cType="1" res="-1.4188207685947418e-02" rms="4.2031916975975037e-01" purity="2.3377634584903717e-01" nType="-99"/>
            <Node pos="r" depth="3" NCoef="0" IVar="4" Cut="-1.2852811813354492e+00" cType="1" res="3.9206123910844326e-03" rms="4.8959842324256897e-01" purity="5.2553749084472656e-01" nType="0">
              <Node pos="l" depth="4" NCoef="0" IVar="0" Cut="2.7068208694458008e+01" cType="1" res="1.1422005482017994e-02" rms="4.8807707428932190e-01" purity="5.2864652872085571e-01" nType="0">
                <Node pos="l" depth="5" NCoef="0" IVar="-1" Cut="0.0000000000000000e+00" cType="1" res="-1.2802352430298924e-03" rms="4.9439001083374023e-01" purity="4.5908704400062561e-01" nType="-99"/>
                <Node pos="r" depth="5" NCoef="0" IVar="-1" Cut="0.0000000000000000e+00" cType="1" res="8.4332814440131187e-03" rms="4.7627529501914978e-01" purity="6.4133989810943604e-01" nType="-99"/>
              </Node>
              <Node pos="r" depth="4" NCoef="0" IVar="4" Cut="-8.7856978178024292e-02" cType="1" res="-3.1565137207508087e-02" rms="4.9519434571266174e-01" purity="5.1082974672317505e-01" nType="0">
                <Node pos="l" depth="5" NCoef="0" IVar="-1" Cut="0.0000000000000000e+00" cType="1" res="-5.2672969177365303e-03" rms="4.9525156617164612e-01" purity="5.1864302158355713e-01" nType="-99"/>
                <Node pos="r" depth="5" NCoef="0" IVar="-1" Cut="0.0000000000000000e+00" cType="1" res="-7.6445168815553188e-03" rms="4.9506130814552307e-01" purity="5.0253784656524658e-01" nType="-99"/>
              </Node>
            </Node>
          </Node>
          <Node pos="r" depth="2" NCoef="0" IVar="-1" Cut="0.0000000000000000e+00" cType="1" res="9.3479240313172340e-03" rms="4.3137291073799133e-01" purity="7.4726545810699463e-01" nType="-99"/>
        </Node>
        <Node pos="r" depth="1" NCoef="0" IVar="1" Cut="4.9495819211006165e-01" cType="1" res="5.3683992475271225e-02" rms="4.5265683531761169e-01" purity="6.5768074989318848e-01" nType="0">
          <Node pos="l" depth="2" NCoef="0" IVar="-1" Cut="0.0000000000000000e+00" cType="1" res="2.1870756521821022e-02" rms="4.3108600378036499e-01" purity="7.0229977369308472e-01" nType="-99"/>
          <Node pos="r" depth="2" NCoef="0" IVar="-1" Cut="0.0000000000000000e+00" cType="1" res="3.0719963833689690e-03" rms="4.6661290526390076e-01" purity="6.1967563629150391e-01" nType="-99"/>
        </Node>
      </Node>
    </BinaryTree>
    <BinaryTree type="DecisionTree" boostWeight="1.0000000000000000e+00" itree="18">
      <Node pos="s" depth="0" NCoef="0" IVar="10" Cut="2.9133994579315186e+00" cType="1" res="-2.4430134799331427e-03" rms="4.6754118800163269e-01" purity="4.9828052520751953e-01" nType="0">
        <Node pos="l" depth="1" NCoef="0" IVar="1" Cut="2.5979611873626709e+00" cType="1" res="-7.5830458663403988e-03" rms="4.6964377164840698e-01" purity="4.8486408591270447e-01" nType="0">
          <Node pos="l" depth="2" NCoef="0" IVar="1" Cut="-3.2963101863861084e+00" cType="1" res="3.3221463672816753e-04" rms="4.7178843617439270e-01" purity="5.1963168382644653e-01" nType="0">
            <Node pos="l" depth="3" NCoef="0" IVar="-1" Cut="0.0000000000000000e+00" cType="1" res="-9.2856679111719131e-03" rms="4.4305247068405151e-01" purity="2.9697147011756897e-01" nType="-99"/>
            <Node pos="r" depth="3" NCoef="0" IVar="13" Cut="6.0536918640136719e+01" cType="1" res="7.8306011855602264e-03" rms="4.7654977440834045e-01" purity="5.6092005968093872e-01" nType="0">
              <Node pos="l" depth="4" NCoef="0" IVar="0" Cut="5.8576442718505859e+01" cType="1" res="1.4060779474675655e-02" rms="4.7524565458297729e-01" purity="5.6566721200942993e-01" nType="0">
                <Node pos="l" depth="5" NCoef="0" IVar="-1" Cut="0.0000000000000000e+00" cType="1" res="6.7456206306815147e-04" rms="4.8490372300148010e-01" purity="5.1277393102645874e-01" nType="-99"/>
                <Node pos="r" depth="5" NCoef="0" IVar="-1" Cut="0.0000000000000000e+00" cType="1" res="1.0296856984496117e-02" rms="4.4517982006072998e-01" purity="7.1621996164321899e-01" nType="-99"/>
              </Node>
              <Node pos="r" depth="4" NCoef="0" IVar="-1" Cut="0.0000000000000000e+00" cType="1" res="-8.9479880407452583e-03" rms="4.8399233818054199e-01" purity="5.2283179759979248e-01" nType="-99"/>
            </Node>
          </Node>
          <Node pos="r" depth="2" NCoef="0" IVar="0" Cut="1.3554440498352051e+01" cType="1" res="-3.7313140928745270e-02" rms="4.6028509736061096e-01" purity="3.5427534580230713e-01" nType="0">
            <Node pos="l" depth="3" NCoef="0" IVar="-1" Cut="0.0000000000000000e+00" cType="1" res="-1.1350673623383045e-02" rms="4.3760517239570618e-01" purity="2.7201905846595764e-01" nType="-99"/>
            <Node pos="r" depth="3" NCoef="0" IVar="-1" Cut="0.0000000000000000e+00" cType="1" res="-3.6502892617136240e-03" rms="4.9686670303344727e-01" purity="4.9808171391487122e-01" nType="-99"/>
          </Node>
        </Node>
        <Node pos="r" depth="1" NCoef="0" IVar="-1" Cut="0.0000000000000000e+00" cType="1" res="2.1581726148724556e-02" rms="4.1461601853370667e-01" purity="7.4964982271194458e-01" nType="-99"/>
      </Node>
    </BinaryTree>
    <BinaryTree type="DecisionTree" boostWeight="1.0000000000000000e+00" itree="19">
      <Node pos="s" depth="0" NCoef="0" IVar="0" Cut="9.2827201843261719e+01" cType="1" res="6.1078113503754139e-04" rms="4.6659791469573975e-01" purity="5.0068622827529907e-01" nType="0">
        <Node pos="l" depth="1" NCoef="0" IVar="0" Cut="8.8883800506591797e+00" cType="1" res="-6.0866698622703552e-03" rms="4.7231706976890564e-01" purity="4.6753385663032532e-01" nType="0">
          <Node pos="l" depth="2" NCoef="0" IVar="-1" Cut="0.0000000000000000e+00" cType="1" res="-1.3539437204599380e-02" rms="4.2078846693038940e-01" purity="2.3513098061084747e-01" nType="-99"/>
          <Node pos="r" depth="2" NCoef="0" IVar="5" Cut="-1.3048110008239746e+00" cType="1" res="1.0204577818512917e-02" rms="4.8712712526321411e-01" purity="5.4466956853866577e-01" nType="0">
            <Node pos="l" depth="3" NCoef="0" IVar="0" Cut="3.2870914459228516e+01" cType="1" res="1.3921377249062061e-02" rms="4.8705059289932251e-01" purity="5.4578411579132080e-01" nType="0">
              <Node pos="l" depth="4" NCoef="0" IVar="3" Cut="2.9421567916870117e+00" cType="1" res="-1.8898207054007798e-04" rms="4.9543815851211548e-01" purity="4.8309940099716187e-01" nType="0">
                <Node pos="l" depth="5" NCoef="0" IVar="-1" Cut="0.0000000000000000e+00" cType="1" res="-4.8951376229524612e-03" rms="4.9405536055564880e-01" purity="4.8019456863403320e-01" nType="-99"/>
                <Node pos="r" depth="5" NCoef="0" IVar="-1" Cut="0.0000000000000000e+00" cType="1" res="2.0820796489715576e-03" rms="4.9567279219627380e-01" purity="4.8435610532760620e-01" nType="-99"/>
              </Node>
              <Node pos="r" depth="4" NCoef="0" IVar="3" Cut="2.3610658645629883e+00" cType="1" res="3.5647667944431305e-02" rms="4.7302338480949402e-01" purity="6.4230233430862427e-01" nType="0">
                <Node pos="l" depth="5" NCoef="0" IVar="-1" Cut="0.0000000000000000e+00" cType="1" res="7.2120566619560122e-04" rms="4.7626841068267822e-01" purity="6.2503188848495483e-01" nType="-99"/>
                <Node pos="r" depth="5" NCoef="0" IVar="-1" Cut="0.0000000000000000e+00" cType="1" res="1.0055516846477985e-02" rms="4.7124540805816650e-01" purity="6.4872884750366211e-01" nType="-99"/>
              </Node>
            </Node>
            <Node pos="r" depth="3" NCoef="0" IVar="-1" Cut="0.0000000000000000e+00" cType="1" res="-6.6033103503286839e-03" rms="4.8601439595222473e-01" purity="5.3205227851867676e-01" nType="-99"/>
          </Node>
        </Node>
        <Node pos="r" depth="1" NCoef="0" IVar="2" Cut="7.5673550367355347e-01" cType="1" res="5.6858338415622711e-02" rms="4.1118815541267395e-01" purity="7.7911186218261719e-01" nType="0">
          <Node pos="l" depth="2" NCoef="0" IVar="-1" Cut="0.0000000000000000e+00" cType="1" res="1.6773296520113945e-02" rms="4.0387496352195740e-01" purity="7.9047435522079468e-01" nType="-99"/>
          <Node pos="r" depth="2" NCoef="0" IVar="-1" Cut="0.0000000000000000e+00" cType="1" res="1.1683976277709007e-02" rms="4.1808378696441650e-01" purity="7.6783019304275513e-01" nType="-99"/>
        </Node>
      </Node>
    </BinaryTree>
    <BinaryTree type="DecisionTree" boostWeight="1.0000000000000000e+00" itree="20">
      <Node pos="s" depth="0" NCoef="0" IVar="0" Cut="1.2490314483642578e+02" cType="1" res="4.1353964479640126e-04" rms="4.6765321493148804e-01" purity="5.0013649463653564e-01" nType="0">
        <Node pos="l" depth="1" NCoef="0" IVar="0" Cut="1.1936111450195312e+01" cType="1" res="-4.5731519348919392e-03" rms="4.7171774506568909e-01" purity="4.8123875260353088e-01" nType="0">
          <Node pos="l" depth="2" NCoef="0" IVar="0" Cut="5.1411099433898926e+00" cType="1" res="-3.6503259092569351e-02" rms="4.4137796759605408e-01" purity="2.7793201804161072e-01" nType="0">
            <Node pos="l" depth="3" NCoef="0" IVar="-1" Cut="0.0000000000000000e+00" cType="1" res="-1.5309644863009453e-02" rms="3.9622536301612854e-01" purity="1.9542229175567627e-01" nType="-99"/>
            <Node pos="r" depth="3" NCoef="0" IVar="-1" Cut="0.0000000000000000e+00" cType="1" res="-4.9738413654267788e-03" rms="4.6831592917442322e-01" purity="3.3247020840644836e-01" nType="-99"/>
          </Node>
          <Node pos="r" depth="2" NCoef="0" IVar="6" Cut="1.2857142686843872e+00" cType="1" res="1.0080917738378048e-02" rms="4.8430272936820984e-01" purity="5.7454472780227661e-01" nType="0">
            <Node pos="l" depth="3" NCoef="0" IVar="0" Cut="4.9591949462890625e+01" cType="1" res="1.9294818863272667e-02" rms="4.8300722241401672e-01" purity="5.8124238252639771e-01" nType="0">
              <Node pos="l" depth="4" NCoef="0" IVar="3" Cut="3.4755628108978271e+00" cType="1" res="1.0577554814517498e-02" rms="4.9299529194831848e-01" purity="5.3826403617858887e-01" nType="0">
                <Node pos="l" depth="5" NCoef="0" IVar="-1" Cut="0.0000000000000000e+00" cType="1" res="3.5607805475592613e-03" rms="4.9317577481269836e-01" purity="5.3785514831542969e-01" nType="-99"/>
                <Node pos="r" depth="5" NCoef="0" IVar="-1" Cut="0.0000000000000000e+00" cType="1" res="-4.3533989228308201e-03" rms="4.9091839790344238e-01" purity="5.4013419151306152e-01" nType="-99"/>
              </Node>
              <Node pos="r" depth="4" NCoef="0" IVar="6" Cut="4.7619048506021500e-02" cType="1" res="4.2658999562263489e-02" rms="4.5433318614959717e-01" purity="6.9643366336822510e-01" nType="0">
                <Node pos="l" depth="5" NCoef="0" IVar="-1" Cut="0.0000000000000000e+00" cType="1" res="1.7638290300965309e-02" rms="4.2546680569648743e-01" purity="7.5653135776519775e-01" nType="-99"/>
                <Node pos="r" depth="5" NCoef="0" IVar="-1" Cut="0.0000000000000000e+00" cType="1" res="5.6530931033194065e-03" rms="4.6735873818397522e-01" purity="6.6596126556396484e-01" nType="-99"/>
              </Node>
            </Node>
            <Node pos="r" depth="3" NCoef="0" IVar="-1" Cut="0.0000000000000000e+00" cType="1" res="-1.5275575220584869e-02" rms="4.8808252811431885e-01" purity="5.1498597860336304e-01" nType="-99"/>
          </Node>
        </Node>
        <Node pos="r" depth="1" NCoef="0" IVar="-1" Cut="0.0000000000000000e+00" cType="1" res="2.1522110328078270e-02" rms="3.8377326726913452e-01" purity="8.1696182489395142e-01" nType="-99"/>
      </Node>
    </BinaryTree>
    <BinaryTree type="DecisionTree" boostWeight="1.0000000000000000e+00" itree="21">
      <Node pos="s" depth="0" NCoef="0" IVar="10" Cut="2.9133994579315186e+00" cType="1" res="-4.3697602814063430e-04" rms="4.6656733751296997e-01" purity="5.0036394596099854e-01" nType="0">
        <Node pos="l" depth="1" NCoef="0" IVar="4" Cut="1.9258539676666260e+00" cType="1" res="-4.9207871779799461e-03" rms="4.6886542439460754e-01" purity="4.8685145378112793e-01" nType="0">
          <Node pos="l" depth="2" NCoef="0" IVar="2" Cut="6.6011834144592285e-01" cType="1" res="-7.9387277364730835e-03" rms="4.7001960873603821e-01" purity="4.7700610756874084e-01" nType="0">
            <Node pos="l" depth="3" NCoef="0" IVar="1" Cut="-1.9158180952072144e+00" cType="1" res="4.8445551656186581e-03" rms="4.6963381767272949e-01" purity="4.9488666653633118e-01" nType="0">
              <Node pos="l" depth="4" NCoef="0" IVar="-1" Cut="0.0000000000000000e+00" cType="1" res="-2.7668133843690157e-03" rms="4.7287556529045105e-01" purity="4.2653650045394897e-01" nType="-99"/>
              <Node pos="r" depth="4" NCoef="0" IVar="1" Cut="2.4643785953521729e+00" cType="1" res="1.3640473596751690e-02" rms="4.6774035692214966e-01" purity="5.2943599224090576e-01" nType="0">
                <Node pos="l" depth="5" NCoef="0" IVar="-1" Cut="0.0000000000000000e+00" cType="1" res="5.7311300188302994e-03" rms="4.6711677312850952e-01" purity="6.1386489868164062e-01" nType="-99"/>
                <Node pos="r" depth="5" NCoef="0" IVar="-1" Cut="0.0000000000000000e+00" cType="1" res="-1.5266460832208395e-03" rms="4.6801087260246277e-01" purity="3.9408993721008301e-01" nType="-99"/>
              </Node>
            </Node>
            <Node pos="r" depth="3" NCoef="0" IVar="0" Cut="3.3508552551269531e+01" cType="1" res="-1.6579288989305496e-02" rms="4.7008335590362549e-01" purity="4.6492019295692444e-01" nType="0">
              <Node pos="l" depth="4" NCoef="0" IVar="0" Cut="1.5978682518005371e+01" cType="1" res="-2.5785783305764198e-02" rms="4.6850913763046265e-01" purity="3.8128215074539185e-01" nType="0">
                <Node pos="l" depth="5" NCoef="0" IVar="-1" Cut="0.0000000000000000e+00" cType="1" res="-9.1079631820321083e-03" rms="4.4907352328300476e-01" purity="2.9978948831558228e-01" nType="-99"/>
                <Node pos="r" depth="5" NCoef="0" IVar="-1" Cut="0.0000000000000000e+00" cType="1" res="-5.9476325986906886e-04" rms="4.9817287921905518e-01" purity="5.1613885164260864e-01" nType="-99"/>
              </Node>
              <Node pos="r" depth="4" NCoef="0" IVar="4" Cut="-2.0317912101745605e+00" cType="1" res="1.4474272029474378e-03" rms="4.7263157367706299e-01" purity="6.2868696451187134e-01" nType="0">
                <Node pos="l" depth="5" NCoef="0" IVar="-1" Cut="0.0000000000000000e+00" cType="1" res="9.0909004211425781e-03" rms="4.6167653799057007e-01" purity="6.7986363172531128e-01" nType="-99"/>
                <Node pos="r" depth="5" NCoef="0" IVar="-1" Cut="0.0000000000000000e+00" cType="1" res="-5.4070367477834225e-03" rms="4.7782742977142334e-01" purity="5.9532880783081055e-01" nType="-99"/>
              </Node>
            </Node>
          </Node>
          <Node pos="r" depth="2" NCoef="0" IVar="-1" Cut="0.0000000000000000e+00" cType="1" res="9.8830694332718849e-03" rms="4.4652864336967468e-01" purity="6.4885097742080688e-01" nType="-99"/>
        </Node>
        <Node pos="r" depth="1" NCoef="0" IVar="-1" Cut="0.0000000000000000e+00" cType="1" res="1.8894430249929428e-02" rms="4.1458201408386230e-01" purity="7.4469190835952759e-01" nType="-99"/>
      </Node>
    </BinaryTree>
    <BinaryTree type="DecisionTree" boostWeight="1.0000000000000000e+00" itree="22">
      <Node pos="s" depth="0" NCoef="0" IVar="4" Cut="1.9258539676666260e+00" cType="1" res="-2.1248250268399715e-03" rms="4.6672451496124268e-01" purity="4.9829885363578796e-01" nType="0">
        <Node pos="l" depth="1" NCoef="0" IVar="2" Cut="1.1797752380371094e+00" cType="1" res="-6.2977396883070469e-03" rms="4.6836793422698975e-01" purity="4.8526036739349365e-01" nType="0">
          <Node pos="l" depth="2" NCoef="0" IVar="0" Cut="8.7020530700683594e+01" cType="1" res="3.8955658674240112e-03" rms="4.6816655993461609e-01" purity="5.0234484672546387e-01" nType="0">
            <Node pos="l" depth="3" NCoef="0" IVar="0" Cut="8.3115377426147461e+00" cType="1" res="-4.8207747749984264e-04" rms="4.7433450818061829e-01" purity="4.6625089645385742e-01" nType="0">
              <Node pos="l" depth="4" NCoef="0" IVar="-1" Cut="0.0000000000000000e+00" cType="1" res="-8.4992302581667900e-03" rms="4.2247545719146729e-01" purity="2.3750424385070801e-01" nType="-99"/>
              <Node pos="r" depth="4" NCoef="0" IVar="4" Cut="-1.7019772529602051e+00" cType="1" res="9.8953368142247200e-03" rms="4.8914507031440735e-01" purity="5.3863924741744995e-01" nType="0">
                <Node pos="l" depth="5" NCoef="0" IVar="-1" Cut="0.0000000000000000e+00" cType="1" res="3.6875589285045862e-03" rms="4.8781299591064453e-01" purity="5.3859144449234009e-01" nType="-99"/>
                <Node pos="r" depth="5" NCoef="0" IVar="-1" Cut="0.0000000000000000e+00" cType="1" res="-2.8932271525263786e-03" rms="4.9239388108253479e-01" purity="5.3878468275070190e-01" nType="-99"/>
              </Node>
            </Node>
            <Node pos="r" depth="3" NCoef="0" IVar="-1" Cut="0.0000000000000000e+00" cType="1" res="9.1203637421131134e-03" rms="4.1909220814704895e-01" purity="7.6549589633941650e-01" nType="-99"/>
          </Node>
          <Node pos="r" depth="2" NCoef="0" IVar="0" Cut="1.9169855117797852e+01" cType="1" res="-2.5565888732671738e-02" rms="4.6814244985580444e-01" purity="4.5296600461006165e-01" nType="0">
            <Node pos="l" depth="3" NCoef="0" IVar="-1" Cut="0.0000000000000000e+00" cType="1" res="-1.0203187353909016e-02" rms="4.5063117146492004e-01" purity="3.0862712860107422e-01" nType="-99"/>
            <Node pos="r" depth="3" NCoef="0" IVar="4" Cut="-1.3722468614578247e+00" cType="1" res="-7.7673466876149178e-03" rms="4.8292315006256104e-01" purity="5.8502781391143799e-01" nType="0">
              <Node pos="l" depth="4" NCoef="0" IVar="-1" Cut="0.0000000000000000e+00" cType="1" res="3.7508681416511536e-03" rms="4.8028928041458130e-01" purity="6.0826838016510010e-01" nType="-99"/>
              <Node pos="r" depth="4" NCoef="0" IVar="-1" Cut="0.0000000000000000e+00" cType="1" res="-1.0147492401301861e-02" rms="4.8432424664497375e-01" purity="5.4918289184570312e-01" nType="-99"/>
            </Node>
          </Node>
        </Node>
        <Node pos="r" depth="1" NCoef="0" IVar="-1" Cut="0.0000000000000000e+00" cType="1" res="1.2341571971774101e-02" rms="4.3967449665069580e-01" purity="6.7665642499923706e-01" nType="-99"/>
      </Node>
    </BinaryTree>
    <BinaryTree type="DecisionTree" boostWeight="1.0000000000000000e+00" itree="23">
      <Node pos="s" depth="0" NCoef="0" IVar="10" Cut="2.9133994579315186e+00" cType="1" res="-4.2447354644536972e-04" rms="4.6559295058250427e-01" purity="4.9906331300735474e-01" nType="0">
        <Node pos="l" depth="1" NCoef="0" IVar="1" Cut="2.7619345188140869e+00" cType="1" res="-3.9253858849406242e-03" rms="4.6782743930816650e-01" purity="4.8596730828285217e-01" nType="0">
          <Node pos="l" depth="2" NCoef="0" IVar="2" Cut="9.8993790149688721e-01" cType="1" res="1.6733619850128889e-03" rms="4.7066241502761841e-01" purity="5.2045708894729614e-01" nType="0">
            <Node pos="l" depth="3" NCoef="0" IVar="1" Cut="-2.0159487724304199e+00" cType="1" res="1.3838489539921284e-02" rms="4.6976044774055481e-01" purity="5.4176616668701172e-01" nType="0">
              <Node pos="l" depth="4" NCoef="0" IVar="13" Cut="2.8158718109130859e+01" cType="1" res="-1.9336461555212736e-03" rms="4.7281515598297119e-01" purity="4.3266856670379639e-01" nType="0">
                <Node pos="l" depth="5" NCoef="0" IVar="-1" Cut="0.0000000000000000e+00" cType="1" res="-2.5669212918728590e-03" rms="4.7216841578483582e-01" purity="4.1616553068161011e-01" nType="-99"/>
                <Node pos="r" depth="5" NCoef="0" IVar="-1" Cut="0.0000000000000000e+00" cType="1" res="1.6192020848393440e-03" rms="4.7325176000595093e-01" purity="4.4857710599899292e-01" nType="-99"/>
              </Node>
              <Node pos="r" depth="4" NCoef="0" IVar="4" Cut="-1.3062413930892944e+00" cType="1" res="2.4068228900432587e-02" rms="4.6748408675193787e-01" purity="6.1252635717391968e-01" nType="0">
                <Node pos="l" depth="5" NCoef="0" IVar="-1" Cut="0.0000000000000000e+00" cType="1" res="7.0713725872337818e-03" rms="4.7044360637664795e-01" purity="5.8794027566909790e-01" nType="-99"/>
                <Node pos="r" depth="5" NCoef="0" IVar="-1" Cut="0.0000000000000000e+00" cType="1" res="2.6893867179751396e-03" rms="4.6323490142822266e-01" purity="6.4530611038208008e-01" nType="-99"/>
              </Node>
            </Node>
            <Node pos="r" depth="3" NCoef="0" IVar="0" Cut="2.7527406692504883e+01" cType="1" res="-1.3621708378195763e-02" rms="4.7134867310523987e-01" purity="4.9366551637649536e-01" nType="0">
              <Node pos="l" depth="4" NCoef="0" IVar="-1" Cut="0.0000000000000000e+00" cType="1" res="-6.5713846124708652e-03" rms="4.6751552820205688e-01" purity="3.7358152866363525e-01" nType="-99"/>
              <Node pos="r" depth="4" NCoef="0" IVar="6" Cut="4.2857143282890320e-01" cType="1" res="4.1139828972518444e-03" rms="4.7475954890251160e-01" purity="6.2168526649475098e-01" nType="0">
                <Node pos="l" depth="5" NCoef="0" IVar="-1" Cut="0.0000000000000000e+00" cType="1" res="7.4038836173713207e-03" rms="4.6687340736389160e-01" purity="6.6390532255172729e-01" nType="-99"/>
                <Node pos="r" depth="5" NCoef="0" IVar="-1" Cut="0.0000000000000000e+00" cType="1" res="-3.8852519355714321e-03" rms="4.7927492856979370e-01" purity="5.9067428112030029e-01" nType="-99"/>
              </Node>
            </Node>
          </Node>
          <Node pos="r" depth="2" NCoef="0" IVar="-1" Cut="0.0000000000000000e+00" cType="1" res="-6.3929273746907711e-03" rms="4.5470875501632690e-01" purity="3.3827280998229980e-01" nType="-99"/>
        </Node>
        <Node pos="r" depth="1" NCoef="0" IVar="-1" Cut="0.0000000000000000e+00" cType="1" res="1.5022456645965576e-02" rms="4.1789311170578003e-01" purity="7.3689132928848267e-01" nType="-99"/>
      </Node>
    </BinaryTree>
    <BinaryTree type="DecisionTree" boostWeight="1.0000000000000000e+00" itree="24">
      <Node pos="s" depth="0" NCoef="0" IVar="10" Cut="2.9133994579315186e+00" cType="1" res="3.2138417009264231e-03" rms="4.6600648760795593e-01" purity="5.0310951471328735e-01" nType="0">
        <Node pos="l" depth="1" NCoef="0" IVar="4" Cut="1.4640775918960571e+00" cType="1" res="-4.7278765123337507e-04" rms="4.6846169233322144e-01" purity="4.8966515064239502e-01" nType="0">
          <Node pos="l" depth="2" NCoef="0" IVar="6" Cut="1.2857142686843872e+00" cType="1" res="-3.6068118643015623e-03" rms="4.6978366374969482e-01" purity="4.7586151957511902e-01" nType="0">
            <Node pos="l" depth="3" NCoef="0" IVar="7" Cut="2.3809523880481720e-01" cType="1" res="-1.0847987141460180e-03" rms="4.6973443031311035e-01" purity="4.6850067377090454e-01" nType="0">
              <Node pos="l" depth="4" NCoef="0" IVar="2" Cut="6.5481364727020264e-01" cType="1" res="-6.2426174990832806e-03" rms="4.6860831975936890e-01" purity="4.2397826910018921e-01" nType="0">
                <Node pos="l" depth="5" NCoef="0" IVar="-1" Cut="0.0000000000000000e+00" cType="1" res="1.2066041817888618e-03" rms="4.7100919485092163e-01" purity="4.4249746203422546e-01" nType="-99"/>
                <Node pos="r" depth="5" NCoef="0" IVar="-1" Cut="0.0000000000000000e+00" cType="1" res="-3.0955756083130836e-03" rms="4.6685770153999329e-01" purity="4.1176640987396240e-01" nType="-99"/>
              </Node>
              <Node pos="r" depth="4" NCoef="0" IVar="4" Cut="-1.7628244161605835e+00" cType="1" res="1.5060435980558395e-02" rms="4.7287857532501221e-01" purity="6.0786682367324829e-01" nType="0">
                <Node pos="l" depth="5" NCoef="0" IVar="-1" Cut="0.0000000000000000e+00" cType="1" res="1.1571669951081276e-02" rms="4.4908413290977478e-01" purity="6.5640288591384888e-01" nType="-99"/>
                <Node pos="r" depth="5" NCoef="0" IVar="-1" Cut="0.0000000000000000e+00" cType="1" res="-1.7727261365507729e-06" rms="4.8146188259124756e-01" purity="5.8801311254501343e-01" nType="-99"/>
              </Node>
            </Node>
            <Node pos="r" depth="3" NCoef="0" IVar="-1" Cut="0.0000000000000000e+00" cType="1" res="-8.0498671159148216e-03" rms="4.6918976306915283e-01" purity="5.7163953781127930e-01" nType="-99"/>
          </Node>
